tree
version=v4
num_class=1
num_tree_per_iteration=1
label_index=0
max_feature_idx=4
objective=regression
feature_names=CPU_Model RAM_Capacity_GB CPU_Freq_MHz Num_Cores Achieved_Load_Pct
feature_infos=[25.838066111094314:870.60123639269477] [4:1536] [1600:3800] [2:224] [0:100.5]
tree_sizes=2659 2681 2678 2670 2666 2667 2650 2651 2645 2643 2641 2665 2636 2637 2639 2639 2654 2655 2645 2649 2665 2646 2667 2646 2656 2669 2662 2665 2662 2666 2673 2664 2655 2706 2679 2694 2685 2667 2703 2699 2682 2672 2701 2684 2667 2665 2691 2695 2701 2699 2664 2690 2705 2710 2668 2684 2662 2685 2662 2696 2709 2719 2697 2670 2674 2690 2692 2643 2691 2683 2705 2701 2706 2664 2700 2701 2693 2724 2710 2692 2686 2712 2694 2696 2689 2690 2695 2691 2699 2678 2672 2703 2708 2697 2696 2706 2670 2696 2717 2678

Tree=0
num_leaves=31
num_cat=0
split_feature=0 0 4 0 4 3 3 4 4 0 3 0 0 3 4 0 4 4 4 3 4 4 3 2 4 4 0 4 3 4
split_gain=5.31361e+07 2.45555e+07 1.52978e+07 9.96992e+06 7.57093e+06 5.22485e+06 3.84139e+06 3.99248e+06 2.69261e+06 2.39722e+06 1.65813e+06 1.64112e+06 1.42151e+06 1.29772e+06 1.00086e+06 945548 869531 855600 813958 624622 533706 523632 456563 380018 339916 338554 308727 295266 276784 273693
threshold=273.399833774922 603.74222703585838 69.950000000000017 129.85339502134573 59.95000000000001 100.00000000000001 60.000000000000007 49.95000000000001 30.150000000000002 196.54172184741435 60.000000000000007 304.34506171682023 177.2780823120323 60.000000000000007 89.750000000000014 72.291391828078176 9.8500000000000032 10.050000000000002 58.850000000000009 60.000000000000007 20.150000000000002 89.750000000000014 100.00000000000001 2366.5000000000005 89.950000000000017 89.850000000000009 384.6087127457767 59.650000000000013 22.000000000000004 99.450000000000017
decision_type=2 2 2 2 2 2 2 2 2 2 2 2 2 2 2 2 2 2 2 2 2 2 2 2 2 2 2 2 2 2
left_child=3 2 8 15 12 13 18 -8 16 21 -10 -7 20 26 -13 -1 -2 -14 -3 28 -5 -6 24 -12 -11 -15 -4 -17 -18 -16
right_child=1 6 5 4 9 11 7 -9 10 22 23 14 17 25 29 27 19 -19 -20 -21 -22 -23 -24 -25 -26 -27 -28 -29 -30 -31
leaf_value=192.41387088601127 200.53238659496139 247.02486150939421 224.1077182993067 197.51308979228148 207.4228075479582 236.71486148396289 261.94031570805811 321.52746622449274 212.8583860263609 214.72162430108321 223.82627702674546 252.30986150939421 200.60675155683847 234.55819481305767 266.55319484272752 196.20804274249065 216.70676565368132 207.74723336494048 266.76281022734292 215.32876889349419 202.13043873411689 212.384916812987 225.16437333235058 233.28750854577834 221.18225942127233 246.75790495448379 237.38986124236538 200.71620621306852 204.17822441376131 281.99486095452914
leaf_weight=502 97 45 140 463 526 30 22 23 139 241 113 40 238 45 24 308 21 569 39 174 545 357 82 68 123 46 20 275 110 22
leaf_count=502 97 45 140 463 526 30 22 23 139 241 113 40 238 45 24 308 21 569 39 174 545 357 82 68 123 46 20 275 110 22
internal_value=209.161 227.565 222.678 203.86 206.713 239.302 268.819 292.396 214.228 212.447 221.073 256.853 202.514 231.191 263.879 195.595 208.779 205.641 256.189 211.402 200.01 209.429 218.423 227.381 216.905 240.725 225.768 198.335 206.187 273.938
internal_weight=5447 1218 1089 4229 3144 367 129 45 722 1329 320 116 1815 251 86 1085 402 807 84 305 1008 883 446 181 364 91 160 583 131 46
internal_count=5447 1218 1089 4229 3144 367 129 45 722 1329 320 116 1815 251 86 1085 402 807 84 305 1008 883 446 181 364 91 160 583 131 46
is_linear=0
shrinkage=1


Tree=1
num_leaves=31
num_cat=0
split_feature=0 0 4 0 4 3 3 4 4 0 2 4 0 3 0 4 0 4 3 0 4 0 4 4 4 4 3 0 1 4
split_gain=4.30918e+07 2.04208e+07 1.26999e+07 7.75179e+06 5.96355e+06 4.42048e+06 3.11153e+06 3.23391e+06 2.13676e+06 1.85646e+06 1.61733e+06 1.45737e+06 1.00985e+06 1.00122e+06 994213 659306 647872 587832 497148 483172 463356 457612 443096 419323 408446 390339 339085 278139 270904 228081
threshold=259.98632788588469 603.74222703585838 59.850000000000001 125.07776347938871 50.45000000000001 60.000000000000007 60.000000000000007 49.95000000000001 79.850000000000009 182.693707288729 2475.0000000000005 10.300000000000002 177.2780823120323 60.000000000000007 305.09977055206667 58.850000000000009 72.291391828078176 20.150000000000002 100.00000000000001 390.13610376538833 99.450000000000017 316.10559099398466 89.750000000000014 89.950000000000017 89.550000000000011 10.050000000000002 100.00000000000001 390.13610376538833 448.00000000000006 9.8500000000000032
decision_type=2 2 2 2 2 2 2 2 2 2 2 2 2 2 2 2 2 2 2 2 2 2 2 2 2 2 2 2 2 2
left_child=3 2 11 16 12 19 15 -8 21 22 14 29 25 27 -10 -3 -1 -14 -16 24 26 -7 -6 -12 -4 -5 -11 -13 -15 -2
right_child=1 6 5 4 9 8 7 -9 10 20 23 13 17 28 18 -17 -18 -19 -20 -21 -22 -23 -24 -25 -26 -27 -28 -29 -30 -31
leaf_value=-15.072377081031343 -7.8242894266165939 34.07751305474175 7.3248807302836711 -11.638756854666605 -2.2330740885028173 15.092197552061918 47.501423363252123 101.12986211362093 20.19012209935622 4.8135236060344369 42.345443592900814 -0.94635215713454124 -6.4617099040614967 8.9748718377892622 33.459201535311614 51.841666979667473 -10.045471932193024 -0.75096288935221667 51.870187239213422 27.481643733233216 14.768870872881875 26.945256183021947 2.3659515779222962 59.934702740293567 16.44975673338946 -7.2659124848994825 12.816255050409035 11.240715159688678 20.623047373511575 -1.2595648326657036
leaf_weight=502 102 45 116 288 551 57 22 23 44 401 23 173 362 216 44 39 524 359 22 20 67 76 338 33 85 701 61 21 22 110
leaf_count=502 102 45 116 288 551 57 22 23 44 401 23 173 362 216 44 39 524 359 22 20 67 76 338 33 85 701 61 21 22 110
internal_value=-5.59462e-08 15.9424 11.7587 -4.96232 -2.48827 23.383 53.6925 74.9115 31.3097 2.30663 38.8765 2.37265 -6.46439 5.70513 31.8338 42.3252 -12.505 -3.61822 39.5962 12.6586 6.99722 21.8654 -0.484513 52.7105 11.1837 -8.5393 5.87016 0.372866 10.0516 -4.41806
internal_weight=5447 1293 1164 4154 3128 520 129 45 299 1418 166 644 1710 432 110 84 1026 721 66 221 529 133 889 56 201 989 462 194 238 212
internal_count=5447 1293 1164 4154 3128 520 129 45 299 1418 166 644 1710 432 110 84 1026 721 66 221 529 133 889 56 201 989 462 194 238 212
is_linear=0
shrinkage=0.1


Tree=2
num_leaves=31
num_cat=0
split_feature=0 0 4 0 4 3 4 3 0 4 3 2 0 4 0 4 4 4 4 0 3 3 4 4 0 1 4 3 2 4
split_gain=3.49481e+07 1.61727e+07 1.01709e+07 6.78443e+06 4.11776e+06 3.53601e+06 2.61661e+06 2.76531e+06 1.77427e+06 1.74822e+06 1.44882e+06 1.41721e+06 1.19981e+06 1.17864e+06 719920 666303 618086 571622 563012 516697 484716 373614 365111 344582 324849 292039 272088 270970 261137 246693
threshold=273.399833774922 536.75070661691018 69.65000000000002 154.38850941108646 40.45000000000001 60.000000000000007 59.95000000000001 46.000000000000007 83.102039235774626 20.150000000000002 60.000000000000007 2475.0000000000005 196.54172184741435 69.850000000000009 315.25680127996873 89.950000000000017 19.850000000000005 1.0000000180025095e-35 79.550000000000011 689.43019316696257 100.00000000000001 30.000000000000004 79.450000000000017 9.8500000000000032 209.55277184821202 320.00000000000006 49.95000000000001 60.000000000000007 2366.5000000000005 89.950000000000017
decision_type=2 2 2 2 2 2 2 2 2 2 2 2 2 2 2 2 2 2 2 2 2 2 2 2 2 2 2 2 2 2
left_child=3 2 9 8 17 29 16 -8 -1 23 -11 14 22 -10 -7 -13 -3 -5 -14 -18 -16 -20 -6 -2 -19 28 -27 -25 -12 -4
right_child=1 6 5 4 12 11 7 -9 13 10 25 15 18 -15 20 -17 19 24 21 -21 -22 -23 -24 27 -26 26 -28 -29 -30 -31
leaf_value=-12.833051303874456 -7.2793361000638264 21.95814994176229 9.3936867762637402 -9.848137041684744 -1.8263348449446479 20.057965195933477 46.79431960647171 92.227715919131327 -8.8269478995135042 1.1154610161591509 8.1098580772226523 35.070702667236326 3.2951509011348756 -2.1244054122992302 26.813211098695412 54.430331802368165 30.692338884793795 -5.7176225242959227 5.2481366515700891 49.807932453770796 43.88452248408877 12.599339077035353 2.642385978824656 -4.4658411484730394 -1.7514856450510323 13.024326864878336 25.264039468765262 3.1143850225668688 17.460352390568431 17.190415698952147
leaf_weight=698 95 24 93 222 377 79 37 21 735 179 110 40 282 408 39 32 26 526 117 31 29 169 355 79 340 42 32 117 41 72
leaf_count=698 95 24 93 222 377 79 37 21 735 179 110 40 282 408 39 32 26 526 117 31 29 169 355 79 340 42 32 117 41 72
internal_value=1.29043e-08 14.9255 10.7896 -4.2987 -0.781905 23.8512 47.0303 63.2443 -8.86042 3.57287 7.82945 32.1806 3.01698 -6.43444 26.5507 43.675 35.4203 -5.32101 6.46576 41.0885 34.0936 9.59203 0.340873 -2.33662 -4.16048 13.1708 18.3172 0.0590898 10.6487 12.7959
internal_weight=5447 1218 1079 4229 2388 384 139 58 1841 695 404 219 1300 1143 147 72 81 1088 568 57 68 286 732 291 866 225 74 196 151 165
internal_count=5447 1218 1079 4229 2388 384 139 58 1841 695 404 219 1300 1143 147 72 81 1088 568 57 68 286 732 291 866 225 74 196 151 165
is_linear=0
shrinkage=0.1


Tree=3
num_leaves=31
num_cat=0
split_feature=0 0 4 0 4 3 3 4 4 0 0 4 4 1 4 3 3 4 4 3 4 0 0 3 4 1 4 0 3 0
split_gain=2.83298e+07 1.34717e+07 8.42308e+06 5.18613e+06 3.27144e+06 2.92878e+06 2.13777e+06 2.18283e+06 1.48796e+06 1.35522e+06 1.07497e+06 965008 889455 812039 809194 732782 663556 468189 378353 377037 341397 328753 313965 264672 244502 241142 226414 220763 216408 199017
threshold=259.98632788588469 603.74222703585838 59.850000000000001 148.85850570476569 60.750000000000007 60.000000000000007 60.000000000000007 49.95000000000001 79.850000000000009 96.298441511975284 304.34506171682023 19.300000000000004 79.450000000000017 160.00000000000003 20.150000000000002 100.00000000000001 60.000000000000007 69.850000000000009 99.450000000000017 100.00000000000001 79.550000000000011 219.17558886432178 316.10559099398466 22.000000000000004 30.450000000000003 448.00000000000006 1.0000000180025095e-35 212.14246015968192 120.00000000000001 49.976306009281991
decision_type=2 2 2 2 2 2 2 2 2 2 2 2 2 2 2 2 2 2 2 2 2 2 2 2 2 2 2 2 2 2
left_child=3 2 11 9 14 20 17 -8 22 29 28 -2 24 21 26 -12 23 -3 -17 27 -4 -6 -7 -13 -11 -18 -5 -16 -10 -1
right_child=1 6 5 4 13 8 7 -9 10 12 15 16 -14 -15 19 18 25 -19 -20 -21 -22 -23 -24 -25 -26 -27 -28 -29 -30 -31
leaf_value=-12.804152895184593 -3.6220645499271407 28.601100017406324 5.1485064573404271 -9.0178294117961624 1.3305944023001084 11.955801940382573 38.65661607222124 82.71627436098845 27.156594571200284 -9.4298327083081279 27.856232919498368 8.90485699335734 -0.7443853242198627 10.519720702666742 -3.41476275155701 38.644771229137078 7.161060245004828 44.182008361816408 54.706155534224081 5.9283466096651765 13.284522525869685 6.4614412630781715 21.773776476006759 -1.3109367840628072 -5.6670512340454895 18.385741595994858 -5.0890705074983487 0.16204173441340286 14.003987937138 -9.6484664341539084
leaf_weight=389 213 54 82 224 545 57 22 23 22 339 49 30 270 154 578 44 216 30 22 59 139 162 76 164 352 21 425 246 29 411
leaf_count=389 213 54 82 224 545 57 22 23 22 339 49 30 270 154 578 44 216 30 22 59 139 162 76 164 352 21 425 246 29 411
internal_value=-3.91227e-08 12.9264 9.52833 -4.02355 -0.992471 18.9951 43.5879 61.176 25.4472 -8.14244 31.7616 1.88438 -5.61134 3.93956 -3.76433 37.1205 4.60567 34.1657 43.9986 -1.794 10.2657 2.50626 17.5661 0.268825 -7.51305 8.15565 -6.44507 -2.34693 19.6777 -11.1829
internal_weight=5447 1293 1164 4154 2393 520 129 45 299 1761 166 644 961 861 1532 115 431 84 66 883 221 707 133 194 691 237 649 824 51 800
internal_count=5447 1293 1164 4154 2393 520 129 45 299 1761 166 644 961 861 1532 115 431 84 66 883 221 707 133 194 691 237 649 824 51 800
is_linear=0
shrinkage=0.1


Tree=4
num_leaves=31
num_cat=0
split_feature=0 0 4 0 4 3 4 3 4 0 3 4 0 0 1 4 4 4 4 3 3 3 4 2 3 0 4 4 4 4
split_gain=2.29844e+07 1.0737e+07 6.74136e+06 4.46098e+06 2.76595e+06 2.39925e+06 1.87605e+06 2.14975e+06 1.28487e+06 1.17307e+06 831697 821151 790923 749205 656518 485944 396818 375212 365318 335375 252412 249454 247464 236984 222661 215659 214239 184816 180212 167997
threshold=273.399833774922 536.75070661691018 69.950000000000017 154.38850941108646 40.45000000000001 100.00000000000001 39.850000000000001 60.000000000000007 30.150000000000002 96.298441511975284 60.000000000000007 60.250000000000007 196.54172184741435 304.34506171682023 226.00000000000003 99.450000000000017 80.450000000000017 9.8500000000000032 1.0000000180025095e-35 60.000000000000007 100.00000000000001 30.000000000000004 79.450000000000017 2366.5000000000005 22.000000000000004 332.52564040810995 89.850000000000009 89.950000000000017 19.850000000000005 50.050000000000004
decision_type=2 2 2 2 2 2 2 2 2 2 2 2 2 2 2 2 2 2 2 2 2 2 2 2 2 2 2 2 2 2
left_child=3 2 8 9 18 14 28 -8 17 29 -10 -11 22 -7 27 25 -14 -2 -5 24 -20 -18 -6 -12 -19 -15 -16 -4 -3 -1
right_child=1 6 5 4 12 13 7 -9 10 11 23 -13 16 15 26 -17 21 19 20 -21 -22 -23 -24 -25 -26 -27 -28 -29 -30 -31
leaf_value=-11.510131546743494 -6.1891958955557733 16.877465661366781 7.9124999475479134 -7.9736929790393738 -1.477888657466758 18.060993830362957 36.129484058248586 69.475278867524239 1.9209584197577307 -7.1954305064678197 9.4631248882386547 -1.4241174708745277 3.3978647760571343 39.0250546675462 16.513873010211523 49.235542574795815 4.7811806278464237 6.5789535658700133 -3.9486589752100034 3.8939981081237685 2.1584422123995988 12.093800179741599 2.2010837038553936 16.934580292421227 -4.6747603750339257 27.205664564433853 27.211709496913812 14.458395052559769 28.686337716238842 -8.6118767960627292
leaf_weight=401 95 24 95 222 377 30 58 29 136 640 113 401 377 26 36 22 81 21 792 173 74 110 355 68 108 38 39 79 28 399
leaf_count=401 95 24 95 222 377 30 58 29 136 640 113 401 377 26 36 22 81 21 792 173 74 110 355 68 108 38 39 79 28 399
internal_value=4.1247e-09 12.1041 8.73424 -3.48612 -0.634407 19.7894 38.2631 47.2447 3.08278 -7.18514 7.83008 -4.97228 2.47908 31.6679 14.2556 36.4145 5.27921 -0.707879 -4.35457 1.01638 -3.42681 8.99264 0.306312 12.2701 -2.84276 32.0073 22.0767 10.8845 23.2361 -10.0646
internal_weight=5447 1218 1079 4229 2388 365 139 87 714 1841 317 1041 1300 116 249 86 568 397 1088 302 866 191 732 181 129 64 75 174 52 800
internal_count=5447 1218 1079 4229 2388 365 139 87 714 1841 317 1041 1300 116 249 86 568 397 1088 302 866 191 732 181 129 64 75 174 52 800
is_linear=0
shrinkage=0.1


Tree=5
num_leaves=31
num_cat=0
split_feature=0 3 4 0 0 4 0 3 2 0 4 4 2 2 4 0 4 4 3 0 1 0 0 4 4 3 4 0 3 4
split_gain=1.8618e+07 9.33932e+06 6.00442e+06 3.40733e+06 3.01008e+06 2.73411e+06 2.55998e+06 1.86821e+06 1.4573e+06 887629 655182 634174 583756 533078 417917 399765 374405 343749 333372 325949 269926 262775 258442 200760 187416 177679 175434 172288 169500 155300
threshold=259.24425896400538 176.00000000000003 50.150000000000013 125.07776347938871 444.40434005689934 40.250000000000007 489.07307179397083 60.000000000000007 2475.0000000000005 182.693707288729 89.950000000000017 20.150000000000002 2366.5000000000005 2630.0000000000005 89.750000000000014 177.2780823120323 79.550000000000011 89.750000000000014 60.000000000000007 57.777850412075601 160.00000000000003 640.11459197467684 301.9507086643996 90.050000000000011 1.0000000180025095e-35 100.00000000000001 9.8500000000000032 331.28728047531484 10.000000000000002 1.0000000180025095e-35
decision_type=2 2 2 2 2 2 2 2 2 2 2 2 2 2 2 2 2 2 2 2 2 2 2 2 2 2 2 2 2 2
left_child=3 2 6 19 7 15 11 23 14 17 -10 26 -6 21 27 29 25 -7 -13 -1 -18 -8 -16 -4 28 -11 -2 -9 -17 -5
right_child=1 -3 4 5 12 9 13 8 10 16 -12 18 -14 -15 22 24 20 -19 -20 -21 -22 -23 -24 -25 -26 -27 -28 -29 -30 -31
leaf_value=-10.362104076420495 -6.077678332726161 59.911084251146058 5.3147270572652303 -9.1762880203051438 47.321177199791222 -1.9224886641698085 19.99802713701802 7.9550498431241969 23.475058086847856 0.70756388374205148 41.245606231689457 0.32056256778688241 28.256820827060281 6.9713319960094644 13.450172682369455 -0.95303818345069891 4.3702216631933757 1.9315099525094561 6.8180645940204458 -6.7564895149055175 10.590863262032563 34.485842241559709 25.001954905192058 12.105981509968387 -1.9769984342174074 7.5432974988763988 -0.96349473973879451 16.149411703410902 -8.8323986851891814 -5.6695067405228698
leaf_weight=436 99 37 166 156 29 734 31 79 59 280 32 149 36 21 34 40 204 338 168 590 106 21 45 59 459 44 208 38 86 663
leaf_count=436 99 37 166 156 29 734 31 79 59 280 32 149 36 21 34 40 204 338 168 590 106 21 45 59 459 44 208 38 86 663
internal_value=-5.29009e-09 10.3843 8.94592 -3.29154 16.4913 -1.64296 2.69963 13.9178 19.2662 1.04685 29.724 0.626765 36.7625 20.4183 14.4108 -4.91135 4.0129 -0.707329 3.76403 -8.2887 6.49728 25.8489 20.0303 7.09554 -2.91479 1.63587 -2.61269 10.6165 -6.33101 -6.33747
internal_weight=5447 1311 1274 4136 577 3110 697 512 287 1706 91 624 65 73 196 1404 634 1072 317 1026 310 52 79 225 585 324 307 117 126 819
internal_count=5447 1311 1274 4136 577 3110 697 512 287 1706 91 624 65 73 196 1404 634 1072 317 1026 310 52 79 225 585 324 307 117 126 819
is_linear=0
shrinkage=0.1


Tree=6
num_leaves=31
num_cat=0
split_feature=0 0 4 0 4 1 4 3 4 3 4 1 3 0 4 4 4 0 1 0 0 4 4 0 4 0 1 1 3 0
split_gain=1.51525e+07 8.13602e+06 4.44619e+06 2.3794e+06 2.0572e+06 2.0355e+06 1.56163e+06 1.52317e+06 940372 614872 586700 574174 511214 437749 363930 302009 271897 219032 217801 198186 194512 159036 151889 151048 145522 143683 142549 142282 140091 137760
threshold=237.97809163165263 489.07307179397083 69.850000000000009 104.06865946806252 69.950000000000017 320.00000000000006 39.850000000000001 60.000000000000007 30.150000000000002 60.000000000000007 30.150000000000002 160.00000000000003 60.000000000000007 295.42427497627096 99.550000000000011 89.850000000000009 1.0000000180025095e-35 306.47131189370299 320.00000000000006 171.00619092095866 304.34506171682023 99.65000000000002 1.0000000180025095e-35 57.777850412075601 97.800000000000011 640.11459197467684 112.00000000000001 40.000000000000007 100.00000000000001 345.43186050408605
decision_type=2 2 2 2 2 2 2 2 2 2 2 2 2 2 2 2 2 2 2 2 2 2 2 2 2 2 2 2 2 2
left_child=3 2 8 23 10 9 25 26 16 21 22 -6 27 -11 17 -15 -2 -7 -18 -12 -14 -4 -5 -1 -13 -3 -8 -10 -24 -19
right_child=1 6 5 4 11 14 7 -9 12 13 19 24 20 15 -16 -17 18 29 -20 -21 -22 -23 28 -25 -26 -27 -28 -29 -30 -31
leaf_value=-9.3258936523297518 -4.9115673013833856 12.106478551717906 6.483988023920185 -7.6053796365687152 0.73111112669032874 14.655569705963135 26.175525869974276 57.07310679117839 4.8627052992067128 7.8302792390187577 -3.286591672875975 5.8328592013805469 4.1907704362379654 13.690662658423708 38.244603937322445 24.077910350452772 -0.7061630031182653 33.185954212007069 5.4621012248854708 -0.32565382166128409 11.178569994802061 14.237165797551473 -5.1263334427235314 -6.6797981052543864 13.38658768245152 22.114640080928805 36.473214340209964 -0.42450941586279661 1.1753080638679299 22.386769036893494
leaf_weight=436 130 26 224 263 866 20 41 30 94 54 558 94 56 57 22 55 336 21 69 380 138 30 758 427 35 32 20 111 37 27
leaf_count=436 130 26 224 263 866 20 41 30 94 54 558 94 56 57 22 55 336 21 69 380 138 30 758 427 35 32 20 111 37 27
internal_value=7.00009e-09 8.20374 5.90808 -3.39091 -2.05623 13.4174 30.4516 38.6248 1.80772 10.4929 -3.90789 1.65825 5.48195 15.2258 27.0649 18.7915 -0.932504 23.4479 0.344726 -2.08706 9.16147 7.39972 -5.5222 -8.01664 7.88232 17.6282 29.5518 1.99987 -4.83305 27.1114
internal_weight=5447 1593 1444 3854 2991 510 149 91 934 420 1996 995 399 166 90 112 535 68 405 938 194 254 1058 863 129 58 61 205 795 48
internal_count=5447 1593 1444 3854 2991 510 149 91 934 420 1996 995 399 166 90 112 535 68 405 938 194 254 1058 863 129 58 61 205 795 48
is_linear=0
shrinkage=0.1


Tree=7
num_leaves=31
num_cat=0
split_feature=0 3 4 0 0 0 4 3 2 1 4 1 2 4 3 0 4 0 3 4 2 4 4 4 4 3 3 3 1 3
split_gain=1.22842e+07 7.21954e+06 4.00579e+06 2.03211e+06 2.00543e+06 1.91027e+06 1.63653e+06 1.22142e+06 1.17702e+06 850192 727179 513174 306686 297501 290672 288759 238754 226590 218474 211109 206807 198338 178803 174652 152169 138586 164551 333848 126535 123853
threshold=236.44594809564924 176.00000000000003 69.850000000000009 421.01781755179479 489.07307179397083 108.6020773748849 50.150000000000013 60.000000000000007 2475.0000000000005 226.00000000000003 30.150000000000002 160.00000000000003 2366.5000000000005 10.15 60.000000000000007 818.43599616611357 89.950000000000017 298.6606857904398 100.00000000000001 80.450000000000017 2366.5000000000005 89.750000000000014 1.0000000180025095e-35 97.800000000000011 40.350000000000001 30.000000000000004 52.000000000000007 46.000000000000007 17.000000000000004 22.000000000000004
decision_type=2 2 2 2 2 2 2 2 2 2 2 2 2 2 2 2 2 2 2 2 2 2 2 2 2 2 2 2 2 2
left_child=5 2 3 10 7 24 13 25 17 15 22 19 -6 -7 -12 -5 -10 -9 -15 -8 -16 -19 -2 -13 -1 29 27 -27 -21 -4
right_child=1 -3 4 9 12 6 11 8 16 -11 14 23 -14 18 20 -17 -18 21 -20 28 -22 -23 -24 -25 -26 26 -28 -29 -30 -31
leaf_value=-8.6804533735234681 -4.7957874827497591 50.996317554164584 6.0417236164637984 17.533486072833721 41.458544590162198 -6.0085244433986418 -1.1364386956214749 7.0702563455027914 21.766670646667482 4.5016992640662563 1.6703013696707787 4.1444231097861168 24.943568142977629 -3.4187296365951756 4.5270649400380281 31.427185639880953 33.164495243745698 10.402518173500345 3.2296641515997742 -0.15909629402673833 11.562546129369025 19.013643595857442 -0.46595366791318665 12.047928989955359 -6.0255695539113336 6.8313651766095846 5.8601610263790747 21.426803649902343 3.1174281328529121 -1.637967784802119
leaf_weight=376 127 37 70 52 23 523 734 62 40 49 208 139 22 999 111 21 34 54 52 223 67 53 383 35 507 42 99 25 250 30
leaf_count=376 127 37 70 52 23 523 734 62 40 49 208 139 22 999 111 21 34 54 52 223 67 53 383 35 507 42 99 25 250 30
internal_value=1.2355e-08 7.33447 6.3068 2.5829 13.1496 -3.07482 -1.85528 11.3607 16.4859 14.6909 0.934255 0.657122 33.3846 -4.05961 4.20885 21.5303 27.0035 11.8806 -3.08979 -0.0747866 7.17525 14.6678 -1.54417 5.73421 -7.15608 6.67867 8.45026 12.2774 1.57268 3.73782
internal_weight=5447 1609 1572 1018 554 3838 2955 509 243 122 896 1381 45 1574 386 73 74 169 1051 1207 178 107 510 174 883 266 166 67 473 100
internal_count=5447 1609 1572 1018 554 3838 2955 509 243 122 896 1381 45 1574 386 73 74 169 1051 1207 178 107 510 174 883 266 166 67 473 100
is_linear=0
shrinkage=0.1


Tree=8
num_leaves=31
num_cat=0
split_feature=0 3 4 0 0 0 4 3 2 1 4 0 2 1 4 4 3 0 4 2 0 4 3 3 3 3 4 3 3 3
split_gain=9.95017e+06 5.84783e+06 3.24815e+06 1.65646e+06 1.606e+06 1.57489e+06 1.13252e+06 1.04467e+06 941883 700760 638699 388219 320857 303201 300714 263965 242826 227840 198781 194997 163098 168784 155950 155879 232758 153630 135548 128994 257503 114724
threshold=236.44594809564924 176.00000000000003 69.950000000000017 421.01781755179479 140.68002310784075 444.40434005689934 60.250000000000007 60.000000000000007 2475.0000000000005 226.00000000000003 30.150000000000002 83.102039235774626 2475.0000000000005 160.00000000000003 20.150000000000002 79.550000000000011 60.000000000000007 818.43599616611357 89.950000000000017 2366.5000000000005 301.9507086643996 89.850000000000009 30.000000000000004 22.000000000000004 60.000000000000007 100.00000000000001 9.8500000000000032 52.000000000000007 46.000000000000007 14.000000000000002
decision_type=2 2 2 2 2 2 2 2 2 2 2 2 2 2 2 2 2 2 2 2 2 2 2 2 2 2 2 2 2 2
left_child=4 2 3 10 11 7 14 22 20 17 23 -1 -7 -8 -6 -13 -12 -5 -10 -18 -9 -22 -4 -2 -25 -16 -26 28 -24 -17
right_child=1 -3 5 9 6 12 13 8 18 -11 16 15 -14 -15 25 29 19 -19 -20 -21 21 -23 27 24 26 -27 -28 -29 -30 -31
leaf_value=-6.9478417858353314 2.9933956810406279 45.896685696936942 2.5895304769918486 15.976576045774065 -4.4300063413584949 35.74890562912514 1.0929401179169542 7.2132786498350256 19.806635057603991 4.0515293396249108 1.6521905940417285 -4.8678652296734581 19.518389246009647 6.2717063562615829 -1.8393303844023059 -3.4201778433824845 4.1089603554209075 28.284467170352027 30.481895909164894 10.780548032124837 9.4272804604924243 18.041197145250109 6.3017027550935749 -4.5608849316835407 -3.9635421982695984 3.7766721981649214 1.4818949713617906 5.406973246147758 19.403941599527997 0.85966663518719533
leaf_weight=698 70 37 93 53 599 29 670 68 37 49 219 660 21 136 770 114 120 21 33 69 46 45 40 204 62 52 174 95 24 139
leaf_count=698 70 37 93 53 599 29 670 68 37 49 219 660 21 136 770 114 120 21 33 69 46 45 40 204 62 52 174 95 24 139
internal_value=-1.43452e-08 6.60102 5.67612 2.42963 -2.76734 12.0407 -1.0275 10.2848 15.1736 13.3273 0.969488 -5.17243 28.9321 1.96678 -2.72588 -3.81511 3.91854 19.4694 24.8393 6.54462 10.9183 13.6869 5.84227 -1.38975 -2.08707 -1.48406 0.051314 7.74481 11.215 -1.0688
internal_weight=5447 1609 1572 1041 3838 531 2227 481 229 123 918 1611 50 806 1421 913 408 74 70 189 159 91 252 510 440 822 236 159 64 253
internal_count=5447 1609 1572 1041 3838 531 2227 481 229 123 918 1611 50 806 1421 913 408 74 70 189 159 91 252 510 440 822 236 159 64 253
is_linear=0
shrinkage=0.1


Tree=9
num_leaves=31
num_cat=0
split_feature=0 3 4 0 0 0 4 2 4 3 2 4 0 3 3 0 3 4 2 3 4 0 0 3 0 1 3 3 1 4
split_gain=8.05964e+06 4.73674e+06 2.68655e+06 1.54524e+06 1.31252e+06 1.15442e+06 808448 699740 663724 642769 615239 436112 337045 301078 299184 246616 245259 232125 227066 214298 185858 143201 143148 122930 119115 107490 127428 106774 165535 106554
threshold=236.44594809564924 176.00000000000003 79.65000000000002 421.01781755179479 151.32188331949652 635.89328262507888 30.350000000000005 2683.5000000000005 40.050000000000004 60.000000000000007 2475.0000000000005 59.750000000000007 818.43599616611357 100.00000000000001 10.000000000000002 390.13610376538833 60.000000000000007 70.550000000000011 2475.0000000000005 30.000000000000004 10.15 80.970025709141353 298.6606857904398 14.000000000000002 322.51277898921074 17.000000000000004 60.000000000000007 60.000000000000007 40.000000000000007 88.850000000000009
decision_type=2 2 2 2 2 2 2 2 2 2 2 2 2 2 2 2 2 2 2 2 2 2 2 2 2 2 2 2 2 2
left_child=4 2 3 8 11 9 -6 12 20 15 22 21 -5 17 -13 19 -10 -8 24 -4 23 -1 -11 -2 -18 -19 -27 28 -22 -16
right_child=1 -3 5 7 6 -7 13 -9 16 10 -12 14 -14 -15 29 -17 18 25 -20 -21 27 -23 -24 -25 -26 26 -28 -29 -30 -31
leaf_value=-7.4081512042089059 3.241010266336902 41.307017568639807 1.8421457858069947 13.740236945410032 -3.3598417003762808 34.788275655110674 -0.83028625714405835 1.0942938986577486 2.0607679881190637 6.6549937974082098 23.640192012129162 -4.3421806607787143 27.377756722768147 6.5706420205888296 -1.9998515948882472 17.411130598613195 2.6220876537520312 0.45876126155686481 12.637309177105244 8.5963751403296875 2.3914957159480386 -4.9246737385038442 13.737579241777079 -3.6765895137654412 8.6358851882646679 4.5563124210326285 -0.58008625076876752 2.5818248675960418 -3.4532771486956797 1.5796581993997099
leaf_weight=373 29 37 76 74 745 21 683 38 212 45 58 485 24 84 195 21 87 243 52 123 86 615 78 225 53 207 63 159 111 145
leaf_count=373 29 37 76 74 745 21 683 38 212 45 58 485 24 84 195 21 87 243 52 123 86 615 78 225 53 207 63 159 111 145
internal_value=-3.20825e-10 5.94092 5.10851 2.60426 -2.4906 11.9329 -0.740812 12.6134 1.2618 10.736 15.1499 -4.445 17.08 0.783546 -2.74773 7.1045 4.40556 0.377094 6.9946 6.01687 -0.820292 -5.86226 11.1464 -2.88678 4.89874 1.98458 3.35782 0.654115 -0.901752 -0.473296
internal_weight=5447 1609 1572 1150 3838 422 2025 136 1014 401 181 1813 98 1280 825 220 404 1196 192 199 610 988 123 254 140 513 270 356 197 340
internal_count=5447 1609 1572 1150 3838 422 2025 136 1014 401 181 1813 98 1280 825 220 404 1196 192 199 610 988 123 254 140 513 270 356 197 340
is_linear=0
shrinkage=0.1


Tree=10
num_leaves=31
num_cat=0
split_feature=0 0 4 4 0 1 4 0 4 4 4 4 0 3 3 1 4 4 3 2 0 3 1 3 4 1 3 2 4 0
split_gain=6.52831e+06 3.84891e+06 2.20292e+06 1.17082e+06 1.06314e+06 946324 667136 443908 390784 361886 333360 327409 318289 306462 259070 205502 191473 186957 131729 141376 131062 112584 141739 109693 108563 103109 126245 100605 99598.4 93401.5
threshold=236.44594809564924 640.11459197467684 49.650000000000013 79.950000000000017 151.32188331949652 320.00000000000006 69.750000000000014 404.08609188689053 89.750000000000014 49.750000000000007 29.950000000000003 90.050000000000011 421.01781755179479 46.000000000000007 10.000000000000002 160.00000000000003 19.850000000000005 10.15 60.000000000000007 2475.0000000000005 331.28728047531484 60.000000000000007 40.000000000000007 100.00000000000001 88.850000000000009 40.000000000000007 60.000000000000007 2283.5000000000005 97.800000000000011 45.702781211047984
decision_type=2 2 2 2 2 2 2 2 2 2 2 2 2 2 2 2 2 2 2 2 2 2 2 2 2 2 2 2 2 2
left_child=4 2 12 10 9 7 16 8 18 -1 -3 -7 17 -10 29 -8 -6 25 -4 20 -20 22 -19 -18 -16 -2 -27 -15 -17 -11
right_child=1 3 5 -5 6 11 15 -9 13 14 -12 -13 -14 27 24 28 23 21 19 -21 -22 -23 -24 -25 -26 26 -28 -29 -30 -31
leaf_value=-5.5500511587897314 1.2507562233342064 10.608530814831074 2.2662379109067845 46.545296496436713 -3.9240993879715393 12.796315963418635 0.99183073970206748 15.059424923016474 3.5639815347535269 -5.8681656618913021 25.303488465359337 24.897060428346908 7.1847245976842693 8.1804384103188141 -1.9910270847751264 3.7476530932650278 -1.5360234349627389 2.0763810940463134 3.1109490081394484 13.778101196289064 10.222327998105218 2.7277179593413043 -3.0852298175284396 2.7210187320984329 1.4216923723138613 -6.8582101794032315 -1.7263528610425671 13.728366014869378 10.029113027628732 -3.1760741963374373
leaf_weight=823 54 26 256 21 371 111 577 52 70 192 38 28 58 52 261 98 880 99 109 20 34 174 115 65 145 77 127 88 34 392
leaf_count=823 54 26 256 21 371 111 577 52 70 192 38 28 58 52 261 98 880 99 109 20 34 174 115 65 145 77 127 88 34 392
internal_value=1.8211e-09 5.34683 4.19176 26.0565 -2.24154 7.71455 -0.66673 6.17976 5.44567 -4.0005 19.3337 15.2339 0.0885072 8.96647 -2.71235 1.80613 -1.99899 -0.548614 3.68108 5.90316 4.80177 0.838617 -0.697382 -1.24321 -0.772199 -2.63484 -3.66338 11.6677 5.3656 -4.06115
internal_weight=5447 1609 1524 85 3838 820 2025 681 629 1813 64 139 704 210 990 709 1316 646 419 163 143 388 214 945 406 258 204 140 132 584
internal_count=5447 1609 1524 85 3838 820 2025 681 629 1813 64 139 704 210 990 709 1316 646 419 163 143 388 214 945 406 258 204 140 132 584
is_linear=0
shrinkage=0.1


Tree=11
num_leaves=31
num_cat=0
split_feature=0 3 4 0 0 4 2 0 4 3 2 4 3 0 4 0 3 2 3 3 1 3 0 4 1 3 1 4 3 4
split_gain=5.3132e+06 3.35676e+06 1.84428e+06 1.18617e+06 910124 690051 567007 537605 457961 379093 370832 304753 251419 236671 205318 178671 176106 178103 175288 142975 131234 129095 113236 110912 107260 137768 96647.4 94219.9 89022.2 88576.5
threshold=273.399833774922 176.00000000000003 79.950000000000017 155.53042588520447 421.01781755179479 39.750000000000007 2683.5000000000005 635.89328262507888 40.050000000000004 60.000000000000007 2366.5000000000005 79.15000000000002 100.00000000000001 818.43599616611357 80.450000000000017 80.970025709141353 60.000000000000007 2366.5000000000005 14.000000000000002 60.000000000000007 40.000000000000007 10.000000000000002 390.13610376538833 9.8500000000000032 17.000000000000004 60.000000000000007 40.000000000000007 20.150000000000002 46.000000000000007 9.8500000000000032
decision_type=2 2 2 2 2 2 2 2 2 2 2 2 2 2 2 2 2 2 2 2 2 2 2 2 2 2 2 2 2 2
left_child=3 2 4 11 8 21 13 9 19 22 -11 15 14 -6 -7 -1 26 -18 -13 20 -2 -5 -4 -23 -16 28 -10 -17 -26 -21
right_child=1 -3 7 5 6 12 -8 -9 16 10 -12 18 -14 -15 24 27 17 -19 -20 29 -22 23 -24 -25 25 -27 -28 -29 -30 -31
leaf_value=-5.9047652264271893 1.2909343339502812 35.478908105798673 5.3075743787629266 -0.2331327485247246 11.330968243197391 -0.046539504798688382 -0.28487611507114613 27.254649110067461 5.8400974544318949 9.6738013741374029 19.977467223136657 -2.9653930456813327 5.3860863176856455 22.721922445297242 0.88933501184382091 -4.9068089434975075 3.9569287848268822 10.586323624272502 0.78135638062906743 -2.8385213906948383 -4.4311295941155011 -5.2507314336179309 13.517452729642393 -2.316896336193722 4.1070720462462837 -0.73336902457204733 -0.15016878783100784 -2.7087816804209179 9.2995089375454452 1.8167394506837686
leaf_weight=484 56 37 105 211 76 966 38 21 37 80 62 327 127 24 179 304 117 62 202 52 141 173 20 505 117 44 99 544 46 191
leaf_count=484 56 37 105 211 76 966 38 21 37 80 62 327 127 24 179 304 117 62 202 52 141 173 20 505 117 44 99 544 46 191
internal_value=3.88044e-09 5.81962 4.89042 -1.67612 2.64623 -0.191426 10.1134 11.849 1.28136 10.6373 14.1726 -3.56529 1.13205 14.0648 0.732449 -4.37174 4.19216 6.25314 -1.53469 -0.802506 -2.80455 -2.39325 6.62115 -3.0655 2.68194 4.23206 1.47954 -3.49675 5.57242 0.820552
internal_weight=5447 1218 1181 4229 893 2368 138 288 755 267 142 1861 1479 100 1352 1332 315 179 529 440 197 889 125 678 386 207 136 848 163 243
internal_count=5447 1218 1181 4229 893 2368 138 288 755 267 142 1861 1479 100 1352 1332 315 179 529 440 197 889 125 678 386 207 136 848 163 243
is_linear=0
shrinkage=0.1


Tree=12
num_leaves=31
num_cat=0
split_feature=0 3 4 0 0 4 0 2 3 2 4 4 0 3 2 1 0 1 1 4 0 3 3 3 3 3 3 0 4 3
split_gain=4.3482e+06 2.87803e+06 1.46028e+06 792738 707829 652686 594229 455516 435758 383055 356120 211216 193784 169172 183267 131457 127403 109871 107530 103630 100687 94194.8 91197 90174.8 82709.4 82468 165728 76970 70093.7 65041.3
threshold=236.44594809564924 176.00000000000003 79.65000000000002 421.01781755179479 115.62622048354662 40.250000000000007 489.07307179397083 2683.5000000000005 60.000000000000007 2475.0000000000005 20.050000000000004 97.800000000000011 818.43599616611357 60.000000000000007 2366.5000000000005 40.000000000000007 177.9653842319909 160.00000000000003 160.00000000000003 1.0000000180025095e-35 55.918984043985994 22.000000000000004 100.00000000000001 30.000000000000004 60.000000000000007 52.000000000000007 46.000000000000007 295.42427497627096 99.450000000000017 22.000000000000004
decision_type=2 2 2 2 2 2 2 2 2 2 2 2 2 2 2 2 2 2 2 2 2 2 2 2 2 2 2 2 2 2
left_child=4 2 3 10 20 19 8 12 23 18 21 16 -5 15 -15 -12 -7 -13 -10 -6 -1 -2 -21 29 -23 26 -25 -16 -11 -4
right_child=1 -3 6 7 5 11 -8 -9 9 28 13 17 -14 14 27 -17 -18 -19 -20 22 -22 24 -24 25 -26 -27 -28 -29 -30 -31
leaf_value=-5.378518045151611 2.5553943196985318 31.931016793122161 3.8939588592862187 10.10902181452996 -4.5062855443138092 -0.87073139320893422 21.22407356262207 -0.25638849296067895 2.5004905910403643 15.414481985246812 2.968404593968847 2.1133245202190674 20.449729983011881 2.1799320724715172 1.8742429971694947 -0.91489798885827156 1.2283766456365919 8.1398265450341363 9.6438027278209741 -2.4764802072477159 -3.298900745845152 -4.0527641654014586 1.8589051871323119 4.8028690684925435 -0.7834051151151602 3.9885400009115006 16.339098129272461 8.612119947780263 22.762345581054689 -2.1360747292088087
leaf_weight=411 47 37 53 74 257 900 35 38 27 37 157 223 24 192 21 196 426 35 96 998 537 140 51 33 173 74 20 88 20 27
leaf_count=411 47 37 53 74 257 900 35 38 27 37 157 223 24 192 21 196 426 35 96 998 537 140 51 33 173 74 20 88 20 27
internal_value=5.59544e-09 4.36366 3.71481 1.86852 -1.82937 -1.05157 8.74616 9.03764 7.61766 11.2161 0.906982 0.313002 12.6414 2.29739 4.03911 0.812237 -0.196357 2.93087 8.07576 -2.70661 -4.20051 -1.61892 -2.2657 4.48857 -2.24574 6.14511 9.15616 7.314 17.9927 1.85882
internal_weight=5447 1609 1572 1150 3838 2890 422 136 387 180 1014 1584 98 654 301 353 1326 258 123 1306 948 360 1049 207 313 127 53 109 57 80
internal_count=5447 1609 1572 1150 3838 2890 422 136 387 180 1014 1584 98 654 301 353 1326 258 123 1306 948 360 1049 207 313 127 53 109 57 80
is_linear=0
shrinkage=0.1


Tree=13
num_leaves=31
num_cat=0
split_feature=0 3 4 0 0 2 4 3 2 0 4 1 4 3 4 3 0 4 4 4 0 0 3 4 3 3 0 3 3 1
split_gain=3.5226e+06 2.30312e+06 1.27216e+06 766161 638873 542200 424638 423420 410654 318396 224927 197769 191320 130975 128093 116781 116688 110258 97394.5 93931 81105.7 78456 102235 68366.9 68123.4 348888 114748 78600.7 65516.1 109913
threshold=247.07049398494269 176.00000000000003 40.150000000000013 489.07307179397083 155.53042588520447 2283.5000000000005 69.950000000000017 60.000000000000007 2475.0000000000005 421.01781755179479 79.15000000000002 226.00000000000003 79.950000000000017 100.00000000000001 89.750000000000014 14.000000000000002 80.970025709141353 30.050000000000004 99.65000000000002 9.8500000000000032 301.9507086643996 322.51277898921074 68.000000000000014 20.050000000000004 52.000000000000007 46.000000000000007 336.16997390507765 22.000000000000004 60.000000000000007 40.000000000000007
decision_type=2 2 2 2 2 2 2 2 2 2 2 2 2 2 2 2 2 2 2 2 2 2 2 2 2 2 2 2 2 2
left_child=4 2 9 7 10 -5 17 18 14 19 16 -11 -10 -8 21 -12 -1 -6 24 -2 -16 -9 -23 -18 25 26 27 -4 29 -21
right_child=1 -3 3 5 6 -7 13 8 12 11 15 -13 -14 -15 20 -17 23 -19 -20 28 -22 22 -24 -25 -26 -27 -28 -29 -30 -31
leaf_value=-4.8554967117703649 -3.0525037024265682 28.737915639619573 3.2114526100230942 29.153961736505682 -2.2535825213769449 10.256673160637256 1.2683390756386119 2.0775657661910194 8.8492625314681259 9.9693917961681606 -2.3470470100897578 0.3657848109264632 17.104933558060573 6.582317335128784 5.1403384749953815 0.71114466292691414 -4.1849385785886826 -0.46451608540406869 8.1755508053687311 1.4734270163302152 11.46045995288425 12.254533304486957 3.7090861525741361 -2.2773879972478701 0.48297870658219805 12.857554730502043 8.2145076129747476 -1.4001019464362237 1.3558988486416639 -2.7391636973859481
leaf_weight=484 117 37 66 22 709 49 641 103 61 51 327 37 52 50 37 202 281 670 31 106 45 21 42 567 126 33 23 84 224 149
leaf_count=484 117 37 66 22 709 49 641 103 61 51 327 37 52 50 37 202 281 670 31 106 45 21 42 567 126 33 23 84 224 149
internal_value=2.40726e-09 4.09501 3.47852 6.19891 -1.57925 16.1122 -0.37048 5.22675 7.65178 0.316666 -2.92377 5.93151 12.6483 1.65285 5.37512 -1.17927 -3.6166 -1.38435 2.81509 -0.512372 8.6087 3.77781 6.55757 -2.90949 2.31457 3.43486 1.63746 0.628982 0.108078 -0.988048
internal_weight=5447 1516 1479 795 3931 71 2070 724 361 684 1861 88 113 691 248 529 1332 1379 363 596 82 166 63 848 332 206 173 150 479 255
internal_count=5447 1516 1479 795 3931 71 2070 724 361 684 1861 88 113 691 248 529 1332 1379 363 596 82 166 63 848 332 206 173 150 479 255
is_linear=0
shrinkage=0.1


Tree=14
num_leaves=31
num_cat=0
split_feature=0 0 4 4 3 1 4 4 0 4 3 3 1 4 1 4 1 3 3 0 4 0 0 2 3 3 3 1 3 0
split_gain=2.89909e+06 1.86203e+06 1.14112e+06 632096 898696 547889 328403 269285 225679 209926 172158 158342 107087 103230 100132 99693.6 97229.5 161860 101600 97027.6 93727.1 77674.6 70633.5 71626.8 62116.6 61577.4 69666.6 105767 139985 58108.5
threshold=489.07307179397083 185.48713426093323 69.850000000000009 39.750000000000007 60.000000000000007 320.00000000000006 30.250000000000004 20.050000000000004 115.62622048354662 99.65000000000002 100.00000000000001 100.00000000000001 40.000000000000007 90.65000000000002 194.00000000000003 19.850000000000005 194.00000000000003 68.000000000000014 68.000000000000014 304.34506171682023 89.750000000000014 83.102039235774626 359.84760341108091 2366.5000000000005 68.000000000000014 22.000000000000004 30.000000000000004 80.000000000000014 46.000000000000007 45.702781211047984
decision_type=2 2 2 2 2 2 2 2 2 2 2 2 2 2 2 2 2 2 2 2 2 2 2 2 2 2 2 2 2 2
left_child=1 6 7 15 -5 9 21 12 29 16 -7 22 -3 -12 -14 -2 18 -18 -4 -13 -10 -1 25 -24 -11 -9 -27 28 -28 -8
right_child=3 2 5 4 -6 10 8 11 20 24 13 19 14 -15 -16 -17 17 -19 -20 -21 -22 -23 23 -25 -26 26 27 -29 -30 -31
leaf_value=-4.9739123047122114 1.2258183598518373 1.0772065840244294 2.1242261224753554 12.008387042630105 33.091945851643878 3.9894742678512225 -4.0535776531235852 1.6625632826969321 -1.0071663161635518 6.8309684369713075 11.556101164053072 1.5794787637061543 -3.4789643043679983 19.461170323689782 -0.51359342174096545 9.5913389226485943 13.873881336450578 4.1008612442660981 7.9584670810028912 6.0653279659595896 0.89928147143475901 -2.9544301761672478 -1.1209296464920044 6.178613925561673 12.890089142840843 -4.0774046796433465 -0.41815040690693428 -0.77077457053057952 8.5346538684060498 -2.0595149003244861
leaf_weight=247 28 125 444 62 30 22 233 204 957 64 53 99 268 24 198 29 20 111 32 94 353 832 20 41 23 47 40 324 31 392
leaf_count=247 28 125 444 62 30 22 233 204 957 64 53 99 268 24 198 29 20 111 32 94 353 832 20 41 23 47 40 324 31 392
internal_value=-1.4271e-09 -0.386891 1.76669 13.7567 18.8835 4.83161 -2.01887 0.136588 -1.23939 3.83884 11.791 1.22562 -1.52183 14.02 -2.219 5.48196 3.1804 5.59293 2.51644 3.7643 -0.493444 -3.41672 0.532598 3.78532 8.4328 0.225452 -0.43783 -0.00476635 3.49082 -2.8029
internal_weight=5447 5298 2284 149 92 793 3014 1491 1935 694 99 900 591 77 466 57 607 131 476 193 1310 1079 707 61 87 646 442 395 71 625
internal_count=5447 5298 2284 149 92 793 3014 1491 1935 694 99 900 591 77 466 57 607 131 476 193 1310 1079 707 61 87 646 442 395 71 625
is_linear=0
shrinkage=0.1


Tree=15
num_leaves=31
num_cat=0
split_feature=0 0 4 4 1 4 4 4 4 3 3 3 3 0 3 3 4 0 0 3 4 1 3 1 3 4 2 4 3 2
split_gain=2.34826e+06 1.50824e+06 924303 531058 443790 271509 224032 222154 172818 169881 153506 142134 139448 106469 87657.1 87315.1 83616.7 73694 73110.8 73750.3 68780.1 66760.5 64728.8 98397.2 128026 62267.6 57348 55337.9 51167.7 59099.9
threshold=489.07307179397083 185.48713426093323 69.850000000000009 79.65000000000002 320.00000000000006 59.750000000000007 19.850000000000005 10.15 99.450000000000017 10.000000000000002 60.000000000000007 100.00000000000001 100.00000000000001 83.102039235774626 10.000000000000002 120.00000000000001 90.65000000000002 259.24425896400538 359.84760341108091 22.000000000000004 98.250000000000014 160.00000000000003 30.000000000000004 80.000000000000014 46.000000000000007 9.8500000000000032 2366.5000000000005 1.0000000180025095e-35 60.000000000000007 2225.0000000000005
decision_type=2 2 2 2 2 2 2 2 2 2 2 2 2 2 2 2 2 2 2 2 2 2 2 2 2 2 2 2 2 2
left_child=1 5 7 6 8 13 -2 14 17 -7 -8 18 -6 -1 -3 -13 -14 -4 19 -9 -11 -10 -21 24 -24 -16 -20 -15 -19 -30
right_child=3 2 4 -5 12 9 10 11 21 20 -12 15 16 27 25 -17 -18 28 26 22 -22 -23 23 -25 -26 -27 -28 -29 29 -31
leaf_value=-4.1202487894204953 1.1032364547252655 1.9357804092596163 1.6192073421927766 22.40736626356076 3.5905266956849533 -1.9924392744295023 8.1770254373550415 1.4388930867115657 4.0986514712794353 -0.22956121113530156 17.159729228019714 5.0602387062140872 10.400491033635049 -3.7574905070662497 -3.7543050976291212 1.236956757621374 17.515053512156012 2.6681320579433945 -0.75425299604733786 -3.8358069300651554 2.1749920636265467 8.5567197313675507 -0.50498782383634688 -0.95298505013384638 7.5507219426772174 -1.1128549538076753 5.1925635210871697 -1.9450217826666891 2.3840080145077827 7.2058038822592128
leaf_weight=390 28 53 303 39 22 617 52 237 59 590 30 112 53 200 177 128 24 142 24 58 149 78 47 391 34 180 50 1068 39 73
leaf_count=390 28 53 303 39 22 617 52 237 59 590 30 112 53 200 177 128 24 142 24 58 149 78 47 391 34 180 50 1068 39 73
internal_value=4.11276e-09 -0.348202 1.59002 12.381 4.34845 -1.81698 8.82625 0.122929 3.45496 -0.76748 11.4634 0.874669 10.6119 -2.67532 -1.8591 3.02116 12.618 2.67234 0.262116 -0.0274918 0.255254 6.63682 -0.683215 -0.29582 2.87642 -2.42248 3.26387 -2.2309 3.92864 5.52679
internal_weight=5447 5298 2284 149 793 3014 110 1491 694 1356 82 1081 99 1658 410 240 77 557 841 767 739 137 530 472 81 357 74 1268 254 112
internal_count=5447 5298 2284 149 793 3014 110 1491 694 1356 82 1081 99 1658 410 240 77 557 841 767 739 137 530 472 81 357 74 1268 254 112
is_linear=0
shrinkage=0.1


Tree=16
num_leaves=31
num_cat=0
split_feature=3 0 4 0 2 0 4 4 3 2 3 0 3 4 3 3 3 1 2 4 3 1 1 3 3 2 2 3 4 3
split_gain=2.04067e+06 1.50966e+06 749465 353971 397741 299530 277937 228163 180347 169542 163468 136352 112962 78271.4 72745.5 146952 72524.8 79224.5 68184.4 65261.1 62321.1 54930.9 109393 161615 88139.6 148810 68468.6 67794.3 52672.4 48538.8
threshold=176.00000000000003 214.4330080822424 80.250000000000014 421.01781755179479 2683.5000000000005 489.07307179397083 69.65000000000002 30.150000000000002 68.000000000000014 2475.0000000000005 10.000000000000002 80.970025709141353 60.000000000000007 19.950000000000003 84.000000000000014 120.00000000000001 14.000000000000002 194.00000000000003 2283.5000000000005 98.250000000000014 14.000000000000002 194.00000000000003 80.000000000000014 46.000000000000007 78.000000000000014 2283.5000000000005 2366.5000000000005 60.000000000000007 9.8500000000000032 78.000000000000014
decision_type=2 2 2 2 2 2 2 2 2 2 2 2 2 2 2 2 2 2 2 2 2 2 2 2 2 2 2 2 2 2
left_child=1 6 3 7 12 8 11 16 18 -10 -8 -1 -5 -13 21 -16 -3 28 -4 -12 -20 22 23 -9 25 -23 -24 -25 -18 -19
right_child=-2 2 5 4 -6 -7 10 14 9 -11 19 13 -14 -15 15 -17 17 29 20 -21 -22 24 26 27 -26 -27 -28 -29 -30 -31
leaf_value=-3.7036596060908118 23.404851655702334 1.7992435596177452 0.81059623382619161 6.9760855810141864 -2.7898724892735483 16.633305418968202 -1.5658892590765192 0.88462120442917314 5.7834744012054013 13.773871023654937 0.19718732555267796 -2.7030866549174859 14.344232954297746 -1.2652009899163024 5.8960126349685389 0.53044992870030305 -4.3168773768929878 3.1523601734119917 1.5103765055454441 2.3989450822605027 5.8457250704841011 -0.36753808021545414 -3.5474664626802714 10.840106964111328 0.62912974613408246 10.768376649220786 0.3016482959775364 3.5467901083139277 -1.4352707439243795 -0.48341795160220224
leaf_weight=430 37 95 61 81 40 25 530 224 79 40 534 552 28 1205 109 96 85 46 45 180 126 20 70 25 60 30 136 26 250 182
leaf_count=430 37 95 61 81 40 25 530 224 79 40 534 552 28 1205 109 96 85 46 45 180 126 20 70 25 60 30 136 26 250 182
internal_value=4.83872e-09 -0.16007 2.03945 1.09696 5.73897 6.0576 -1.42875 0.621262 5.30434 8.46932 -0.23538 -2.10757 8.86882 -1.71694 1.76019 3.38336 -0.756531 -1.18779 3.68093 0.752252 4.70484 1.19716 0.736124 2.04136 3.21317 6.31401 -1.0063 7.12195 -2.16642 0.250116
internal_weight=5447 5410 1979 1603 149 376 3431 1454 351 119 1244 2187 109 1757 796 205 658 563 232 714 171 591 481 275 110 50 206 51 335 228
internal_count=5447 5410 1979 1603 149 376 3431 1454 351 119 1244 2187 109 1757 796 205 658 563 232 714 171 591 481 275 110 50 206 51 335 228
is_linear=0
shrinkage=0.1


Tree=17
num_leaves=31
num_cat=0
split_feature=0 0 4 4 0 1 4 4 0 4 4 0 3 2 3 3 3 3 2 3 4 3 3 4 3 0 3 1 3 3
split_gain=1.67542e+06 1.10329e+06 661143 580091 325191 307553 186055 168923 138494 136221 134894 111676 86811.7 80953.7 78406.4 77526.7 76939.7 76892.2 65222.1 86487.8 63183.8 60756 59738.3 59719.8 50461.7 49314.9 43418.6 87304.1 115102 53717.9
threshold=640.11459197467684 182.693707288729 59.850000000000001 79.950000000000017 295.42427497627096 448.00000000000006 30.350000000000005 89.950000000000017 57.777850412075601 1.0000000180025095e-35 29.950000000000003 359.84760341108091 100.00000000000001 2366.5000000000005 100.00000000000001 22.000000000000004 60.000000000000007 22.000000000000004 2225.0000000000005 68.000000000000014 91.850000000000009 100.00000000000001 52.000000000000007 88.850000000000009 120.00000000000001 166.51285273218761 30.000000000000004 80.000000000000014 46.000000000000007 26.000000000000004
decision_type=2 2 2 2 2 2 2 2 2 2 2 2 2 2 2 2 2 2 2 2 2 2 2 2 2 2 2 2 2 2
left_child=1 6 9 10 20 7 25 16 -8 17 -2 12 15 -9 -15 -11 -6 -3 -18 -20 -4 -21 -13 -10 -14 -1 29 28 -28 -17
right_child=3 2 4 -5 5 -7 8 13 23 11 -12 22 24 14 -16 26 18 -19 19 21 -22 -23 -24 -25 -26 -27 27 -29 -30 -31
leaf_value=-3.0010317791382821 3.6471663328317501 1.2313078264827313 1.259218921622292 28.351337024143767 1.5946952253128543 17.455114283561709 -2.9760928518074947 4.7374881202714487 -0.94459195489050196 0.99882319607470371 12.994928937209281 5.854464933027824 3.7886150110608492 7.3330651494172905 13.822658354660561 -1.3960239324718715 0.56956265483583723 -3.3772447803441219 11.9325350522995 1.9481255173683167 3.7790304837942124 6.9137558285679139 1.4944028301225913 0.38776731688670724 0.57590913241089303 -1.528825417396809 -1.2593838130103219 -1.4948124474957778 6.3268625391854183 -7.6680924025448896
leaf_weight=748 26 46 488 21 132 20 277 57 1159 232 38 48 78 52 29 36 28 170 20 44 125 56 91 474 131 327 45 391 36 22
leaf_count=748 26 46 488 21 132 20 277 57 1159 232 38 48 78 52 29 36 28 170 20 44 125 56 91 474 131 327 45 391 36 22
internal_value=5.12826e-09 -0.220815 1.38664 13.9295 3.25992 5.34087 -1.50086 4.76124 -0.908564 -0.0981412 9.1974 0.34897 -0.0305342 7.62473 9.6565 -0.525728 3.34995 -2.39579 4.91545 5.92949 1.77305 4.72888 3.00004 -0.557857 1.77491 -2.55321 -1.19308 -0.875798 2.11228 -3.77508
internal_weight=5447 5362 2377 85 1051 438 2985 418 1910 1326 64 1110 971 138 81 762 280 216 148 120 613 100 139 1633 209 1075 530 472 81 58
internal_count=5447 5362 2377 85 1051 438 2985 418 1910 1326 64 1110 971 138 81 762 280 216 148 120 613 100 139 1633 209 1075 530 472 81 58
is_linear=0
shrinkage=0.1


Tree=18
num_leaves=31
num_cat=0
split_feature=3 0 4 0 2 0 3 4 4 0 0 1 3 3 1 1 3 3 2 3 1 1 2 1 3 3 3 0 3 3
split_gain=1.4867e+06 982583 536761 250885 338602 216696 186205 166561 156066 116318 114715 113653 96191.9 104175 60393.3 95996.2 148121 84215.7 156338 68032.8 58884.3 72225.1 53378.6 51455.1 52092.8 81955.6 51320.7 51093.4 48725 62141.7
threshold=176.00000000000003 185.48713426093323 80.250000000000014 421.01781755179479 2866.5000000000005 295.42427497627096 60.000000000000007 29.650000000000002 30.350000000000005 120.70280737129166 689.43019316696257 226.00000000000003 100.00000000000001 120.00000000000001 194.00000000000003 80.000000000000014 46.000000000000007 78.000000000000014 2283.5000000000005 60.000000000000007 40.000000000000007 194.00000000000003 2366.5000000000005 160.00000000000003 60.000000000000007 30.000000000000004 60.000000000000007 444.40434005689934 22.000000000000004 30.000000000000004
decision_type=2 2 2 2 2 2 2 2 2 2 2 2 2 2 2 2 2 2 2 2 2 2 2 2 2 2 2 2 2 2
left_child=1 8 3 7 10 23 27 20 -1 -10 -5 -8 14 -14 15 16 28 18 -16 -18 -3 -22 -13 24 25 -4 -17 -7 -9 -30
right_child=-2 2 5 4 -6 6 11 12 9 -11 -12 22 13 -15 17 26 19 -19 -20 -21 21 -23 -24 -25 -26 -27 -28 -29 29 -31
leaf_value=-2.2970049984105883 19.977041597624083 0.74112784761986505 1.3247799315515463 5.087755407004253 -5.5370833847257828 2.5976953476667406 15.946321395874023 1.3293170766330489 -1.8898195617935725 -0.24550603909825441 12.208652399977048 5.3253209441048766 4.8625632922511457 0.86283227344248314 -0.32903832704309499 -0.28112053476377497 9.0820509018436564 0.15927987702285187 9.2403438231858779 2.4569380158378231 -2.5988886138417504 -0.07142088779558739 10.809700308905708 4.5353988254790778 -1.7295425427926554 7.6730956153869627 -2.9721455696256873 8.1041060534390539 -3.8716333405971528 0.83346793428063393
leaf_weight=1086 37 146 109 92 27 72 25 214 648 1280 30 35 121 141 31 288 31 79 38 31 275 192 36 91 37 25 94 22 50 64
leaf_count=1086 37 146 109 92 27 72 25 214 648 1280 30 35 121 141 31 288 31 79 38 31 275 192 36 91 37 25 94 22 50 64
internal_value=-1.97605e-10 -0.136627 1.37489 0.653176 4.59619 4.47893 7.05009 0.325873 -1.33822 -0.798159 6.8388 10.1478 1.01958 2.71004 0.538168 0.183418 1.28703 2.38862 4.94106 5.76949 -1.01175 -1.55976 8.10613 2.61434 1.59202 2.50917 -0.94331 3.88643 0.439738 -1.23017
internal_weight=5447 5410 2396 1944 149 452 190 1795 3014 1928 122 96 1182 262 920 772 390 148 69 62 613 467 71 262 171 134 382 94 328 114
internal_count=5447 5410 2396 1944 149 452 190 1795 3014 1928 122 96 1182 262 920 772 390 148 69 62 613 467 71 262 171 134 382 94 328 114
is_linear=0
shrinkage=0.1


Tree=19
num_leaves=31
num_cat=0
split_feature=3 0 4 0 2 0 3 0 4 4 3 0 3 1 1 3 1 3 4 3 1 3 1 4 2 3 3 3 3 3
split_gain=1.20423e+06 797528 436904 227638 296986 168418 150156 313815 138502 136248 104197 80253.9 75780.8 72395.1 55588.3 52098.1 61606.9 86658.1 50981.1 50120.9 72790.9 47274.1 46904.4 44602 43236.7 42844.2 42293 66036.2 37505.2 37303.8
threshold=176.00000000000003 179.78983983535673 89.65000000000002 421.01781755179479 2683.5000000000005 295.42427497627096 38.000000000000007 489.07307179397083 79.450000000000017 40.050000000000004 60.000000000000007 72.291391828078176 10.000000000000002 194.00000000000003 226.00000000000003 100.00000000000001 112.00000000000001 46.000000000000007 1.0000000180025095e-35 10.000000000000002 194.00000000000003 60.000000000000007 160.00000000000003 9.8500000000000032 2366.5000000000005 52.000000000000007 60.000000000000007 30.000000000000004 100.00000000000001 30.000000000000004
decision_type=2 2 2 2 2 2 2 2 2 2 2 2 2 2 2 2 2 2 2 2 2 2 2 2 2 2 2 2 2 2
left_child=1 8 3 9 6 22 29 -8 11 19 -7 -1 -10 15 -12 16 17 -11 -13 -3 23 -18 26 -21 -16 -19 27 -4 -25 -5
right_child=-2 2 5 4 -6 10 7 -9 12 13 14 18 -14 -15 24 -17 21 25 -20 20 -22 -23 -24 28 -26 -27 -28 -29 -30 -31
leaf_value=-3.0149416629082522 17.979337925524327 1.0455732429589601 1.1357556066165369 7.6643232436407178 -3.00456391020519 3.8825070650437299 3.4289675235748294 20.736498427391055 -1.1809855046736843 0.48059377129588809 12.862487812836967 -2.8477278246766047 0.75411340966905194 2.6240212754952532 4.7927888338906426 4.3741736643654958 0.11930941427021885 7.8394578287998842 -1.1865303620812484 -3.3009767355117123 0.39855474691862375 -2.8463846930822769 4.2567113916525683 -1.3347082576869678 9.728730190462537 2.6273816040028697 -1.4228935277462007 6.9057860183715825 2.2285849258303645 2.6419277701377872
leaf_weight=366 37 172 96 21 41 85 22 20 374 280 24 210 441 252 35 35 178 24 1536 113 306 77 89 384 36 46 40 25 32 50
leaf_count=366 37 172 96 21 41 85 22 20 374 280 24 210 441 252 35 35 178 24 1536 113 306 77 89 384 36 46 40 25 32 50
internal_value=6.76786e-10 -0.122964 1.19528 0.588206 4.28589 4.09373 6.9311 11.6706 -1.24125 0.288341 6.42608 -1.66856 -0.133895 1.18833 8.70191 0.623022 0.406014 1.26735 -1.38633 -0.508865 -0.829061 -0.776214 2.41444 -1.53918 7.29552 4.41438 1.39603 2.32791 -1.06061 4.12743
internal_weight=5447 5410 2483 2053 154 430 113 42 2927 1899 180 2112 815 892 95 640 605 350 1746 1007 835 255 250 529 71 70 161 121 416 71
internal_count=5447 5410 2483 2053 154 430 113 42 2927 1899 180 2112 815 892 95 640 605 350 1746 1007 835 255 250 529 71 70 161 121 416 71
is_linear=0
shrinkage=0.1


Tree=20
num_leaves=31
num_cat=0
split_feature=0 0 4 4 3 0 4 0 4 4 4 3 4 0 0 1 0 2 4 3 2 3 0 3 0 3 1 3 3 1
split_gain=1.03092e+06 587213 531223 368395 206964 120037 117825 86902.4 86155.4 83396.1 75108.1 78101.4 73428.1 73376.9 61854 61761.2 58855.8 57820.1 50019 45334.7 55791.8 38507.7 36600.5 33071.2 32800.5 32217.3 46394.6 71398.2 40577.9 39488.3
threshold=689.43019316696257 177.2780823120323 69.950000000000017 59.850000000000001 100.00000000000001 304.34506171682023 79.450000000000017 353.52731591935088 29.950000000000003 99.550000000000011 1.0000000180025095e-35 22.000000000000004 99.65000000000002 421.01781755179479 55.918984043985994 21.000000000000004 229.92449221959566 2366.5000000000005 19.750000000000004 100.00000000000001 2050.0000000000005 120.00000000000001 259.98632788588469 22.000000000000004 332.52564040810995 30.000000000000004 80.000000000000014 46.000000000000007 26.000000000000004 226.00000000000003
decision_type=2 2 2 2 2 2 2 2 2 2 2 2 2 2 2 2 2 2 2 2 2 2 2 2 2 2 2 2 2 2
left_child=1 6 8 10 7 16 14 12 -2 24 11 -3 -5 19 -1 -8 -6 -9 -16 20 -12 -21 -23 -22 -7 28 27 -27 -25 -28
right_child=2 3 -4 4 5 9 15 17 -10 -11 13 -13 -14 -15 18 -17 -18 -19 -20 21 23 22 -24 25 -26 26 29 -29 -30 -31
leaf_value=-2.8763513396581017 1.3348898991294531 1.2887900251534679 23.911558151245117 0.89028684055400253 6.655459543863933 8.0823428526157297 -0.83208445431270794 0.25744235148796668 9.5949559875896995 12.928751245282946 3.4430727939072407 -2.8478178419818772 4.1090477252308331 3.6078847810626034 -2.2434803576933016 0.97696243598582644 1.5934167556008516 5.7206265998514079 -1.0122042756924363 2.7297862751354085 0.42517432205190731 1.7374707269495813 -1.5826579994522036 -1.0716695141461161 4.3155303653118748 -1.194385430059935 -1.7261418171436682 4.0110979363626367 -6.5229237513108691 0.47954824948096064
leaf_weight=300 23 62 24 689 30 41 473 26 28 21 38 173 79 60 441 314 98 76 1310 101 277 69 64 36 53 57 302 49 22 111
leaf_count=300 23 62 24 689 30 41 473 26 28 21 38 173 79 60 441 314 98 76 1310 101 277 69 64 36 53 57 302 49 22 111
internal_value=-1.18646e-09 -0.162554 11.6432 0.943899 2.30629 4.88651 -1.15049 1.58561 5.86983 7.23133 -0.123199 -1.75646 1.22138 0.200423 -1.54962 -0.110305 2.77983 4.32805 -1.32231 0.0188528 -0.306138 1.25771 0.139815 -0.472965 5.9585 -0.904134 -0.654337 1.21192 -3.13939 -1.13333
internal_weight=5447 5372 75 2534 1113 243 2838 870 51 115 1421 235 768 1186 2051 787 128 102 1751 1126 892 234 133 854 94 577 519 106 58 413
internal_count=5447 5372 75 2534 1113 243 2838 870 51 115 1421 235 768 1186 2051 787 128 102 1751 1126 892 234 133 854 94 577 519 106 58 413
is_linear=0
shrinkage=0.1


Tree=21
num_leaves=31
num_cat=0
split_feature=3 0 4 0 1 1 0 3 0 0 4 4 3 3 3 1 3 0 3 3 1 0 1 3 3 1 3 3 4 4
split_gain=891253 520510 301456 143015 204053 128736 127863 105939 105705 94828.6 89300.4 85974.9 74064.6 49310.2 71035.5 40716.5 40000.5 38765.5 37827.4 36784.4 40147.6 39318.1 35412.3 35079.8 33969.5 32764.9 36162.5 50128.6 30962.1 29168.1
threshold=176.00000000000003 182.693707288729 89.65000000000002 359.84760341108091 160.00000000000003 112.00000000000001 489.07307179397083 60.000000000000007 295.42427497627096 57.777850412075601 49.550000000000004 29.650000000000002 60.000000000000007 100.00000000000001 120.00000000000001 226.00000000000003 30.000000000000004 210.896602897354 10.000000000000002 74.000000000000014 320.00000000000006 421.01781755179479 28.000000000000004 100.00000000000001 14.000000000000002 160.00000000000003 60.000000000000007 30.000000000000004 40.250000000000007 90.050000000000011
decision_type=2 2 2 2 2 2 2 2 2 2 2 2 2 2 2 2 2 2 2 2 2 2 2 2 2 2 2 2 2 2
left_child=1 9 3 11 5 16 7 -6 25 -1 24 18 29 -13 -15 -14 -5 -16 -3 -9 -21 -22 -12 -20 -11 26 27 -4 -18 -10
right_child=-2 2 8 4 6 -7 -8 19 12 10 22 13 15 14 17 -17 28 -19 23 20 21 -23 -24 -25 -26 -27 -28 -29 -30 -31
leaf_value=-2.3527034251514922 15.467481234266954 0.90869193135463089 0.98035492474561226 6.8726136591699394 -3.529648944990976 10.648856490061565 -6.8401443030523215 6.3659266874842029 0.52240605025455877 -0.95683705687240173 -0.50653451065031385 0.27962621988060749 10.720603060722352 4.0939852051682522 4.6172617008537058 5.9561583661697277 0.66276884458281782 -0.12446828578710556 -1.7673474853315523 -1.9246932594549087 1.289350703672359 6.7671166729927066 0.66552995854440855 0.20785767812866812 -2.0644112139412316 3.5804116348872022 -1.4168986445665359 6.0360534820556637 4.7148420767350627 4.4296466290950773
leaf_weight=436 37 97 91 27 35 34 23 23 29 672 1066 898 24 91 20 71 44 125 350 21 38 20 340 121 471 89 40 25 33 56
leaf_count=436 37 97 91 27 35 34 23 23 29 672 1066 898 24 91 20 71 44 125 350 21 38 20 340 121 471 89 40 25 33 56
internal_value=3.58989e-09 -0.105785 0.982474 0.468507 2.48942 5.30705 0.0592149 1.2175 3.40114 -0.989882 -0.756774 0.114669 5.24107 0.617675 1.90398 7.15981 3.56069 0.529563 -0.889573 2.84643 1.82176 3.17824 -0.223105 -1.25992 -1.41324 2.04936 1.17588 2.06995 2.39937 3.09659
internal_weight=5447 5410 2425 2000 298 138 160 137 425 2985 2549 1702 180 1134 236 95 104 145 568 102 79 58 1406 471 1143 245 156 116 77 85
internal_count=5447 5410 2425 2000 298 138 160 137 425 2985 2549 1702 180 1134 236 95 104 145 568 102 79 58 1406 471 1143 245 156 116 77 85
is_linear=0
shrinkage=0.1


Tree=22
num_leaves=31
num_cat=0
split_feature=0 4 0 4 0 1 4 4 4 4 3 2 3 3 3 0 1 3 3 1 4 0 0 0 2 2 4 2 2 3
split_gain=728949 427025 386192 281190 188465 144992 78308.8 77754.8 66910.1 49892.5 55435.1 41920.2 57878.9 81563.5 48517.6 48071.1 39649.7 38644.7 85319.7 60439.5 43106.7 42531.2 38283.2 37487.4 34232 31464.3 30732.9 28122.7 22172.1 20930.1
threshold=689.43019316696257 69.950000000000017 166.87805695025892 49.550000000000004 295.42427497627096 448.00000000000006 90.65000000000002 88.850000000000009 29.950000000000003 1.0000000180025095e-35 10.000000000000002 2225.0000000000005 60.000000000000007 68.000000000000014 100.00000000000001 444.40434005689934 21.000000000000004 68.000000000000014 60.000000000000007 17.000000000000004 98.250000000000014 229.92449221959566 356.30802881850701 42.088879705435083 2366.5000000000005 2225.0000000000005 1.0000000180025095e-35 2366.5000000000005 2166.5000000000005 52.000000000000007
decision_type=2 2 2 2 2 2 2 2 2 2 2 2 2 2 2 2 2 2 2 2 2 2 2 2 2 2 2 2 2 2
left_child=2 8 7 9 17 6 11 23 -2 10 -4 28 15 -14 -15 27 -9 18 19 -5 -21 -19 -11 -1 -8 -20 -25 -13 -6 -24
right_child=1 -3 3 4 5 -7 24 16 -10 22 -12 12 13 14 -16 -17 -18 21 25 20 -22 -23 29 26 -26 -27 -28 -29 -30 -31
leaf_value=-2.5427073023535991 0.61782382260198176 20.790111213922501 1.4227522126436236 0.16526091913470911 1.1316113352775574 10.440241077423096 2.9824543750948376 -0.78152016957456638 7.8970977646963938 -0.34353188506485721 -2.2348045970290165 -2.9425833225250244 8.5989987852176029 0.69946749019126098 4.441533915516807 4.9096425823096581 1.1678623920711486 5.2460954684350227 -0.11238827353618185 1.3784218907771502 4.3244422953007584 1.2725450978657911 3.3288224152156283 -2.5622417104803028 6.9939341336488727 -3.1616697245522549 -1.0968238110000208 1.0480760094013302 -2.3880801091194157 0.58368090665558492
leaf_weight=264 23 24 50 504 63 25 36 241 28 1060 242 21 30 60 82 29 184 36 61 314 59 107 42 160 52 76 1356 111 25 82
leaf_count=264 23 24 50 504 63 25 36 241 28 1060 242 21 30 60 82 29 184 36 61 314 59 107 42 160 52 76 1356 111 25 82
internal_value=-3.25407e-10 9.79055 -0.136689 0.570791 1.45112 3.00508 2.6399 -1.15283 4.61429 -0.437775 -1.60851 2.07282 2.58578 3.8613 2.86038 1.22312 0.0624478 0.733913 0.516879 0.879428 1.84441 2.27288 -0.149047 -1.44299 5.35287 -1.80396 -1.25149 0.413198 0.131699 1.51349
internal_weight=5447 75 5372 3167 1691 534 509 2205 51 1476 292 421 333 172 142 161 425 1157 1014 877 373 143 1184 1780 88 137 1516 132 88 124
internal_count=5447 75 5372 3167 1691 534 509 2205 51 1476 292 421 333 172 142 161 425 1157 1014 877 373 143 1184 1780 88 137 1516 132 88 124
is_linear=0
shrinkage=0.1


Tree=23
num_leaves=31
num_cat=0
split_feature=3 0 4 0 1 0 3 0 3 0 3 2 1 3 1 2 1 3 1 0 1 4 4 3 4 2 0 4 3 3
split_gain=645958 341345 205556 82319.2 123291 90170.6 80967.3 73714.9 70557.5 69135.6 68600.4 123353 67884.7 66939.5 65267 61910.9 66219.1 64285.7 63681.2 78807.2 58407.2 42686.2 41763.4 38744.3 34721.3 33935.9 43261.9 32386.2 30437.7 27820
threshold=176.00000000000003 182.693707288729 79.550000000000011 359.84760341108091 160.00000000000003 489.07307179397083 30.000000000000004 489.07307179397083 60.000000000000007 144.22723891011609 38.000000000000007 2366.5000000000005 54.000000000000007 30.000000000000004 28.000000000000004 2475.0000000000005 226.00000000000003 100.00000000000001 80.000000000000014 305.09977055206667 160.00000000000003 88.950000000000017 20.050000000000004 78.000000000000014 50.150000000000013 2166.5000000000005 229.92449221959566 40.250000000000007 74.000000000000014 10.000000000000002
decision_type=2 2 2 2 2 2 2 2 2 2 2 2 2 2 2 2 2 2 2 2 2 2 2 2 2 2 2 2 2 2
left_child=1 9 3 22 10 8 12 15 -6 21 13 -12 14 -5 -4 16 18 20 19 -8 -17 -1 29 -18 -11 -20 -27 -15 -10 -3
right_child=-2 2 6 4 5 -7 7 -9 28 24 11 -13 -14 27 -16 17 23 -19 25 -21 -22 -23 -24 -25 -26 26 -28 -29 -30 -31
leaf_value=-1.4706273463230182 13.168046265679436 0.97178848905441095 0.49076234977214767 6.8333989779154471 -3.1540956541895868 -6.1953714541026521 7.9143323444184803 7.8635804069453279 5.5418876832181763 -0.73718510068118059 12.390041714129241 1.7895141417071934 4.6847761461811679 -1.4133373204399557 -5.2340028916796051 6.406277505089256 7.0180081049601242 7.1357110930424117 1.2971116705944663 -0.39531045770645146 1.5103488089733346 -0.18776022936217487 0.33232165843431583 2.5722891360242794 0.30087033930545054 -0.74481758177280433 -6.3345165157318117 3.5107239137996324 1.2776706181253707 -1.0739110756866219
leaf_weight=1369 37 78 117 24 32 21 21 29 22 696 23 21 31 34 24 34 24 51 38 25 86 320 976 107 600 45 20 22 70 450
leaf_count=1369 37 78 117 24 32 21 21 29 22 696 23 21 31 34 24 34 24 51 38 25 86 320 976 107 600 45 20 22 70 450
internal_value=3.60805e-09 -0.0900587 0.791222 0.232907 1.84409 -0.135692 2.30946 2.97654 0.890544 -0.806007 4.15915 7.3307 0.447856 2.4148 -0.483666 2.66229 1.74667 4.16155 0.304707 3.39822 2.89753 -1.22757 -0.0552623 3.38677 -0.256604 -1.07686 -2.46472 0.521115 2.29737 -0.771705
internal_weight=5447 5410 2425 1773 269 145 652 480 124 2985 124 44 172 80 141 451 280 171 149 46 120 1689 1504 131 1296 103 65 56 92 528
internal_count=5447 5410 2425 1773 269 145 652 480 124 2985 124 44 172 80 141 451 280 171 149 46 120 1689 1504 131 1296 103 65 56 92 528
is_linear=0
shrinkage=0.1


Tree=24
num_leaves=31
num_cat=0
split_feature=0 4 0 4 3 4 3 4 0 3 3 2 4 4 3 0 0 1 0 0 4 0 1 0 3 3 1 0 2 3
split_gain=533241 325661 252153 195115 131656 79266.6 56298 52741.5 52640.5 52315.9 51574.1 44143.5 40825.1 38333.9 42306.2 32607.4 31581 31577.8 28830.3 25851.1 25233.3 23320.9 20113.7 40574 72286.7 33534.7 52172.9 62357.6 34705.7 31186.1
threshold=689.43019316696257 69.950000000000017 166.87805695025892 49.550000000000004 100.00000000000001 90.65000000000002 60.000000000000007 88.850000000000009 353.52731591935088 52.000000000000007 60.000000000000007 2050.0000000000005 99.65000000000002 1.0000000180025095e-35 10.000000000000002 603.74222703585838 271.5160589197356 21.000000000000004 42.088879705435083 295.42427497627096 10.050000000000002 395.52797606086841 194.00000000000003 268.20592945411829 78.000000000000014 60.000000000000007 112.00000000000001 229.92449221959566 2225.0000000000005 46.000000000000007
decision_type=2 2 2 2 2 2 2 2 2 2 2 2 2 2 2 2 2 2 2 2 2 2 2 2 2 2 2 2 2 2
left_child=2 6 7 13 8 11 -2 18 12 15 -11 -6 22 14 -4 -10 -13 -9 -1 -7 -20 -15 25 -24 -25 29 -27 28 -28 -5
right_child=1 -3 3 4 5 19 -8 17 9 10 -12 16 -14 21 -16 -17 -18 -19 20 -21 -22 -23 23 24 -26 26 27 -29 -30 -31
leaf_value=-2.1413738565011458 -0.28304283767938615 17.979523451626303 1.2365159161090853 0.19047166875162938 -1.708054132262866 4.3130760543048385 6.5220736213268786 -0.69026917021304257 7.4836693622447825 -2.4301412739924024 3.2259552704660517 1.336942801307673 2.5546939413766472 -0.24098652506458942 -1.9587044451354949 2.7302151418501333 3.7985078701606163 1.049404051316821 -1.8443066625154181 8.8237016819141534 -0.8097503331222029 1.6798231228074032 -1.5034610181019223 7.3316598644256592 0.88212194766914642 3.5192821907997129 1.5229566703240076 -6.9386740548270085 -2.4567303941718173 1.5589411626986234
leaf_weight=264 20 24 50 716 24 24 31 241 27 28 38 87 98 1117 242 31 130 184 292 27 1224 67 29 25 57 20 36 21 56 217
leaf_count=264 20 24 50 716 24 24 31 241 27 28 38 87 98 1117 242 31 130 184 292 27 1224 67 29 25 57 20 36 21 56 217
internal_value=-6.16824e-10 8.37376 -0.116908 0.454761 1.18808 3.11945 3.8534 -0.937986 0.784962 2.75192 0.826399 2.36152 0.593665 -0.385376 -1.41158 4.94303 2.81161 0.062907 -1.17696 6.70105 -1.00902 -0.132292 0.430385 1.71146 2.84844 0.29699 -1.18855 -2.02179 -0.899462 0.508754
internal_weight=5447 75 5372 3167 1691 292 51 2205 1399 124 66 241 1275 1476 292 58 217 425 1780 51 1516 1184 1177 111 82 1066 133 113 92 933
internal_count=5447 75 5372 3167 1691 292 51 2205 1399 124 66 241 1275 1476 292 58 217 425 1780 51 1516 1184 1177 111 82 1066 133 113 92 933
is_linear=0
shrinkage=0.1


Tree=25
num_leaves=31
num_cat=0
split_feature=3 0 4 1 0 4 3 2 4 2 3 0 0 3 1 0 0 4 2 3 3 0 3 1 3 3 3 1 3 0
split_gain=473313 222726 142768 69508.7 178260 54196.6 54110.5 55138.6 53670.4 48375.6 88100.4 43648.5 37803.6 35332.8 31910 29033.2 47876.5 28765 28672.1 25964.7 45351.5 27911.1 22745.4 27016.4 20847.5 52628.6 63672.6 53540.7 55598.9 33059.9
threshold=176.00000000000003 179.78983983535673 89.65000000000002 640.00000000000011 818.43599616611357 30.050000000000004 38.000000000000007 2263.0000000000005 29.650000000000002 2425.0000000000005 68.000000000000014 359.84760341108091 49.976306009281991 100.00000000000001 62.000000000000007 336.16997390507765 287.1773433916282 98.250000000000014 2366.5000000000005 84.000000000000014 120.00000000000001 210.896602897354 22.000000000000004 194.00000000000003 22.000000000000004 30.000000000000004 26.000000000000004 80.000000000000014 46.000000000000007 259.24425896400538
decision_type=2 2 2 2 2 2 2 2 2 2 2 2 2 2 2 2 2 2 2 2 2 2 2 2 2 2 2 2 2 2
left_child=1 5 3 4 8 -1 15 -8 22 10 -9 19 -7 -11 -13 16 -4 -14 -16 24 -21 -22 -3 -24 29 26 -26 28 -27 -10
right_child=-2 2 6 -5 -6 12 7 9 11 13 -12 14 17 -15 18 -17 -18 -19 -20 20 21 -23 23 -25 25 27 -28 -29 -30 -31
leaf_value=-1.284002028599692 11.271803190257099 0.52093566733311458 1.0176841640583822 -4.9681746837496767 8.4082626771043856 -1.4932378607568364 1.2415302098977685 11.73666510865802 0.45306214008261175 1.8723668007552625 3.028201906497662 4.2625282254146075 -0.35943058618517254 5.2610495681762695 -1.2220971535233891 3.9510643462340038 -4.2046524229503817 0.83838125299020061 2.2380697951824575 2.9924515067910153 3.6588648462295534 -0.36461846088171007 -1.4239710571238253 0.058343685006053705 -0.75602856943773666 0.064047415039756084 -7.5856635645031929 -0.32993307102012176 4.775267584103605 3.7726938338840714
leaf_weight=960 37 166 107 25 27 259 101 21 255 80 26 49 1476 50 34 24 21 232 81 96 20 125 305 206 43 55 20 466 46 34
leaf_count=960 37 166 107 25 27 259 101 21 255 80 26 49 1476 50 34 24 21 232 81 96 20 125 305 206 43 55 20 466 46 34
internal_value=-1.58123e-09 -0.07709 0.619553 0.272523 0.337127 -0.668058 2.27642 3.1059 0.228221 4.16975 6.91922 0.598556 -0.367445 3.17571 2.12559 0.759342 0.160895 -0.19673 1.21506 0.382665 1.30654 0.190345 -0.496037 -0.826404 0.140387 -0.182201 -2.92417 0.122462 2.20975 0.843607
internal_weight=5447 5410 2483 2053 2028 2927 430 278 2001 177 47 1324 1967 130 164 152 128 1708 115 1160 241 145 677 511 919 630 63 567 101 289
internal_count=5447 5410 2483 2053 2028 2927 430 278 2001 177 47 1324 1967 130 164 152 128 1708 115 1160 241 145 677 511 919 630 63 567 101 289
is_linear=0
shrinkage=0.1


Tree=26
num_leaves=31
num_cat=0
split_feature=3 0 4 3 3 2 0 1 0 3 0 3 2 3 3 3 0 2 3 3 3 3 1 0 4 1 3 2 3 1
split_gain=383384 188461 124817 72643.6 86718.7 67528.2 54127.6 80758.6 75916.9 60656.8 105747 57557.3 53548.3 89574.6 49572.7 41553.8 38142.4 40300.8 37711.4 36932 36836.9 35758.2 37187.6 40152.4 30221.1 28354.1 40764.1 87939.4 30879.3 52367.8
threshold=176.00000000000003 155.53042588520447 79.450000000000017 38.000000000000007 52.000000000000007 2263.0000000000005 359.84760341108091 160.00000000000003 489.07307179397083 38.000000000000007 411.03264788233179 30.000000000000004 2425.0000000000005 68.000000000000014 60.000000000000007 68.000000000000014 384.6087127457767 2475.0000000000005 100.00000000000001 120.00000000000001 60.000000000000007 22.000000000000004 40.000000000000007 225.1121500475561 20.150000000000002 194.00000000000003 78.000000000000014 2283.5000000000005 30.000000000000004 62.000000000000007
decision_type=2 2 2 2 2 2 2 2 2 2 2 2 2 2 2 2 2 2 2 2 2 2 2 2 2 2 2 2 2 2
left_child=1 24 6 -4 -5 15 18 9 14 11 -11 -8 13 -7 -9 -6 17 -14 21 -20 -19 22 23 -3 -1 28 27 -27 -23 -30
right_child=-2 2 3 4 5 12 7 8 -10 10 -12 -13 16 -15 -16 -17 -18 20 19 -21 -22 25 -24 -25 -26 26 -28 -29 29 -31
leaf_value=-1.5689379962413943 10.144623022143906 -0.39330862814035655 0.52943184636605878 7.2942098006606102 -1.2350251892033746 10.24504198829333 5.6726715431859098 -2.7089009545743465 -5.8204570724850617 1.2955455183982849 11.100320441072638 -0.18055956094924894 -0.45186926552227569 2.3580529037449098 1.8605423080208512 2.0299480824213889 -2.0447882866859439 2.2073552055673287 2.222110046910458 0.0037396070437553603 5.7315617843107747 -2.9372800048138643 2.0711219515312802 1.3303475322913041 -0.64720179087100971 -0.80906329793126697 -0.90855342055035537 5.8424638211727142 1.4524681409636697 -1.1069384047815345
leaf_weight=479 37 747 513 32 85 24 24 32 21 22 22 56 35 36 92 72 20 91 122 195 44 74 88 165 1382 46 107 35 91 658
leaf_count=479 37 747 513 32 85 24 24 32 21 22 22 56 35 36 92 72 20 91 122 195 44 74 88 165 1382 46 107 35 91 658
internal_value=6.13225e-10 -0.069381 0.358017 1.33751 2.2818 1.88771 -0.00104236 1.342 -0.260307 3.21566 6.19793 1.57541 2.90847 5.51285 0.681331 0.262287 2.08604 2.57202 -0.15623 0.857497 3.35599 -0.316027 0.107965 -0.0814629 -0.884446 -0.735406 0.372628 2.06505 -0.988517 -0.795982
internal_weight=5447 5410 3549 952 439 407 2597 269 145 124 44 80 250 60 124 157 190 170 2328 317 135 2011 1000 912 1861 1011 188 81 823 749
internal_count=5447 5410 3549 952 439 407 2597 269 145 124 44 80 250 60 124 157 190 170 2328 317 135 2011 1000 912 1861 1011 188 81 823 749
is_linear=0
shrinkage=0.1


Tree=27
num_leaves=31
num_cat=0
split_feature=0 3 4 0 4 4 3 1 0 4 0 3 3 4 3 3 3 0 1 3 2 3 1 0 2 0 4 2 0 2
split_gain=345643 297538 259440 140273 122042 77736.5 61789.8 45442.7 40633.4 26278.9 25940.6 27596.2 24255.6 26670.4 24227.7 22083.3 21257.6 24997.7 39756.3 21080.6 107562 194132 35819.9 29863.8 38272.1 28627.5 19283.6 17984.5 27516.5 31271.9
threshold=689.43019316696257 60.000000000000007 49.95000000000001 155.53042588520447 91.850000000000009 29.650000000000002 68.000000000000014 194.00000000000003 423.21272088497511 88.850000000000009 316.10559099398466 60.000000000000007 26.000000000000004 9.8500000000000032 100.00000000000001 46.000000000000007 60.000000000000007 205.37966371014963 112.00000000000001 68.000000000000014 2283.5000000000005 60.000000000000007 320.00000000000006 210.896602897354 2425.0000000000005 259.98632788588469 49.95000000000001 2050.0000000000005 316.33455272244913 2475.0000000000005
decision_type=2 2 2 2 2 2 2 2 2 2 2 2 2 2 2 2 2 2 2 2 2 2 2 2 2 2 2 2 2 2
left_child=3 -2 -3 9 5 12 10 8 14 -1 11 15 -5 -14 16 -6 27 -18 -19 20 -9 -22 23 -21 -25 -26 -24 -7 -29 -30
right_child=1 2 -4 4 6 7 -8 19 -10 -11 -12 -13 13 -15 -16 -17 17 18 -20 22 21 -23 26 24 25 -27 -28 28 29 -31
leaf_value=-0.97939859800126239 -0.97236813823382073 4.1208720919760795 19.310571836388633 -0.070958647640565267 0.89885193555288623 2.2009449538730439 4.8379507406669511 -0.89933115681012465 3.0251227157456535 -0.026040924856160875 3.7503270372748378 -2.2202296952406568 -2.0615673964893495 -0.59430772676070531 2.0953251143633311 3.9166394009415448 0.20402215343454611 0.51022889845901076 -3.7066165944277234 3.7229420228437946 0.42116107493638993 13.140302167619978 0.51392291357533804 0.53562332724415984 -0.3807178473720948 -5.436431835095088 3.0226948086870835 0.25413616167046632 -2.7641904571477109 0.12053719475155784
leaf_weight=1503 30 22 23 416 148 42 68 45 49 358 40 24 185 375 59 29 92 36 59 22 28 21 45 172 24 21 96 1263 68 84
leaf_count=1503 30 22 23 416 148 42 68 45 49 358 40 24 185 375 59 29 92 36 59 22 28 21 45 172 24 21 96 1263 68 84
internal_value=-1.99569e-09 6.74175 11.8845 -0.0941235 0.277906 0.0947553 2.1758 0.421016 0.186003 -0.796001 1.42465 0.961826 -0.649359 -1.07903 0.104314 1.39329 0.0328599 -0.970867 -2.10865 1.28967 2.63052 5.87222 0.957987 0.212258 -0.143664 -2.74005 2.22202 0.161684 0.101155 -1.17
internal_weight=5447 75 45 5372 3511 3202 309 2226 1752 1861 241 201 976 560 1703 177 1644 187 95 474 94 49 380 239 217 45 141 1457 1415 152
internal_count=5447 75 45 5372 3511 3202 309 2226 1752 1861 241 201 976 560 1703 177 1644 187 95 474 94 49 380 239 217 45 141 1457 1415 152
is_linear=0
shrinkage=0.1


Tree=28
num_leaves=31
num_cat=0
split_feature=0 0 4 4 1 4 0 3 0 3 4 3 2 2 3 3 1 2 0 0 2 2 1 0 0 2 0 0 3 2
split_gain=279971 275905 277043 114132 124159 65045.1 34602.9 34381.8 33632.7 24639.8 34964.6 23929.8 32417.7 30226.1 20496.9 56768.8 39252.9 20078.7 19867.9 18106.7 17684.4 22225.6 17336.9 19605.8 16962.1 16104 15958.3 15839.6 23521.8 15205.2
threshold=689.43019316696257 840.15434494593467 59.95000000000001 49.550000000000004 28.000000000000004 91.850000000000009 151.32188331949652 100.00000000000001 264.48351996552873 10.000000000000002 9.8500000000000032 100.00000000000001 2283.5000000000005 2050.0000000000005 22.000000000000004 30.000000000000004 40.000000000000007 2225.0000000000005 39.580525036416084 290.89266092337726 2166.5000000000005 2475.0000000000005 112.00000000000001 180.24300983261969 161.05486827350742 2283.5000000000005 295.42427497627096 290.28228144209055 46.000000000000007 2166.5000000000005
decision_type=2 2 2 2 2 2 2 2 2 2 2 2 2 2 2 2 2 2 2 2 2 2 2 2 2 2 2 2 2 2
left_child=3 2 -2 6 8 11 -1 -7 18 -8 -11 12 17 -13 16 -16 24 27 -5 22 -15 25 23 -17 -14 -22 -9 28 -6 -29
right_child=1 -3 -4 4 5 7 9 26 -10 10 -12 13 14 20 15 19 -18 -19 -20 -21 21 -23 -24 -25 -26 -27 -28 29 -30 -31
leaf_value=-1.1265332427074821 4.0937506595926898 -3.0522609762523487 18.969709796564921 -1.4633303932295549 -0.4271980365999043 1.9028195900802918 0.48015896358660293 2.9938044885794324 2.4069227139155074 -1.5283068112532299 -0.25337098147191939 -1.7753781934579214 2.0295334986277989 4.5862278370753584 -4.110112249354521 -0.12649734996031134 3.9228352756823526 -2.4143992789089683 -0.24594812762171936 1.4862872079395233 1.6283006664466215 2.9209192969180919 -0.5869059490118208 2.7993654327337136 -1.3927317634224892 -0.86212652772665033 6.5697055358153129 -0.21298656393499937 1.6396287773147056 -3.5869455925442959
leaf_weight=805 31 23 21 149 150 188 308 24 45 270 1058 24 28 23 24 49 59 40 1337 235 74 81 119 43 30 40 26 34 87 22
leaf_count=805 31 23 21 149 150 188 308 24 45 270 1058 24 28 23 24 49 59 40 1337 235 74 81 119 43 30 40 26 34 87 22
internal_value=2.85639e-09 6.06758 10.1013 -0.0847111 0.33593 1.01655 -0.589791 2.52266 -0.286452 -0.325685 -0.512582 0.708068 0.475323 1.59288 0.922418 0.62759 2.10677 -0.3128 -0.368014 0.882534 1.9637 1.65438 0.210107 1.24103 0.259396 0.754467 4.85327 -0.025892 0.331511 -1.53847
internal_weight=5447 75 52 5372 2931 1400 2441 238 1531 1636 1328 1162 920 242 587 470 117 333 1486 446 218 195 211 92 58 114 50 293 237 56
internal_count=5447 75 52 5372 2931 1400 2441 238 1531 1636 1328 1162 920 242 587 470 117 333 1486 446 218 195 211 92 58 114 50 293 237 56
is_linear=0
shrinkage=0.1


Tree=29
num_leaves=31
num_cat=0
split_feature=3 0 1 0 2 4 1 1 2 3 3 0 1 3 0 1 2 3 0 2 2 3 1 3 1 3 1 3 2 3
split_gain=234905 103502 84888.2 188168 60243.7 59267.3 34988 30586.9 22515 32056 23112.9 32413.8 23014.3 54325.3 35633.2 42705 22349.8 51572.9 25597.8 34893.1 24924.4 20837 37284.3 67016.6 29279.2 20484.3 27196.5 26211.7 52379.5 44911.2
threshold=176.00000000000003 168.08248656215241 640.00000000000011 818.43599616611357 1950.0000000000002 50.150000000000013 194.00000000000003 28.000000000000004 2331.5000000000005 100.00000000000001 60.000000000000007 353.52731591935088 80.000000000000014 46.000000000000007 229.92449221959566 160.00000000000003 2283.5000000000005 68.000000000000014 292.69553165289784 2225.0000000000005 2683.5000000000005 30.000000000000004 112.00000000000001 14.000000000000002 112.00000000000001 10.000000000000002 194.00000000000003 68.000000000000014 2283.5000000000005 52.000000000000007
decision_type=2 2 2 2 2 2 2 2 2 2 2 2 2 2 2 2 2 2 2 2 2 2 2 2 2 2 2 2 2 2
left_child=1 7 3 4 -3 25 8 -1 12 10 11 21 13 -7 -14 -16 18 -18 19 -8 -19 22 23 -10 -23 -6 -27 28 -28 -30
right_child=-2 2 -4 -5 5 6 16 -9 9 -11 -12 -13 14 -15 15 -17 17 20 -20 -21 -22 24 -24 -25 -26 26 27 -29 29 -31
leaf_value=-0.74588428658349204 7.940812681977814 5.7615511465072631 -5.1568633215768003 7.7722835274303668 0.63514469709823573 -0.26384949556086212 3.7030657652262096 0.14925152794554583 0.31197415349880853 4.5329929005015979 -1.7760025238668598 3.3829838139481012 0.50393167428481278 4.4640047828356426 -5.345825353264809 -0.76639391662819056 5.7671174791881015 0.91248827112355713 -1.9857036622365318 -0.44236304812961152 3.7545557853579528 3.1327264689676024 4.3139414196922665 -5.2490299452906077 0.5469597819495976 -0.59503993336335459 -0.72868625529714537 -0.014331814291228246 1.0018989136070013 7.5493982661854133
leaf_weight=1835 37 20 28 34 278 128 37 482 375 22 37 45 78 30 32 56 35 135 30 45 40 68 21 23 123 966 37 328 20 22
leaf_count=1835 37 20 28 34 278 128 37 482 375 22 37 45 78 30 32 56 35 135 30 45 40 68 21 23 123 966 37 328 20 22
internal_value=2.07065e-09 -0.0543087 0.324264 0.374336 0.29135 0.255016 0.743844 -0.559671 0.461343 0.775077 0.655606 0.792964 -0.230032 0.633844 -1.05228 -2.43164 1.65451 2.26294 0.513714 1.42814 1.5621 0.601896 0.207292 -0.0093904 1.46755 -0.147653 -0.306152 0.379515 2.01473 4.43154
internal_weight=5447 5410 3093 3065 3031 3011 1360 2317 1038 714 692 655 324 158 166 88 322 210 112 82 175 610 419 398 191 1651 1373 407 79 42
internal_count=5447 5410 3093 3065 3031 3011 1360 2317 1038 714 692 655 324 158 166 88 322 210 112 82 175 610 419 398 191 1651 1373 407 79 42
is_linear=0
shrinkage=0.1


Tree=30
num_leaves=31
num_cat=0
split_feature=0 3 4 4 0 3 4 1 0 1 1 3 0 4 0 3 3 0 1 0 2 0 0 4 3 3 4 3 0 1
split_gain=193752 249919 178291 89664.5 65614.1 52218.4 47662.7 26188.1 27956.4 25984.7 23985.8 16964.8 16896.8 15869.9 25228.1 15818.9 15800 78198.2 21396.5 24873.2 28852.5 23585.9 19703.9 14179.1 14018.6 16626.9 19862.1 13677.6 19099.2 28697.3
threshold=689.43019316696257 60.000000000000007 49.95000000000001 91.850000000000009 151.32188331949652 68.000000000000014 29.650000000000002 194.00000000000003 423.21272088497511 21.000000000000004 448.00000000000006 60.000000000000007 42.088879705435083 99.750000000000014 287.1773433916282 100.00000000000001 68.000000000000014 276.21908745079025 320.00000000000006 210.896602897354 2425.0000000000005 259.98632788588469 340.38018996524477 1.0000000180025095e-35 10.000000000000002 100.00000000000001 9.8500000000000032 60.000000000000007 209.55277184821202 112.00000000000001
decision_type=2 2 2 2 2 2 2 2 2 2 2 2 2 2 2 2 2 2 2 2 2 2 2 2 2 2 2 2 2 2
left_child=3 -2 -3 4 12 9 10 8 15 -5 24 -11 -1 14 -7 27 17 -9 19 -18 -21 -22 -19 -14 -6 -26 -27 -8 -29 -30
right_child=1 2 -4 5 6 13 7 16 -10 11 -12 -13 23 -15 -16 -17 18 22 -20 20 21 -23 -24 -25 25 26 -28 28 29 -31
leaf_value=-1.4002911581005268 -2.0223667001724244 3.3249198149551042 15.916950984623123 -0.029418002468134676 0.36943978308961634 2.3021807765960696 0.1186947608874953 -0.83209103410658636 2.4952252755359727 1.9095347411585628 -3.3505111505245342 -0.61437251144839877 -1.5695912728863439 1.7284720151374739 7.1111046473185233 1.6823050870733747 3.3147598396648057 6.6454846824918476 1.6641111734567595 0.37578894677409513 -0.32682007886469366 -4.9158152185735249 2.5933376720973427 -0.45953920578956603 -0.82958339844567353 -1.3860332144762983 1.1797217382118106 0.15862138699924594 0.32817172772354553 -3.3305270115159598
leaf_weight=294 30 22 23 196 178 20 1481 46 49 189 29 31 127 24 24 59 22 28 141 172 24 21 21 1225 641 44 96 101 36 53
leaf_count=294 30 22 23 196 178 20 1481 46 49 189 29 31 127 24 24 59 22 28 141 172 24 21 21 1225 641 44 96 101 36 53
internal_value=2.33125e-09 5.04756 9.76085 -0.0704704 -0.199028 1.22786 0.0620321 0.315886 0.139756 0.80791 -0.517105 1.55389 -0.713219 3.79696 4.92523 0.0730404 0.975541 2.12903 0.687169 0.110814 -0.21401 -2.46835 4.90885 -0.563812 -0.431423 -0.61395 0.373342 0.0162202 -0.782542 -1.8506
internal_weight=5447 75 45 5372 4888 484 3242 2254 1779 416 988 220 1646 68 44 1730 475 95 380 239 217 45 49 1352 959 781 140 1671 190 89
internal_count=5447 75 45 5372 4888 484 3242 2254 1779 416 988 220 1646 68 44 1730 475 95 380 239 217 45 49 1352 959 781 140 1671 190 89
is_linear=0
shrinkage=0.1


Tree=31
num_leaves=31
num_cat=0
split_feature=3 1 0 0 2 4 2 1 3 3 3 2 1 1 0 3 3 1 3 2 3 2 3 2 1 0 1 0 3 0
split_gain=164722 73994.5 160660 64537 49283.9 41494 25745.2 33701.6 38810.6 29003.1 25658 58180.6 37270.2 22813 17066.6 19892.8 24696.5 23223.1 41586.4 55449.8 84316.9 18075 15715.2 24724.9 22085 24563.5 21808.4 21020.5 15642.1 14738.9
threshold=176.00000000000003 640.00000000000011 818.43599616611357 168.08248656215241 1950.0000000000002 60.350000000000001 2283.5000000000005 62.000000000000007 30.000000000000004 34.000000000000007 30.000000000000004 2366.5000000000005 28.000000000000004 28.000000000000004 421.01781755179479 100.00000000000001 14.000000000000002 194.00000000000003 78.000000000000014 2283.5000000000005 60.000000000000007 2050.0000000000005 68.000000000000014 2050.0000000000005 80.000000000000014 229.92449221959566 21.000000000000004 292.69553165289784 46.000000000000007 295.42427497627096
decision_type=2 2 2 2 2 2 2 2 2 2 2 2 2 2 2 2 2 2 2 2 2 2 2 2 2 2 2 2 2 2
left_child=1 2 3 13 -5 14 22 10 -9 -10 12 -12 -8 -1 15 16 -6 -18 19 -19 -21 -17 24 -24 26 -26 -7 -25 -16 -11
right_child=-2 -3 -4 4 5 6 7 8 9 29 11 -13 -14 -15 28 21 17 18 -20 20 -22 -23 23 27 25 -27 -28 -29 -30 -31
leaf_value=-0.62050243738916899 6.6495949152353653 -5.1728400315557215 6.8335336686495474 5.1890199327468878 0.233084929855918 -1.1641389058033627 0.31600282583637418 4.9155844807624822 -2.1839183880524202 0.74772679929392061 -1.6849772788229445 5.1321311689192255 -3.5010513707995417 0.15255729999292753 2.5700200385090124 -1.6146794494354364 -0.82961523326099396 -0.66423866204744164 -1.0397848979569972 0.26014640927314758 8.6497997615648359 0.85975433890308661 -2.2029594707489015 2.9636853288631051 -0.088142841232234037 -3.0379207116907292 2.5350104707128862 -0.59975084328651429 -0.13386190503835679 2.0672115923607186
leaf_weight=1835 37 28 34 20 592 30 296 33 22 138 21 31 28 482 46 33 774 43 96 25 23 280 20 49 58 55 34 25 40 219
leaf_count=1835 37 28 34 20 592 30 296 33 22 138 21 31 28 482 46 33 774 43 96 25 23 280 20 49 58 55 34 25 40 219
internal_value=-6.77179e-10 -0.0454778 -0.0188026 -0.0623664 0.241357 0.208493 0.712492 1.00164 1.62639 1.34 0.317072 2.37907 -0.0138661 -0.459685 -0.0649361 -0.128415 -0.274996 -0.587986 0.412125 1.94381 4.28019 0.598872 -0.128281 0.916677 -0.68323 -1.52388 0.801034 1.75982 1.3124 1.55716
internal_weight=5447 5410 5382 5348 3031 3011 1059 788 412 379 376 52 324 2317 1952 1866 1553 961 187 91 48 313 271 94 177 113 64 74 86 357
internal_count=5447 5410 5382 5348 3031 3011 1059 788 412 379 376 52 324 2317 1952 1866 1553 961 187 91 48 313 271 94 177 113 64 74 86 357
is_linear=0
shrinkage=0.1


Tree=32
num_leaves=31
num_cat=0
split_feature=0 3 4 4 3 1 0 1 3 0 3 4 0 1 3 2 2 0 0 1 3 1 3 2 0 2 0 0 4 3
split_gain=134097 219395 139810 68932.6 62953.8 54495.2 38024.4 26959.5 22469.1 58110.8 20312.1 15660.9 16521.2 24706.1 16405.3 15405.9 29750 40093.8 14903.6 14391.5 24473 38937.3 30342.7 23708.5 19512.3 14335.2 19546.4 13729.3 13592.7 11900
threshold=689.43019316696257 60.000000000000007 49.95000000000001 79.450000000000017 34.000000000000007 640.00000000000011 166.51285273218761 448.00000000000006 52.000000000000007 237.97809163165263 78.000000000000014 19.300000000000004 356.30802881850701 62.000000000000007 60.000000000000007 2283.5000000000005 2566.5000000000005 250.89828698855624 232.45478788565131 17.000000000000004 18.000000000000004 62.000000000000007 30.000000000000004 2475.0000000000005 242.95640026739378 2475.0000000000005 231.70040655020634 229.92449221959566 1.0000000180025095e-35 100.00000000000001
decision_type=2 2 2 2 2 2 2 2 2 2 2 2 2 2 2 2 2 2 2 2 2 2 2 2 2 2 2 2 2 2
left_child=3 -2 -3 5 19 6 28 8 9 -6 15 -8 29 -14 -15 27 18 -18 -17 -5 21 -21 -22 24 -24 26 -12 -10 -1 -13
right_child=1 2 -4 4 7 -7 11 -9 10 -11 25 12 13 14 -16 16 17 -19 -20 20 22 -23 23 -25 -26 -27 -28 -29 -30 -31
leaf_value=-1.4457039901176874 -2.424911370277405 2.9160819583318451 14.066713175566301 -0.23340786736566349 1.1348828543854113 -5.2414451490749014 -0.44429373755111867 5.0325523489713673 0.44469664414723714 6.6933017519804157 3.8346886672079563 -0.063967375914306998 3.0360632343495144 -1.420142436027527 1.0894632185724649 0.28673028522922145 2.1098910869522527 -3.690551533148839 3.0028271445940282 0.68537226889063341 -2.9256353453183785 4.8491168718338011 1.3401276198300449 3.4682245157659057 -2.9755879950523378 3.1605332952279315 0.51665525413725688 -2.1187559415896735 -0.52905218369933948 0.70536049335121609
leaf_weight=184 30 22 23 622 68 22 591 20 45 26 22 1358 47 37 88 31 22 26 58 221 39 25 22 20 20 52 92 39 1339 236
leaf_count=184 30 22 23 622 68 22 591 20 45 26 22 1358 47 37 88 31 22 26 58 221 39 25 22 20 20 52 92 39 1339 236
internal_value=1.03312e-09 4.19921 8.61529 -0.0586264 0.524993 -0.278493 -0.250353 1.43511 1.28552 2.67232 0.948679 0.00129073 0.150408 1.08153 0.34662 0.320795 0.974568 -1.03202 2.05677 0.0544389 0.570406 1.10852 -0.74024 0.634444 -0.714975 1.7846 1.15698 -0.745478 -0.639797 0.0499356
internal_weight=5447 75 45 5372 1470 3902 3880 501 481 94 387 2357 1766 172 125 221 137 48 89 969 347 246 101 62 42 166 114 84 1523 1594
internal_count=5447 75 45 5372 1470 3902 3880 501 481 94 387 2357 1766 172 125 221 137 48 89 969 347 246 101 62 42 166 114 84 1523 1594
is_linear=0
shrinkage=0.1


Tree=33
num_leaves=31
num_cat=0
split_feature=3 1 0 4 0 3 2 4 2 2 0 0 1 2 3 0 3 0 3 0 1 1 1 3 3 2 2 0 3 3
split_gain=122053 69828.8 125976 47096.5 39158.7 25639.9 21901 19313.9 16137.7 13644.8 13108.2 12398.6 17250.5 15689.9 14762.4 13098.3 12015.1 74328.8 69130.9 11417.4 24027.5 16898.1 40709.1 11859.5 25235.5 19552 14954.3 32817.4 11005.8 11907.3
threshold=176.00000000000003 640.00000000000011 818.43599616611357 91.850000000000009 151.32188331949652 14.000000000000002 1950.0000000000002 29.650000000000002 2050.0000000000005 2915.0000000000005 42.088879705435083 353.52731591935088 40.000000000000007 2566.5000000000005 60.000000000000007 395.52797606086841 46.000000000000007 304.34506171682023 52.000000000000007 209.55277184821202 160.00000000000003 160.00000000000003 112.00000000000001 60.000000000000007 78.000000000000014 2475.0000000000005 2225.0000000000005 287.1773433916282 10.000000000000002 60.000000000000007
decision_type=2 2 2 2 2 2 2 2 2 2 2 2 2 2 2 2 2 2 2 2 2 2 2 2 2 2 2 2 2 2
left_child=1 2 3 4 10 9 -6 28 -7 -5 -1 16 13 -13 -14 -16 17 -9 -18 20 -20 22 -21 -23 -25 26 27 -26 -8 -30
right_child=-2 -3 -4 5 6 8 7 11 -10 -11 -12 12 14 -15 15 -17 18 -19 19 21 -22 23 -24 24 25 -27 -28 -29 29 -31
leaf_value=-1.1471413276595424 5.7239053532883934 -5.0200889847108296 6.0545164500965791 -0.78949071552493788 2.8937162593558985 -1.0892355461012233 0.36734044592413639 0.059660474549326506 1.7322549945306642 0.85426732903659941 -0.41038326228233113 0.94391324291626622 -0.94160473534354461 4.3742833742250999 2.0872086980219549 -0.21592737159063652 4.2192120622926295 -4.3814543846326002 0.35156484905768326 0.92955677828618466 3.6388138277190074 -0.37241254986561456 -2.7490882332508382 3.2330590912790012 4.3528159011494036 1.7613062748836505 -0.56685067205638684 -0.29631489539632994 -0.80310628162658948 -0.0039832383245724775
leaf_weight=294 37 28 34 101 27 22 180 1118 258 101 1352 30 54 24 58 43 45 39 108 56 28 194 65 33 22 74 182 49 490 301
leaf_count=294 37 28 34 101 27 22 180 1118 258 101 1352 30 54 24 58 43 45 39 108 56 28 194 65 33 22 74 182 49 490 301
internal_value=-1.65775e-09 -0.0391469 -0.0132334 -0.0518092 -0.145207 0.891081 0.0576152 0.0336332 1.51057 0.0323883 -0.541979 0.196215 0.929315 2.46852 0.393075 1.10667 0.120101 -0.09004 0.404136 0.192448 1.02835 0.0240292 -1.04657 0.257862 0.597509 0.331536 -0.0866573 1.14426 -0.338414 -0.499015
internal_weight=5447 5410 5382 5348 4866 482 3220 3193 280 202 1646 2222 209 54 155 101 2013 1157 856 811 136 675 121 554 360 327 253 71 971 791
internal_count=5447 5410 5382 5348 4866 482 3220 3193 280 202 1646 2222 209 54 155 101 2013 1157 856 811 136 675 121 554 360 327 253 71 971 791
is_linear=0
shrinkage=0.1


Tree=34
num_leaves=31
num_cat=0
split_feature=3 1 0 4 0 3 4 4 2 4 3 0 1 0 3 2 3 3 3 3 0 4 3 1 1 3 2 0 1 0
split_gain=98862.5 56561.3 102040 38148.2 31904.2 20768.3 14308.2 13638.7 13529.9 11679.2 11546.6 11159.6 16619.9 34274.9 12964.8 11052.3 10782.3 15870 19425.9 45968.9 10536.1 9584.67 9379.34 9152.22 14608.1 17420.2 85750.5 12504.8 13478.4 17151
threshold=176.00000000000003 640.00000000000011 818.43599616611357 91.850000000000009 166.51285273218761 14.000000000000002 19.300000000000004 20.050000000000004 2283.5000000000005 99.450000000000017 60.000000000000007 353.52731591935088 40.000000000000007 603.74222703585838 60.000000000000007 2915.0000000000005 26.000000000000004 60.000000000000007 52.000000000000007 46.000000000000007 276.21908745079025 60.050000000000004 52.000000000000007 448.00000000000006 194.00000000000003 78.000000000000014 2283.5000000000005 210.896602897354 320.00000000000006 306.47131189370299
decision_type=2 2 2 2 2 2 2 2 2 2 2 2 2 2 2 2 2 2 2 2 2 2 2 2 2 2 2 2 2 2
left_child=1 2 3 4 7 15 16 -1 9 -7 -11 23 13 -13 22 -5 20 18 19 -18 -6 -15 -14 24 -8 26 -26 -27 -29 -30
right_child=-2 -3 -4 5 6 8 11 -9 -10 10 -12 12 14 21 -16 -17 17 -19 -20 -21 -22 -23 -24 -25 25 27 -28 28 29 -31
leaf_value=-0.89226664564693758 5.151515060824317 -4.5180801165955407 5.4490646783043362 -0.71054164141711629 -0.048051766873686577 2.5219730289032061 0.013610975731977171 -0.28796357524193966 1.9571344700150239 0.89504248117407159 -1.3904516727583749 5.6430713510513311 0.92317025184631341 1.9976818929115934 0.93085347016652431 0.76884059981249353 -1.8093125028568402 -0.12242350455145448 -2.6156320681697447 3.7628642654418947 2.3474435901641848 -0.96642751753330236 -1.7182901209083998 -1.4044756791530513 -1.5182654802501201 2.6050510009129844 6.0426212148865064 -0.1334875473840933 3.7617814844304869 0.3899802318929384
leaf_weight=506 37 28 34 101 224 24 1668 1426 161 60 35 20 20 24 123 101 57 196 76 20 20 20 41 39 30 24 30 232 22 48
leaf_count=506 37 28 34 101 224 24 1668 1426 161 60 35 20 20 24 123 101 57 196 76 20 20 20 41 39 30 24 30 232 22 48
internal_value=-2.19553e-09 -0.0352322 -0.01191 -0.0466283 -0.130686 0.801973 0.0770975 -0.446233 1.35951 0.550959 0.0530183 0.188242 0.822523 2.21058 0.33972 0.0291495 -0.361672 -0.718214 -1.48145 -0.361994 0.1483 0.650359 -0.852238 0.113086 0.141901 0.696272 2.26218 0.408069 0.233474 1.44969
internal_weight=5447 5410 5382 5348 4866 482 2934 1932 280 119 95 2341 248 64 184 202 593 349 153 77 244 44 61 2093 2054 386 60 326 302 70
internal_count=5447 5410 5382 5348 4866 482 2934 1932 280 119 95 2341 248 64 184 202 593 349 153 77 244 44 61 2093 2054 386 60 326 302 70
is_linear=0
shrinkage=0.1


Tree=35
num_leaves=31
num_cat=0
split_feature=3 0 0 4 0 1 2 4 3 3 1 2 1 3 1 2 3 0 4 0 0 3 2 3 1 2 0 4 1 0
split_gain=80078.7 46557.5 109071 30459.6 26219.2 16465.4 16438.1 12500.7 13029.7 11193.1 39952.3 20095.5 15915 15704.4 31967.7 63978 128281 25249.5 15316.5 15041.9 21373.7 31891.5 33379.5 16876.6 13428.2 15750.9 12246.7 11635.6 11470.7 10618.1
threshold=176.00000000000003 840.15434494593467 818.43599616611357 91.850000000000009 151.32188331949652 21.000000000000004 1950.0000000000002 1.0000000180025095e-35 10.000000000000002 100.00000000000001 448.00000000000006 2050.0000000000005 448.00000000000006 68.000000000000014 194.00000000000003 2283.5000000000005 60.000000000000007 330.29173029643692 49.850000000000001 423.21272088497511 304.34506171682023 30.000000000000004 2475.0000000000005 52.000000000000007 160.00000000000003 2683.5000000000005 617.23773953567149 50.050000000000004 226.00000000000003 42.088879705435083
decision_type=2 2 2 2 2 2 2 2 2 2 2 2 2 2 2 2 2 2 2 2 2 2 2 2 2 2 2 2 2 2
left_child=1 2 3 4 29 -5 -6 8 -8 12 11 -11 13 14 19 -16 -17 18 -15 20 -9 -22 23 -23 27 -26 -21 -24 -13 -1
right_child=-2 -3 -4 5 6 -7 7 9 -10 10 -12 28 -14 17 15 16 -18 -19 -20 26 21 22 24 -25 25 -27 -28 -29 -30 -31
leaf_value=-0.98759830123206394 4.6363636577451555 -4.6226168296553878 6.7133987555901218 0.0079481546519970421 2.5044113450580174 1.1969710872576733 0.80575378118899832 0.03742221104171866 -0.86141759374736326 -1.439610177117425 -3.6898950156711394 2.2578316027023755 1.8326631495293151 -1.6506001456481656 -1.304279938183333 -0.71111770325473378 8.9494139494719338 -3.3048750194343364 0.94534999973633715 2.9835684136070055 -3.9758937549591069 -3.6570298999547961 0.48231267654895787 -1.0086728885001743 0.87486470960653751 -2.0338021707945857 0.23894978004532891 3.6355819122357804 0.75767922330677751 -0.3245023634649824
leaf_weight=294 37 22 24 196 27 287 57 1836 264 37 21 61 47 41 38 28 27 37 51 29 30 32 25 97 52 29 37 22 310 1352
leaf_count=294 37 22 24 196 27 287 57 1836 264 37 21 61 47 41 38 28 27 37 51 29 30 32 25 97 52 29 37 22 310 1352
internal_value=1.47835e-09 -0.031709 -0.0129636 -0.0430592 -0.11802 0.714469 0.0473024 0.0266222 -0.565378 0.0924455 0.563764 0.782703 0.0101853 -0.0253421 0.0353384 1.85119 4.03133 -1.09878 -0.211541 -0.0418081 -0.0880276 -0.890557 -0.5304 -1.66563 0.613698 -0.16651 1.44492 1.95831 1.00434 -0.442941
internal_weight=5447 5410 5388 5364 4881 483 3235 3208 321 2887 429 408 2458 2411 2282 93 55 129 92 2189 2123 287 257 129 128 81 66 47 371 1646
internal_count=5447 5410 5388 5364 4881 483 3235 3208 321 2887 429 408 2458 2411 2282 93 55 129 92 2189 2123 287 257 129 128 81 66 47 371 1646
is_linear=0
shrinkage=0.1


Tree=36
num_leaves=31
num_cat=0
split_feature=0 3 4 4 1 4 0 3 1 3 3 1 1 3 2 2 1 2 0 3 3 0 0 4 3 3 1 2 2 0
split_gain=71458.8 204178 106624 41302.1 29126.2 21718.8 19694.3 18649.9 18221.3 11112 59059.5 28484.3 26201.5 21162.9 24522.2 12003.1 11748.5 20711.9 18735.3 19215.5 21254.4 17620.1 11913 10329.2 17228.9 12155.8 15141 10074.1 19760.2 14951.9
threshold=689.43019316696257 60.000000000000007 49.95000000000001 30.350000000000005 28.000000000000004 91.850000000000009 264.48351996552873 100.00000000000001 448.00000000000006 26.000000000000004 30.000000000000004 62.000000000000007 62.000000000000007 46.000000000000007 2475.0000000000005 3033.0000000000005 160.00000000000003 2475.0000000000005 209.55277184821202 60.000000000000007 68.000000000000014 192.95912823687465 374.90746467704804 1.0000000180025095e-35 100.00000000000001 68.000000000000014 194.00000000000003 2225.0000000000005 2475.0000000000005 292.69553165289784
decision_type=2 2 2 2 2 2 2 2 2 2 2 2 2 2 2 2 2 2 2 2 2 2 2 2 2 2 2 2 2 2
left_child=3 -2 -3 8 6 9 -5 -7 23 12 -11 13 15 14 -12 -6 17 21 -18 22 -21 -13 -20 -1 25 26 -25 29 -29 -22
right_child=1 2 -4 4 5 7 -8 -9 -10 10 11 16 -14 -15 -16 -17 18 -19 19 20 27 -23 -24 24 -26 -27 -28 28 -30 -31
leaf_value=-0.77270212086189893 -3.3248709559440615 2.3484941666776482 12.0862560769786 -0.17037259502918595 -0.13669924969777808 0.90018534138006112 1.7349930007542884 3.0731991493701933 -2.6067548390981314 -4.0389157667756086 -0.077381571856412035 0.017133122183181144 2.6226521299623733 4.5667644625124728 3.6024109714561039 2.144324308740241 2.4320359589748608 1.4154483767350516 -0.2529290326482927 2.9348010709411221 3.4528449568748472 -1.4986100677543015 -2.8174906887859108 -0.34722271685945116 0.82449295246343812 -1.9614481475618151 1.7620175348860876 -0.53754645456991546 1.2193858182430268 0.5273242292733028
leaf_weight=472 30 22 23 1734 131 188 56 50 37 32 55 185 67 23 27 28 43 60 192 38 25 131 20 1232 139 45 35 164 105 58
leaf_count=472 30 22 23 1734 131 188 56 50 37 32 55 185 67 23 27 28 43 60 192 38 25 131 20 1232 139 45 35 164 105 58
internal_value=7.71611e-10 3.0654 7.32557 -0.0427968 0.167359 0.474288 -0.110763 1.3567 -0.40864 0.322544 0.197366 0.317757 0.963943 1.88614 1.13426 0.26499 0.156464 -0.287823 0.41546 0.271419 0.687965 -0.611229 -0.494869 -0.366346 -0.234162 -0.346321 -0.288956 0.445409 0.148245 1.40851
internal_weight=5447 75 45 5372 3412 1622 1790 238 1960 1384 1158 1126 226 105 82 159 1021 376 645 602 390 316 212 1923 1451 1312 1267 352 269 83
internal_count=5447 75 45 5372 3412 1622 1790 238 1960 1384 1158 1126 226 105 82 159 1021 376 645 602 390 316 212 1923 1451 1312 1267 352 269 83
is_linear=0
shrinkage=0.1


Tree=37
num_leaves=31
num_cat=0
split_feature=0 3 4 4 1 4 3 1 3 0 2 0 3 3 3 3 4 0 0 1 1 2 2 3 3 0 0 3 0 1
split_gain=57881.6 165384 86365.7 34041.2 29185 18471 14986.5 14708.1 144198 12973.7 10765 10059 19078.3 14653.1 56878.4 17236.5 16591.1 15196 11731.2 9575.16 9216.12 12305 9395.71 8845 25643.5 9551.47 12190.8 12183.9 8844.89 8754.22
