<?xml version="1.0" encoding="UTF-8" standalone="yes"?>
<PMML xmlns="http://www.dmg.org/PMML-4_4" xmlns:data="http://jpmml.org/jpmml-model/InlineTable" version="4.4">
	<Header>
		<Application name="SkLearn2PMML package" version="0.116.4"/>
		<Timestamp>2025-05-18T16:50:43Z</Timestamp>
	</Header>
	<MiningBuildTask>
		<Extension name="repr">PMMLPipeline(steps=[('dtr', DecisionTreeRegressor(random_state=13))])</Extension>
	</MiningBuildTask>
	<DataDictionary>
		<DataField name="y" optype="continuous" dataType="double"/>
		<DataField name="CPU_Model" optype="continuous" dataType="float"/>
		<DataField name="RAM_Capacity_GB" optype="continuous" dataType="float"/>
		<DataField name="CPU_Freq_MHz" optype="continuous" dataType="float"/>
		<DataField name="Num_Cores" optype="continuous" dataType="float"/>
		<DataField name="Total_Threads" optype="continuous" dataType="float"/>
		<DataField name="Achieved_Load_Pct" optype="continuous" dataType="float"/>
	</DataDictionary>
	<TreeModel functionName="regression" algorithmName="sklearn.tree._classes.DecisionTreeRegressor" missingValueStrategy="nullPrediction" noTrueChildStrategy="returnLastPrediction">
		<MiningSchema>
			<MiningField name="y" usageType="target"/>
			<MiningField name="CPU_Model"/>
			<MiningField name="Achieved_Load_Pct"/>
			<MiningField name="CPU_Freq_MHz"/>
			<MiningField name="RAM_Capacity_GB"/>
			<MiningField name="Num_Cores"/>
			<MiningField name="Total_Threads"/>
		</MiningSchema>
		<LocalTransformations>
			<DerivedField name="double(CPU_Model)" optype="continuous" dataType="double">
				<FieldRef field="CPU_Model"/>
			</DerivedField>
			<DerivedField name="double(Achieved_Load_Pct)" optype="continuous" dataType="double">
				<FieldRef field="Achieved_Load_Pct"/>
			</DerivedField>
			<DerivedField name="double(CPU_Freq_MHz)" optype="continuous" dataType="double">
				<FieldRef field="CPU_Freq_MHz"/>
			</DerivedField>
			<DerivedField name="double(RAM_Capacity_GB)" optype="continuous" dataType="double">
				<FieldRef field="RAM_Capacity_GB"/>
			</DerivedField>
			<DerivedField name="double(Num_Cores)" optype="continuous" dataType="double">
				<FieldRef field="Num_Cores"/>
			</DerivedField>
			<DerivedField name="double(Total_Threads)" optype="continuous" dataType="double">
				<FieldRef field="Total_Threads"/>
			</DerivedField>
		</LocalTransformations>
		<Node score="2132.0">
			<True/>
			<Node score="453.0">
				<SimplePredicate field="double(CPU_Model)" operator="lessOrEqual" value="259.95985412597656"/>
				<Node score="329.0">
					<SimplePredicate field="double(CPU_Model)" operator="lessOrEqual" value="129.7543716430664"/>
					<Node score="94.0">
						<SimplePredicate field="double(CPU_Model)" operator="lessOrEqual" value="68.3593635559082"/>
						<Node score="66.8">
							<SimplePredicate field="double(Achieved_Load_Pct)" operator="lessOrEqual" value="60.25"/>
							<Node score="40.4">
								<SimplePredicate field="double(CPU_Model)" operator="lessOrEqual" value="40.73723220825195"/>
								<Node score="21.8">
									<SimplePredicate field="double(Achieved_Load_Pct)" operator="lessOrEqual" value="30.40000057220459"/>
									<Node score="15.5">
										<SimplePredicate field="double(Achieved_Load_Pct)" operator="lessOrEqual" value="10.150000095367432"/>
										<Node score="16.8">
											<SimplePredicate field="double(Achieved_Load_Pct)" operator="lessOrEqual" value="4.900000095367432"/>
											<Node score="14.9">
												<SimplePredicate field="double(CPU_Freq_MHz)" operator="lessOrEqual" value="2600.0"/>
												<Node score="21.5">
													<SimplePredicate field="double(CPU_Model)" operator="lessOrEqual" value="38.79019546508789"/>
													<Node score="17.299999999999997">
														<SimplePredicate field="double(CPU_Model)" operator="lessOrEqual" value="38.224151611328125"/>
														<Node score="16.1">
															<SimplePredicate field="double(CPU_Model)" operator="lessOrEqual" value="32.53671646118164"/>
															<Node score="15.9">
																<SimplePredicate field="double(RAM_Capacity_GB)" operator="lessOrEqual" value="12.0"/>
															</Node>
														</Node>
														<Node score="19.1">
															<SimplePredicate field="double(CPU_Model)" operator="lessOrEqual" value="35.03727722167969"/>
															<Node score="17.7">
																<SimplePredicate field="double(CPU_Model)" operator="lessOrEqual" value="34.11783409118652"/>
																<Node score="19.0">
																	<SimplePredicate field="double(CPU_Model)" operator="lessOrEqual" value="33.262887954711914"/>
																</Node>
															</Node>
														</Node>
														<Node score="17.8">
															<SimplePredicate field="double(CPU_Freq_MHz)" operator="lessOrEqual" value="2450.0"/>
														</Node>
													</Node>
												</Node>
											</Node>
											<Node score="16.8">
												<SimplePredicate field="double(Num_Cores)" operator="lessOrEqual" value="7.0"/>
												<Node score="11.7">
													<SimplePredicate field="double(RAM_Capacity_GB)" operator="lessOrEqual" value="24.0"/>
													<Node score="14.1">
														<SimplePredicate field="double(CPU_Freq_MHz)" operator="lessOrEqual" value="3450.0"/>
														<Node score="18.6">
															<SimplePredicate field="double(CPU_Model)" operator="lessOrEqual" value="35.18307876586914"/>
															<Node score="13.3">
																<SimplePredicate field="double(CPU_Freq_MHz)" operator="lessOrEqual" value="3050.0"/>
																<Node score="16.0">
																	<SimplePredicate field="double(CPU_Model)" operator="lessOrEqual" value="30.395448684692383"/>
																</Node>
																<Node score="14.4">
																	<SimplePredicate field="double(CPU_Model)" operator="lessOrEqual" value="33.771392822265625"/>
																</Node>
															</Node>
														</Node>
														<Node score="11.7">
															<SimplePredicate field="double(CPU_Model)" operator="lessOrEqual" value="35.70374298095703"/>
														</Node>
														<Node score="15.6">
															<SimplePredicate field="double(CPU_Model)" operator="lessOrEqual" value="36.235551834106445"/>
														</Node>
														<Node score="11.7">
															<SimplePredicate field="double(CPU_Freq_MHz)" operator="lessOrEqual" value="3300.0"/>
														</Node>
													</Node>
													<Node score="13.1">
														<SimplePredicate field="double(CPU_Model)" operator="lessOrEqual" value="29.434321403503418"/>
													</Node>
													<Node score="10.0">
														<SimplePredicate field="double(CPU_Model)" operator="lessOrEqual" value="39.76045036315918"/>
														<Node score="10.865">
															<SimplePredicate field="double(Num_Cores)" operator="lessOrEqual" value="5.0"/>
														</Node>
													</Node>
												</Node>
												<Node score="20.0">
													<SimplePredicate field="double(CPU_Model)" operator="lessOrEqual" value="38.55036735534668"/>
												</Node>
											</Node>
											<Node score="18.0">
												<SimplePredicate field="double(CPU_Freq_MHz)" operator="lessOrEqual" value="3450.0"/>
												<Node score="17.6">
													<SimplePredicate field="double(CPU_Model)" operator="lessOrEqual" value="35.36202621459961"/>
												</Node>
											</Node>
											<Node score="16.3">
												<SimplePredicate field="double(CPU_Model)" operator="lessOrEqual" value="32.710947036743164"/>
											</Node>
										</Node>
										<Node score="16.0">
											<SimplePredicate field="double(CPU_Model)" operator="lessOrEqual" value="31.12573528289795"/>
											<Node score="19.0">
												<SimplePredicate field="double(Achieved_Load_Pct)" operator="lessOrEqual" value="10.050000190734863"/>
												<Node score="16.7">
													<SimplePredicate field="double(CPU_Model)" operator="lessOrEqual" value="26.148664474487305"/>
												</Node>
												<Node score="20.1">
													<SimplePredicate field="double(Num_Cores)" operator="lessOrEqual" value="5.0"/>
												</Node>
											</Node>
											<Node score="14.0">
												<SimplePredicate field="double(CPU_Model)" operator="lessOrEqual" value="28.78621482849121"/>
											</Node>
										</Node>
										<Node score="20.0">
											<SimplePredicate field="double(CPU_Model)" operator="lessOrEqual" value="39.64386177062988"/>
											<Node score="18.3">
												<SimplePredicate field="double(CPU_Model)" operator="lessOrEqual" value="35.537532806396484"/>
												<Node score="16.4">
													<SimplePredicate field="double(Achieved_Load_Pct)" operator="lessOrEqual" value="9.949999809265137"/>
													<Node score="20.7">
														<SimplePredicate field="double(CPU_Freq_MHz)" operator="lessOrEqual" value="2800.0"/>
														<Node score="20.3">
															<SimplePredicate field="double(CPU_Freq_MHz)" operator="lessOrEqual" value="2600.0"/>
														</Node>
													</Node>
													<Node score="18.6">
														<SimplePredicate field="double(CPU_Model)" operator="lessOrEqual" value="34.52998924255371"/>
														<Node score="18.0">
															<SimplePredicate field="double(CPU_Model)" operator="lessOrEqual" value="33.35463333129883"/>
														</Node>
													</Node>
												</Node>
												<Node score="23.0">
													<SimplePredicate field="double(CPU_Model)" operator="lessOrEqual" value="35.350440979003906"/>
													<Node score="20.7">
														<SimplePredicate field="double(CPU_Model)" operator="lessOrEqual" value="34.93842697143555"/>
														<Node score="19.9">
															<SimplePredicate field="double(CPU_Freq_MHz)" operator="lessOrEqual" value="3100.0"/>
														</Node>
													</Node>
													<Node score="22.1">
														<SimplePredicate field="double(CPU_Model)" operator="lessOrEqual" value="35.19205856323242"/>
													</Node>
												</Node>
											</Node>
											<Node score="21.8">
												<SimplePredicate field="double(CPU_Freq_MHz)" operator="lessOrEqual" value="3450.0"/>
												<Node score="22.9">
													<SimplePredicate field="double(Achieved_Load_Pct)" operator="lessOrEqual" value="9.949999809265137"/>
													<Node score="21.7">
														<SimplePredicate field="double(Achieved_Load_Pct)" operator="lessOrEqual" value="9.849999904632568"/>
													</Node>
													<Node score="22.7">
														<SimplePredicate field="double(CPU_Freq_MHz)" operator="lessOrEqual" value="2450.0"/>
													</Node>
												</Node>
												<Node score="21.6">
													<SimplePredicate field="double(CPU_Model)" operator="lessOrEqual" value="37.25141716003418"/>
													<Node score="19.9">
														<SimplePredicate field="double(Total_Threads)" operator="lessOrEqual" value="12.0"/>
													</Node>
												</Node>
												<Node score="21.6">
													<SimplePredicate field="double(RAM_Capacity_GB)" operator="lessOrEqual" value="12.0"/>
												</Node>
											</Node>
											<Node score="17.9">
												<SimplePredicate field="double(RAM_Capacity_GB)" operator="lessOrEqual" value="24.0"/>
												<Node score="18.2">
													<SimplePredicate field="double(CPU_Model)" operator="lessOrEqual" value="37.58780097961426"/>
												</Node>
											</Node>
											<Node score="25.1">
												<SimplePredicate field="double(Achieved_Load_Pct)" operator="lessOrEqual" value="10.050000190734863"/>
											</Node>
										</Node>
									</Node>
									<Node score="24.1">
										<SimplePredicate field="double(RAM_Capacity_GB)" operator="lessOrEqual" value="12.0"/>
										<Node score="27.9">
											<SimplePredicate field="double(CPU_Model)" operator="lessOrEqual" value="34.034677505493164"/>
											<Node score="24.9">
												<SimplePredicate field="double(Achieved_Load_Pct)" operator="lessOrEqual" value="30.0"/>
												<Node score="24.4">
													<SimplePredicate field="double(CPU_Model)" operator="lessOrEqual" value="33.45565223693848"/>
													<Node score="23.3">
														<SimplePredicate field="double(Achieved_Load_Pct)" operator="lessOrEqual" value="25.050000190734863"/>
													</Node>
												</Node>
												<Node score="24.6">
													<SimplePredicate field="double(Achieved_Load_Pct)" operator="lessOrEqual" value="19.949999809265137"/>
												</Node>
											</Node>
											<Node score="26.1">
												<SimplePredicate field="double(Achieved_Load_Pct)" operator="lessOrEqual" value="30.15000057220459"/>
											</Node>
										</Node>
										<Node score="28.8">
											<SimplePredicate field="double(CPU_Model)" operator="lessOrEqual" value="40.14742469787598"/>
											<Node score="28.8">
												<SimplePredicate field="double(CPU_Model)" operator="lessOrEqual" value="38.79019546508789"/>
												<Node score="25.3">
													<SimplePredicate field="double(Achieved_Load_Pct)" operator="lessOrEqual" value="20.15000057220459"/>
													<Node score="26.0">
														<SimplePredicate field="double(Achieved_Load_Pct)" operator="lessOrEqual" value="19.949999809265137"/>
													</Node>
												</Node>
												<Node score="27.3">
													<SimplePredicate field="double(Achieved_Load_Pct)" operator="lessOrEqual" value="30.050000190734863"/>
													<Node score="28.1">
														<SimplePredicate field="double(CPU_Model)" operator="lessOrEqual" value="36.86970329284668"/>
														<Node score="26.9">
															<SimplePredicate field="double(CPU_Model)" operator="lessOrEqual" value="34.18884468078613"/>
														</Node>
														<Node score="28.9">
															<SimplePredicate field="double(CPU_Freq_MHz)" operator="lessOrEqual" value="2450.0"/>
														</Node>
														<Node score="28.2">
															<SimplePredicate field="double(CPU_Model)" operator="lessOrEqual" value="34.50605010986328"/>
														</Node>
													</Node>
													<Node score="25.5">
														<SimplePredicate field="double(CPU_Model)" operator="lessOrEqual" value="38.224151611328125"/>
													</Node>
												</Node>
											</Node>
											<Node score="30.4">
												<SimplePredicate field="double(Total_Threads)" operator="lessOrEqual" value="6.0"/>
											</Node>
										</Node>
									</Node>
									<Node score="19.9">
										<SimplePredicate field="double(CPU_Model)" operator="lessOrEqual" value="29.66133975982666"/>
										<Node score="17.2">
											<SimplePredicate field="double(CPU_Model)" operator="lessOrEqual" value="28.351600646972656"/>
											<Node score="19.4">
												<SimplePredicate field="double(CPU_Model)" operator="lessOrEqual" value="27.84150218963623"/>
												<Node score="18.4">
													<SimplePredicate field="double(CPU_Freq_MHz)" operator="lessOrEqual" value="3200.0"/>
												</Node>
											</Node>
										</Node>
										<Node score="22.3">
											<SimplePredicate field="double(CPU_Model)" operator="lessOrEqual" value="28.914416313171387"/>
										</Node>
										<Node score="20.4">
											<SimplePredicate field="double(CPU_Freq_MHz)" operator="lessOrEqual" value="3200.0"/>
											<Node score="20.6">
												<SimplePredicate field="double(Achieved_Load_Pct)" operator="lessOrEqual" value="25.050000190734863"/>
											</Node>
										</Node>
									</Node>
									<Node score="32.3">
										<SimplePredicate field="double(CPU_Model)" operator="lessOrEqual" value="38.03582954406738"/>
										<Node score="27.2">
											<SimplePredicate field="double(CPU_Model)" operator="lessOrEqual" value="37.37272644042969"/>
											<Node score="22.8">
												<SimplePredicate field="double(Achieved_Load_Pct)" operator="lessOrEqual" value="24.949999809265137"/>
												<Node score="24.4">
													<SimplePredicate field="double(CPU_Freq_MHz)" operator="lessOrEqual" value="3450.0"/>
													<Node score="20.4">
														<SimplePredicate field="double(CPU_Model)" operator="lessOrEqual" value="31.36268901824951"/>
													</Node>
													<Node score="23.549999999999997">
														<SimplePredicate field="double(Total_Threads)" operator="lessOrEqual" value="14.0"/>
														<Node score="23.5">
															<SimplePredicate field="double(CPU_Model)" operator="lessOrEqual" value="33.47642707824707"/>
														</Node>
													</Node>
													<Node score="24.9">
														<SimplePredicate field="double(Achieved_Load_Pct)" operator="lessOrEqual" value="20.050000190734863"/>
													</Node>
												</Node>
												<Node score="20.3">
													<SimplePredicate field="double(RAM_Capacity_GB)" operator="lessOrEqual" value="24.0"/>
													<Node score="18.4">
														<SimplePredicate field="double(Num_Cores)" operator="lessOrEqual" value="7.0"/>
													</Node>
													<Node score="22.2">
														<SimplePredicate field="double(Achieved_Load_Pct)" operator="lessOrEqual" value="20.050000190734863"/>
													</Node>
												</Node>
											</Node>
											<Node score="23.5">
												<SimplePredicate field="double(CPU_Model)" operator="lessOrEqual" value="33.620826721191406"/>
												<Node score="25.6">
													<SimplePredicate field="double(Achieved_Load_Pct)" operator="lessOrEqual" value="29.949999809265137"/>
													<Node score="22.7">
														<SimplePredicate field="double(CPU_Model)" operator="lessOrEqual" value="31.12573528289795"/>
														<Node score="24.1">
															<SimplePredicate field="double(Achieved_Load_Pct)" operator="lessOrEqual" value="29.84999942779541"/>
														</Node>
													</Node>
												</Node>
												<Node score="22.4">
													<SimplePredicate field="double(CPU_Model)" operator="lessOrEqual" value="32.51951599121094"/>
													<Node score="22.3">
														<SimplePredicate field="double(CPU_Freq_MHz)" operator="lessOrEqual" value="2900.0"/>
													</Node>
												</Node>
											</Node>
											<Node score="27.5">
												<SimplePredicate field="double(Achieved_Load_Pct)" operator="lessOrEqual" value="30.050000190734863"/>
												<Node score="23.4">
													<SimplePredicate field="double(CPU_Freq_MHz)" operator="lessOrEqual" value="2950.0"/>
												</Node>
												<Node score="32.4">
													<SimplePredicate field="double(CPU_Model)" operator="lessOrEqual" value="35.63284492492676"/>
												</Node>
												<Node score="24.0">
													<SimplePredicate field="double(Achieved_Load_Pct)" operator="lessOrEqual" value="29.84999942779541"/>
												</Node>
												<Node score="26.4">
													<SimplePredicate field="double(Total_Threads)" operator="lessOrEqual" value="14.0"/>
												</Node>
											</Node>
											<Node score="22.8">
												<SimplePredicate field="double(Num_Cores)" operator="lessOrEqual" value="7.0"/>
												<Node score="25.9">
													<SimplePredicate field="double(Total_Threads)" operator="lessOrEqual" value="10.0"/>
												</Node>
												<Node score="22.0">
													<SimplePredicate field="double(CPU_Model)" operator="lessOrEqual" value="36.13314437866211"/>
												</Node>
												<Node score="23.5">
													<SimplePredicate field="double(Achieved_Load_Pct)" operator="lessOrEqual" value="30.15000057220459"/>
												</Node>
											</Node>
										</Node>
										<Node score="28.5">
											<SimplePredicate field="double(Achieved_Load_Pct)" operator="lessOrEqual" value="24.949999809265137"/>
										</Node>
									</Node>
									<Node score="20.25">
										<SimplePredicate field="double(Achieved_Load_Pct)" operator="lessOrEqual" value="24.949999809265137"/>
										<Node score="18.9">
											<SimplePredicate field="double(CPU_Model)" operator="lessOrEqual" value="39.24591255187988"/>
										</Node>
									</Node>
									<Node score="21.4">
										<SimplePredicate field="double(CPU_Model)" operator="lessOrEqual" value="39.24591255187988"/>
									</Node>
								</Node>
								<Node score="34.7">
									<SimplePredicate field="double(Achieved_Load_Pct)" operator="lessOrEqual" value="50.04999923706055"/>
									<Node score="29.8">
										<SimplePredicate field="double(CPU_Model)" operator="lessOrEqual" value="33.95915222167969"/>
										<Node score="25.0">
											<SimplePredicate field="double(CPU_Model)" operator="lessOrEqual" value="30.216365814208984"/>
											<Node score="22.5">
												<SimplePredicate field="double(Achieved_Load_Pct)" operator="lessOrEqual" value="40.25"/>
												<Node score="24.2">
													<SimplePredicate field="double(Achieved_Load_Pct)" operator="lessOrEqual" value="39.95000076293945"/>
													<Node score="25.4">
														<SimplePredicate field="double(CPU_Model)" operator="lessOrEqual" value="28.534504890441895"/>
													</Node>
													<Node score="23.4">
														<SimplePredicate field="double(CPU_Model)" operator="lessOrEqual" value="29.321928024291992"/>
													</Node>
												</Node>
												<Node score="22.6">
													<SimplePredicate field="double(CPU_Freq_MHz)" operator="lessOrEqual" value="3200.0"/>
												</Node>
											</Node>
											<Node score="27.0">
												<SimplePredicate field="double(CPU_Model)" operator="lessOrEqual" value="29.759032249450684"/>
												<Node score="25.5">
													<SimplePredicate field="double(CPU_Model)" operator="lessOrEqual" value="27.656107902526855"/>
													<Node score="26.1">
														<SimplePredicate field="double(Achieved_Load_Pct)" operator="lessOrEqual" value="49.80000114440918"/>
													</Node>
												</Node>
												<Node score="26.2">
													<SimplePredicate field="double(Achieved_Load_Pct)" operator="lessOrEqual" value="45.150001525878906"/>
												</Node>
												<Node score="28.2">
													<SimplePredicate field="double(CPU_Model)" operator="lessOrEqual" value="29.321928024291992"/>
													<Node score="28.4">
														<SimplePredicate field="double(CPU_Model)" operator="lessOrEqual" value="28.5284366607666"/>
													</Node>
												</Node>
											</Node>
										</Node>
										<Node score="25.1">
											<SimplePredicate field="double(Achieved_Load_Pct)" operator="lessOrEqual" value="40.14999961853027"/>
											<Node score="28.3">
												<SimplePredicate field="double(Achieved_Load_Pct)" operator="lessOrEqual" value="39.95000076293945"/>
												<Node score="27.2">
													<SimplePredicate field="double(Total_Threads)" operator="lessOrEqual" value="12.0"/>
												</Node>
											</Node>
											<Node score="26.8">
												<SimplePredicate field="double(Num_Cores)" operator="lessOrEqual" value="7.0"/>
												<Node score="26.1">
													<SimplePredicate field="double(Num_Cores)" operator="lessOrEqual" value="5.0"/>
												</Node>
											</Node>
										</Node>
										<Node score="28.9">
											<SimplePredicate field="double(CPU_Model)" operator="lessOrEqual" value="31.68511962890625"/>
										</Node>
										<Node score="30.0">
											<SimplePredicate field="double(Achieved_Load_Pct)" operator="lessOrEqual" value="45.10000038146973"/>
										</Node>
									</Node>
									<Node score="44.9">
										<SimplePredicate field="double(RAM_Capacity_GB)" operator="lessOrEqual" value="6.0"/>
										<Node score="37.9">
											<SimplePredicate field="double(Achieved_Load_Pct)" operator="lessOrEqual" value="40.250000953674316"/>
										</Node>
									</Node>
									<Node score="31.9">
										<SimplePredicate field="double(RAM_Capacity_GB)" operator="lessOrEqual" value="12.0"/>
										<Node score="36.4">
											<SimplePredicate field="double(CPU_Freq_MHz)" operator="lessOrEqual" value="2450.0"/>
											<Node score="33.3">
												<SimplePredicate field="double(Achieved_Load_Pct)" operator="lessOrEqual" value="40.10000038146973"/>
											</Node>
											<Node score="34.9">
												<SimplePredicate field="double(CPU_Model)" operator="lessOrEqual" value="36.27645301818848"/>
											</Node>
										</Node>
										<Node score="31.7">
											<SimplePredicate field="double(Achieved_Load_Pct)" operator="lessOrEqual" value="45.0"/>
											<Node score="30.5">
												<SimplePredicate field="double(CPU_Model)" operator="lessOrEqual" value="34.93842697143555"/>
												<Node score="28.9">
													<SimplePredicate field="double(Achieved_Load_Pct)" operator="lessOrEqual" value="40.05000114440918"/>
												</Node>
											</Node>
											<Node score="31.2">
												<SimplePredicate field="double(CPU_Model)" operator="lessOrEqual" value="35.379150390625"/>
											</Node>
											<Node score="31.5">
												<SimplePredicate field="double(CPU_Model)" operator="lessOrEqual" value="37.92167663574219"/>
											</Node>
										</Node>
										<Node score="34.5">
											<SimplePredicate field="double(Achieved_Load_Pct)" operator="lessOrEqual" value="49.85000038146973"/>
											<Node score="34.4">
												<SimplePredicate field="double(CPU_Model)" operator="lessOrEqual" value="34.92243003845215"/>
											</Node>
										</Node>
										<Node score="33.4">
											<SimplePredicate field="double(CPU_Model)" operator="lessOrEqual" value="36.8380126953125"/>
											<Node score="33.1">
												<SimplePredicate field="double(CPU_Model)" operator="lessOrEqual" value="34.92243003845215"/>
											</Node>
										</Node>
									</Node>
									<Node score="29.9">
										<SimplePredicate field="double(Achieved_Load_Pct)" operator="lessOrEqual" value="40.04999923706055"/>
										<Node score="25.5">
											<SimplePredicate field="double(RAM_Capacity_GB)" operator="lessOrEqual" value="24.0"/>
											<Node score="30.8">
												<SimplePredicate field="double(CPU_Model)" operator="lessOrEqual" value="34.81412315368652"/>
											</Node>
											<Node score="24.6">
												<SimplePredicate field="double(CPU_Freq_MHz)" operator="lessOrEqual" value="3450.0"/>
											</Node>
											<Node score="26.9">
												<SimplePredicate field="double(CPU_Model)" operator="lessOrEqual" value="37.58780097961426"/>
											</Node>
											<Node score="24.4">
												<SimplePredicate field="double(CPU_Model)" operator="lessOrEqual" value="38.84639358520508"/>
											</Node>
										</Node>
										<Node score="36.6">
											<SimplePredicate field="double(Achieved_Load_Pct)" operator="lessOrEqual" value="39.95000076293945"/>
										</Node>
									</Node>
									<Node score="37.0">
										<SimplePredicate field="double(Achieved_Load_Pct)" operator="lessOrEqual" value="40.14999961853027"/>
									</Node>
									<Node score="27.9">
										<SimplePredicate field="double(Total_Threads)" operator="lessOrEqual" value="14.0"/>
										<Node score="30.0">
											<SimplePredicate field="double(CPU_Model)" operator="lessOrEqual" value="39.76045036315918"/>
											<Node score="31.2">
												<SimplePredicate field="double(Achieved_Load_Pct)" operator="lessOrEqual" value="49.75"/>
												<Node score="32.3">
													<SimplePredicate field="double(Num_Cores)" operator="lessOrEqual" value="5.0"/>
												</Node>
											</Node>
											<Node score="28.0">
												<SimplePredicate field="double(CPU_Model)" operator="lessOrEqual" value="37.39173698425293"/>
												<Node score="29.6">
													<SimplePredicate field="double(Total_Threads)" operator="lessOrEqual" value="10.0"/>
												</Node>
											</Node>
										</Node>
									</Node>
									<Node score="30.2">
										<SimplePredicate field="double(Achieved_Load_Pct)" operator="lessOrEqual" value="45.14999961853027"/>
										<Node score="30.5">
											<SimplePredicate field="double(Achieved_Load_Pct)" operator="lessOrEqual" value="40.25"/>
										</Node>
									</Node>
								</Node>
								<Node score="29.5">
									<SimplePredicate field="double(CPU_Model)" operator="lessOrEqual" value="29.444994926452637"/>
									<Node score="31.9">
										<SimplePredicate field="double(Achieved_Load_Pct)" operator="lessOrEqual" value="60.04999923706055"/>
										<Node score="29.7">
											<SimplePredicate field="double(Achieved_Load_Pct)" operator="lessOrEqual" value="59.89999961853027"/>
											<Node score="31.2">
												<SimplePredicate field="double(Achieved_Load_Pct)" operator="lessOrEqual" value="59.75"/>
											</Node>
										</Node>
									</Node>
								</Node>
								<Node score="30.8">
									<SimplePredicate field="double(RAM_Capacity_GB)" operator="lessOrEqual" value="24.0"/>
									<Node score="37.9">
										<SimplePredicate field="double(RAM_Capacity_GB)" operator="lessOrEqual" value="12.0"/>
										<Node score="36.0">
											<SimplePredicate field="double(Achieved_Load_Pct)" operator="lessOrEqual" value="59.55000114440918"/>
											<Node score="38.9">
												<SimplePredicate field="double(CPU_Freq_MHz)" operator="lessOrEqual" value="2450.0"/>
											</Node>
											<Node score="35.1">
												<SimplePredicate field="double(Achieved_Load_Pct)" operator="lessOrEqual" value="54.75"/>
											</Node>
										</Node>
										<Node score="39.7">
											<SimplePredicate field="double(Achieved_Load_Pct)" operator="lessOrEqual" value="59.94999885559082"/>
											<Node score="40.650000000000006">
												<SimplePredicate field="double(CPU_Model)" operator="lessOrEqual" value="37.96846008300781"/>
												<Node score="40.3">
													<SimplePredicate field="double(CPU_Model)" operator="lessOrEqual" value="35.486833572387695"/>
												</Node>
											</Node>
										</Node>
										<Node score="39.3">
											<SimplePredicate field="double(CPU_Model)" operator="lessOrEqual" value="32.064988136291504"/>
										</Node>
										<Node score="37.3">
											<SimplePredicate field="double(CPU_Model)" operator="lessOrEqual" value="34.27200126647949"/>
										</Node>
									</Node>
									<Node score="32.2">
										<SimplePredicate field="double(CPU_Model)" operator="lessOrEqual" value="33.74114990234375"/>
										<Node score="33.6">
											<SimplePredicate field="double(CPU_Model)" operator="lessOrEqual" value="30.890718460083008"/>
										</Node>
										<Node score="32.1">
											<SimplePredicate field="double(CPU_Model)" operator="lessOrEqual" value="31.80869197845459"/>
										</Node>
									</Node>
									<Node score="38.4">
										<SimplePredicate field="double(CPU_Model)" operator="lessOrEqual" value="39.76045036315918"/>
										<Node score="41.2">
											<SimplePredicate field="double(Achieved_Load_Pct)" operator="lessOrEqual" value="50.19999885559082"/>
										</Node>
										<Node score="34.1">
											<SimplePredicate field="double(Achieved_Load_Pct)" operator="lessOrEqual" value="55.0"/>
											<Node score="30.2">
												<SimplePredicate field="double(Num_Cores)" operator="lessOrEqual" value="7.0"/>
											</Node>
										</Node>
										<Node score="34.55">
											<SimplePredicate field="double(Total_Threads)" operator="lessOrEqual" value="14.0"/>
											<Node score="38.8">
												<SimplePredicate field="double(Achieved_Load_Pct)" operator="lessOrEqual" value="59.95000076293945"/>
												<Node score="35.8">
													<SimplePredicate field="double(Achieved_Load_Pct)" operator="lessOrEqual" value="59.80000114440918"/>
													<Node score="34.0">
														<SimplePredicate field="double(CPU_Freq_MHz)" operator="lessOrEqual" value="3450.0"/>
													</Node>
												</Node>
											</Node>
											<Node score="32.1">
												<SimplePredicate field="double(CPU_Model)" operator="lessOrEqual" value="35.16916084289551"/>
											</Node>
											<Node score="35.5">
												<SimplePredicate field="double(Achieved_Load_Pct)" operator="lessOrEqual" value="60.10000038146973"/>
												<Node score="37.6">
													<SimplePredicate field="double(Total_Threads)" operator="lessOrEqual" value="10.0"/>
												</Node>
											</Node>
											<Node score="34.7">
												<SimplePredicate field="double(Total_Threads)" operator="lessOrEqual" value="10.0"/>
											</Node>
										</Node>
										<Node score="39.0">
											<SimplePredicate field="double(CPU_Model)" operator="lessOrEqual" value="36.682546615600586"/>
										</Node>
									</Node>
								</Node>
								<Node score="47.5">
									<SimplePredicate field="double(CPU_Model)" operator="lessOrEqual" value="38.102338790893555"/>
								</Node>
							</Node>
							<Node score="43.2">
								<SimplePredicate field="double(Achieved_Load_Pct)" operator="lessOrEqual" value="20.15000057220459"/>
								<Node score="31.5">
									<SimplePredicate field="double(CPU_Model)" operator="lessOrEqual" value="53.30933952331543"/>
									<Node score="21.2">
										<SimplePredicate field="double(Achieved_Load_Pct)" operator="lessOrEqual" value="4.900000095367432"/>
										<Node score="36.6">
											<SimplePredicate field="double(CPU_Freq_MHz)" operator="lessOrEqual" value="3150.0"/>
											<Node score="24.3">
												<SimplePredicate field="double(Num_Cores)" operator="lessOrEqual" value="3.0"/>
												<Node score="25.8">
													<SimplePredicate field="double(CPU_Model)" operator="lessOrEqual" value="43.55262565612793"/>
												</Node>
												<Node score="24.8">
													<SimplePredicate field="double(CPU_Model)" operator="lessOrEqual" value="44.054582595825195"/>
												</Node>
											</Node>
										</Node>
										<Node score="19.7">
											<SimplePredicate field="double(CPU_Model)" operator="lessOrEqual" value="45.32749366760254"/>
										</Node>
										<Node score="21.7">
											<SimplePredicate field="double(CPU_Model)" operator="lessOrEqual" value="48.80531311035156"/>
										</Node>
										<Node score="20.5">
											<SimplePredicate field="double(CPU_Model)" operator="lessOrEqual" value="52.2415771484375"/>
										</Node>
									</Node>
									<Node score="38.8">
										<SimplePredicate field="double(Achieved_Load_Pct)" operator="lessOrEqual" value="9.849999904632568"/>
									</Node>
									<Node score="25.9">
										<SimplePredicate field="double(Achieved_Load_Pct)" operator="lessOrEqual" value="10.050000190734863"/>
										<Node score="30.8">
											<SimplePredicate field="double(CPU_Freq_MHz)" operator="lessOrEqual" value="3133.5"/>
										</Node>
										<Node score="25.6">
											<SimplePredicate field="double(CPU_Model)" operator="lessOrEqual" value="44.74227333068848"/>
										</Node>
										<Node score="27.5">
											<SimplePredicate field="double(CPU_Model)" operator="lessOrEqual" value="47.148170471191406"/>
											<Node score="27.2">
												<SimplePredicate field="double(CPU_Model)" operator="lessOrEqual" value="45.32749366760254"/>
											</Node>
										</Node>
										<Node score="25.8">
											<SimplePredicate field="double(Achieved_Load_Pct)" operator="lessOrEqual" value="9.949999809265137"/>
										</Node>
									</Node>
									<Node score="28.7">
										<SimplePredicate field="double(CPU_Model)" operator="lessOrEqual" value="46.87170219421387"/>
										<Node score="33.7">
											<SimplePredicate field="double(Num_Cores)" operator="lessOrEqual" value="5.0"/>
											<Node score="29.8">
												<SimplePredicate field="double(Achieved_Load_Pct)" operator="lessOrEqual" value="14.90000057220459"/>
											</Node>
										</Node>
										<Node score="30.5">
											<SimplePredicate field="double(CPU_Model)" operator="lessOrEqual" value="45.32749366760254"/>
											<Node score="28.9">
												<SimplePredicate field="double(CPU_Model)" operator="lessOrEqual" value="43.53471374511719"/>
												<Node score="30.3">
													<SimplePredicate field="double(CPU_Model)" operator="lessOrEqual" value="41.616004943847656"/>
												</Node>
											</Node>
										</Node>
									</Node>
									<Node score="31.3">
										<SimplePredicate field="double(CPU_Model)" operator="lessOrEqual" value="49.18389892578125"/>
									</Node>
									<Node score="32.5">
										<SimplePredicate field="double(CPU_Model)" operator="lessOrEqual" value="51.117509841918945"/>
									</Node>
								</Node>
								<Node score="45.8">
									<SimplePredicate field="double(Achieved_Load_Pct)" operator="lessOrEqual" value="5.0"/>
									<Node score="24.2">
										<SimplePredicate field="double(CPU_Freq_MHz)" operator="lessOrEqual" value="3550.0"/>
										<Node score="32.0">
											<SimplePredicate field="double(CPU_Freq_MHz)" operator="lessOrEqual" value="2750.0"/>
											<Node score="32.6">
												<SimplePredicate field="double(RAM_Capacity_GB)" operator="lessOrEqual" value="6.0"/>
											</Node>
										</Node>
										<Node score="21.3">
											<SimplePredicate field="double(CPU_Freq_MHz)" operator="lessOrEqual" value="3450.0"/>
											<Node score="22.4">
												<SimplePredicate field="double(CPU_Freq_MHz)" operator="lessOrEqual" value="3250.0"/>
											</Node>
											<Node score="21.4">
												<SimplePredicate field="double(CPU_Model)" operator="lessOrEqual" value="65.86681365966797"/>
											</Node>
										</Node>
										<Node score="37.6">
											<SimplePredicate field="double(CPU_Model)" operator="lessOrEqual" value="62.71186637878418"/>
										</Node>
									</Node>
								</Node>
								<Node score="41.5">
									<SimplePredicate field="double(Total_Threads)" operator="lessOrEqual" value="5.0"/>
									<Node score="28.4">
										<SimplePredicate field="double(Achieved_Load_Pct)" operator="lessOrEqual" value="10.099999904632568"/>
									</Node>
									<Node score="34.8">
										<SimplePredicate field="double(CPU_Model)" operator="lessOrEqual" value="66.07318496704102"/>
										<Node score="37.2">
											<SimplePredicate field="double(CPU_Freq_MHz)" operator="lessOrEqual" value="2750.0"/>
										</Node>
									</Node>
								</Node>
								<Node score="46.2">
									<SimplePredicate field="double(CPU_Model)" operator="lessOrEqual" value="56.53297996520996"/>
									<Node score="46.1">
										<SimplePredicate field="double(CPU_Model)" operator="lessOrEqual" value="55.37019729614258"/>
									</Node>
								</Node>
								<Node score="31.3">
									<SimplePredicate field="double(CPU_Model)" operator="lessOrEqual" value="62.26716423034668"/>
									<Node score="39.9">
										<SimplePredicate field="double(CPU_Model)" operator="lessOrEqual" value="60.61214828491211"/>
										<Node score="41.7">
											<SimplePredicate field="double(Achieved_Load_Pct)" operator="lessOrEqual" value="10.050000190734863"/>
											<Node score="43.1">
												<SimplePredicate field="double(Num_Cores)" operator="lessOrEqual" value="5.0"/>
											</Node>
										</Node>
									</Node>
								</Node>
								<Node score="48.6">
									<SimplePredicate field="double(CPU_Model)" operator="lessOrEqual" value="63.91258239746094"/>
								</Node>
							</Node>
							<Node score="43.5">
								<SimplePredicate field="double(CPU_Model)" operator="lessOrEqual" value="46.87170219421387"/>
								<Node score="42.3">
									<SimplePredicate field="double(Achieved_Load_Pct)" operator="lessOrEqual" value="59.95000076293945"/>
									<Node score="34.2">
										<SimplePredicate field="double(Achieved_Load_Pct)" operator="lessOrEqual" value="40.30000114440918"/>
										<Node score="40.9">
											<SimplePredicate field="double(RAM_Capacity_GB)" operator="lessOrEqual" value="12.0"/>
											<Node score="38.6">
												<SimplePredicate field="double(Achieved_Load_Pct)" operator="lessOrEqual" value="34.64999961853027"/>
												<Node score="36.6">
													<SimplePredicate field="double(CPU_Model)" operator="lessOrEqual" value="44.054582595825195"/>
												</Node>
											</Node>
											<Node score="39.6">
												<SimplePredicate field="double(Achieved_Load_Pct)" operator="lessOrEqual" value="39.54999923706055"/>
											</Node>
										</Node>
										<Node score="31.5">
											<SimplePredicate field="double(Achieved_Load_Pct)" operator="lessOrEqual" value="34.94999980926514"/>
											<Node score="33.1">
												<SimplePredicate field="double(Achieved_Load_Pct)" operator="lessOrEqual" value="30.050000190734863"/>
												<Node score="33.2">
													<SimplePredicate field="double(CPU_Model)" operator="lessOrEqual" value="43.12809944152832"/>
												</Node>
											</Node>
										</Node>
										<Node score="36.1">
											<SimplePredicate field="double(Achieved_Load_Pct)" operator="lessOrEqual" value="40.14999961853027"/>
											<Node score="36.5">
												<SimplePredicate field="double(Achieved_Load_Pct)" operator="lessOrEqual" value="39.94999885559082"/>
											</Node>
										</Node>
									</Node>
									<Node score="39.1">
										<SimplePredicate field="double(CPU_Model)" operator="lessOrEqual" value="43.16965675354004"/>
										<Node score="40.7">
											<SimplePredicate field="double(CPU_Model)" operator="lessOrEqual" value="41.616004943847656"/>
										</Node>
										<Node score="38.7">
											<SimplePredicate field="double(Achieved_Load_Pct)" operator="lessOrEqual" value="49.80000114440918"/>
										</Node>
									</Node>
									<Node score="42.0">
										<SimplePredicate field="double(RAM_Capacity_GB)" operator="lessOrEqual" value="10.0"/>
									</Node>
								</Node>
								<Node score="58.5">
									<SimplePredicate field="double(CPU_Freq_MHz)" operator="lessOrEqual" value="3150.0"/>
									<Node score="47.5">
										<SimplePredicate field="double(RAM_Capacity_GB)" operator="lessOrEqual" value="6.0"/>
										<Node score="48.1">
											<SimplePredicate field="double(CPU_Model)" operator="lessOrEqual" value="44.391136169433594"/>
										</Node>
									</Node>
								</Node>
								<Node score="44.95">
									<SimplePredicate field="double(Achieved_Load_Pct)" operator="lessOrEqual" value="60.04999923706055"/>
								</Node>
							</Node>
							<Node score="59.8">
								<SimplePredicate field="double(Achieved_Load_Pct)" operator="lessOrEqual" value="45.04999923706055"/>
								<Node score="42.3">
									<SimplePredicate field="double(CPU_Freq_MHz)" operator="lessOrEqual" value="3450.0"/>
									<Node score="52.3">
										<SimplePredicate field="double(CPU_Freq_MHz)" operator="lessOrEqual" value="2750.0"/>
										<Node score="49.2">
											<SimplePredicate field="double(Achieved_Load_Pct)" operator="lessOrEqual" value="34.75"/>
											<Node score="46.6">
												<SimplePredicate field="double(Num_Cores)" operator="lessOrEqual" value="5.0"/>
											</Node>
											<Node score="49.3">
												<SimplePredicate field="double(CPU_Model)" operator="lessOrEqual" value="55.40283393859863"/>
											</Node>
										</Node>
									</Node>
									<Node score="42.6">
										<SimplePredicate field="double(Achieved_Load_Pct)" operator="lessOrEqual" value="39.89999961853027"/>
										<Node score="38.3">
											<SimplePredicate field="double(Achieved_Load_Pct)" operator="lessOrEqual" value="35.0"/>
											<Node score="42.1">
												<SimplePredicate field="double(Achieved_Load_Pct)" operator="lessOrEqual" value="29.84999942779541"/>
												<Node score="38.0">
													<SimplePredicate field="double(Achieved_Load_Pct)" operator="lessOrEqual" value="25.0"/>
													<Node score="41.2">
														<SimplePredicate field="double(Total_Threads)" operator="lessOrEqual" value="6.0"/>
													</Node>
												</Node>
											</Node>
											<Node score="36.8">
												<SimplePredicate field="double(Achieved_Load_Pct)" operator="lessOrEqual" value="30.050000190734863"/>
											</Node>
										</Node>
									</Node>
									<Node score="48.8">
										<SimplePredicate field="double(Num_Cores)" operator="lessOrEqual" value="6.0"/>
										<Node score="49.1">
											<SimplePredicate field="double(Achieved_Load_Pct)" operator="lessOrEqual" value="40.14999961853027"/>
										</Node>
									</Node>
									<Node score="44.2">
										<SimplePredicate field="double(CPU_Model)" operator="lessOrEqual" value="50.307966232299805"/>
									</Node>
								</Node>
								<Node score="41.7">
									<SimplePredicate field="double(Achieved_Load_Pct)" operator="lessOrEqual" value="40.10000038146973"/>
									<Node score="54.4">
										<SimplePredicate field="double(CPU_Model)" operator="lessOrEqual" value="63.00030708312988"/>
										<Node score="51.4">
											<SimplePredicate field="double(Achieved_Load_Pct)" operator="lessOrEqual" value="25.100000381469727"/>
										</Node>
									</Node>
									<Node score="54.3">
										<SimplePredicate field="double(Achieved_Load_Pct)" operator="lessOrEqual" value="29.84999942779541"/>
									</Node>
									<Node score="48.8">
										<SimplePredicate field="double(CPU_Model)" operator="lessOrEqual" value="65.32922172546387"/>
										<Node score="45.5">
											<SimplePredicate field="double(Achieved_Load_Pct)" operator="lessOrEqual" value="34.90000057220459"/>
										</Node>
									</Node>
								</Node>
							</Node>
							<Node score="52.1">
								<SimplePredicate field="double(CPU_Model)" operator="lessOrEqual" value="53.30933952331543"/>
								<Node score="49.8">
									<SimplePredicate field="double(Achieved_Load_Pct)" operator="lessOrEqual" value="55.150001525878906"/>
									<Node score="47.9">
										<SimplePredicate field="double(CPU_Model)" operator="lessOrEqual" value="49.01115417480469"/>
									</Node>
									<Node score="49.4">
										<SimplePredicate field="double(Total_Threads)" operator="lessOrEqual" value="10.0"/>
									</Node>
								</Node>
								<Node score="55.4">
									<SimplePredicate field="double(CPU_Model)" operator="lessOrEqual" value="49.18389892578125"/>
								</Node>
								<Node score="52.8">
									<SimplePredicate field="double(CPU_Model)" operator="lessOrEqual" value="51.117509841918945"/>
								</Node>
							</Node>
							<Node score="52.9">
								<SimplePredicate field="double(Achieved_Load_Pct)" operator="lessOrEqual" value="54.89999961853027"/>
								<Node score="56.7">
									<SimplePredicate field="double(CPU_Freq_MHz)" operator="lessOrEqual" value="3450.0"/>
									<Node score="59.8">
										<SimplePredicate field="double(Total_Threads)" operator="lessOrEqual" value="5.0"/>
									</Node>
									<Node score="56.1">
										<SimplePredicate field="double(CPU_Model)" operator="lessOrEqual" value="59.57448387145996"/>
										<Node score="56.0">
											<SimplePredicate field="double(Num_Cores)" operator="lessOrEqual" value="5.0"/>
										</Node>
									</Node>
								</Node>
								<Node score="53.9">
									<SimplePredicate field="double(Achieved_Load_Pct)" operator="lessOrEqual" value="50.14999961853027"/>
								</Node>
							</Node>
							<Node score="61.3">
								<SimplePredicate field="double(CPU_Model)" operator="lessOrEqual" value="62.157854080200195"/>
								<Node score="59.6">
									<SimplePredicate field="double(CPU_Model)" operator="lessOrEqual" value="59.0214786529541"/>
								</Node>
							</Node>
							<Node score="64.5">
								<SimplePredicate field="double(CPU_Freq_MHz)" operator="lessOrEqual" value="3500.0"/>
							</Node>
						</Node>
						<Node score="93.1">
							<SimplePredicate field="double(CPU_Model)" operator="lessOrEqual" value="55.65015983581543"/>
							<Node score="56.0">
								<SimplePredicate field="double(CPU_Model)" operator="lessOrEqual" value="36.82645606994629"/>
								<Node score="44.3">
									<SimplePredicate field="double(Achieved_Load_Pct)" operator="lessOrEqual" value="85.0"/>
									<Node score="41.3">
										<SimplePredicate field="double(CPU_Model)" operator="lessOrEqual" value="33.66863250732422"/>
										<Node score="40.2">
											<SimplePredicate field="double(Achieved_Load_Pct)" operator="lessOrEqual" value="69.95000076293945"/>
											<Node score="31.4">
												<SimplePredicate field="double(CPU_Model)" operator="lessOrEqual" value="29.50166416168213"/>
												<Node score="28.1">
													<SimplePredicate field="double(Achieved_Load_Pct)" operator="lessOrEqual" value="65.25"/>
												</Node>
											</Node>
											<Node score="37.7">
												<SimplePredicate field="double(CPU_Model)" operator="lessOrEqual" value="32.98095703125"/>
												<Node score="34.7">
													<SimplePredicate field="double(CPU_Model)" operator="lessOrEqual" value="31.354307174682617"/>
												</Node>
												<Node score="35.8">
													<SimplePredicate field="double(Achieved_Load_Pct)" operator="lessOrEqual" value="65.10000038146973"/>
												</Node>
												<Node score="36.0">
													<SimplePredicate field="double(Num_Cores)" operator="lessOrEqual" value="6.0"/>
													<Node score="36.8">
														<SimplePredicate field="double(CPU_Model)" operator="lessOrEqual" value="32.7581901550293"/>
													</Node>
												</Node>
											</Node>
										</Node>
										<Node score="54.1">
											<SimplePredicate field="double(RAM_Capacity_GB)" operator="lessOrEqual" value="12.0"/>
											<Node score="39.5">
												<SimplePredicate field="double(Achieved_Load_Pct)" operator="lessOrEqual" value="80.25"/>
												<Node score="44.0">
													<SimplePredicate field="double(Achieved_Load_Pct)" operator="lessOrEqual" value="75.25"/>
													<Node score="47.7">
														<SimplePredicate field="double(CPU_Freq_MHz)" operator="lessOrEqual" value="2950.0"/>
													</Node>
												</Node>
											</Node>
										</Node>
										<Node score="37.1">
											<SimplePredicate field="double(Achieved_Load_Pct)" operator="lessOrEqual" value="79.9000015258789"/>
											<Node score="39.2">
												<SimplePredicate field="double(CPU_Freq_MHz)" operator="lessOrEqual" value="2800.0"/>
												<Node score="44.0">
													<SimplePredicate field="double(Achieved_Load_Pct)" operator="lessOrEqual" value="75.05000305175781"/>
												</Node>
											</Node>
											<Node score="34.8">
												<SimplePredicate field="double(Total_Threads)" operator="lessOrEqual" value="10.0"/>
												<Node score="37.3">
													<SimplePredicate field="double(CPU_Model)" operator="lessOrEqual" value="27.66217613220215"/>
												</Node>
												<Node score="35.2">
													<SimplePredicate field="double(CPU_Freq_MHz)" operator="lessOrEqual" value="3200.0"/>
												</Node>
												<Node score="34.6">
													<SimplePredicate field="double(CPU_Model)" operator="lessOrEqual" value="28.534504890441895"/>
												</Node>
											</Node>
											<Node score="40.1">
												<SimplePredicate field="double(Achieved_Load_Pct)" operator="lessOrEqual" value="70.70000076293945"/>
												<Node score="39.0">
													<SimplePredicate field="double(Num_Cores)" operator="lessOrEqual" value="7.0"/>
												</Node>
											</Node>
										</Node>
										<Node score="40.4">
											<SimplePredicate field="double(CPU_Freq_MHz)" operator="lessOrEqual" value="3050.0"/>
											<Node score="35.8">
												<SimplePredicate field="double(CPU_Model)" operator="lessOrEqual" value="28.40431785583496"/>
											</Node>
											<Node score="39.0">
												<SimplePredicate field="double(CPU_Model)" operator="lessOrEqual" value="29.436732292175293"/>
											</Node>
										</Node>
										<Node score="44.7">
											<SimplePredicate field="double(Achieved_Load_Pct)" operator="lessOrEqual" value="80.14999771118164"/>
											<Node score="42.5">
												<SimplePredicate field="double(CPU_Model)" operator="lessOrEqual" value="31.62071132659912"/>
												<Node score="44.5">
													<SimplePredicate field="double(CPU_Model)" operator="lessOrEqual" value="29.089759826660156"/>
												</Node>
											</Node>
										</Node>
										<Node score="43.7">
											<SimplePredicate field="double(CPU_Model)" operator="lessOrEqual" value="26.821025848388672"/>
										</Node>
										<Node score="41.0">
											<SimplePredicate field="double(CPU_Freq_MHz)" operator="lessOrEqual" value="3600.0"/>
										</Node>
									</Node>
									<Node score="40.8">
										<SimplePredicate field="double(Achieved_Load_Pct)" operator="lessOrEqual" value="70.14999771118164"/>
										<Node score="42.6">
											<SimplePredicate field="double(Achieved_Load_Pct)" operator="lessOrEqual" value="70.04999923706055"/>
											<Node score="45.2">
												<SimplePredicate field="double(Achieved_Load_Pct)" operator="lessOrEqual" value="64.9000015258789"/>
											</Node>
											<Node score="43.8">
												<SimplePredicate field="double(Achieved_Load_Pct)" operator="lessOrEqual" value="69.95000076293945"/>
												<Node score="42.8">
													<SimplePredicate field="double(CPU_Freq_MHz)" operator="lessOrEqual" value="2850.0"/>
												</Node>
												<Node score="43.7">
													<SimplePredicate field="double(Achieved_Load_Pct)" operator="lessOrEqual" value="69.6500015258789"/>
												</Node>
											</Node>
										</Node>
									</Node>
									<Node score="51.3">
										<SimplePredicate field="double(CPU_Model)" operator="lessOrEqual" value="34.635976791381836"/>
										<Node score="50.6">
											<SimplePredicate field="double(RAM_Capacity_GB)" operator="lessOrEqual" value="12.0"/>
										</Node>
									</Node>
									<Node score="41.1">
										<SimplePredicate field="double(CPU_Model)" operator="lessOrEqual" value="34.74177169799805"/>
									</Node>
									<Node score="46.7">
										<SimplePredicate field="double(CPU_Model)" operator="lessOrEqual" value="36.27645301818848"/>
										<Node score="49.3">
											<SimplePredicate field="double(Achieved_Load_Pct)" operator="lessOrEqual" value="79.6500015258789"/>
											<Node score="53.0">
												<SimplePredicate field="double(RAM_Capacity_GB)" operator="lessOrEqual" value="12.0"/>
											</Node>
										</Node>
										<Node score="46.9">
											<SimplePredicate field="double(Achieved_Load_Pct)" operator="lessOrEqual" value="79.95000076293945"/>
											<Node score="45.0">
												<SimplePredicate field="double(CPU_Freq_MHz)" operator="lessOrEqual" value="2450.0"/>
											</Node>
											<Node score="47.6">
												<SimplePredicate field="double(Achieved_Load_Pct)" operator="lessOrEqual" value="79.85000228881836"/>
											</Node>
										</Node>
										<Node score="53.5">
											<SimplePredicate field="double(CPU_Model)" operator="lessOrEqual" value="35.36435890197754"/>
										</Node>
										<Node score="49.1">
											<SimplePredicate field="double(Num_Cores)" operator="lessOrEqual" value="5.0"/>
										</Node>
									</Node>
								</Node>
								<Node score="47.1">
									<SimplePredicate field="double(CPU_Model)" operator="lessOrEqual" value="31.605127334594727"/>
									<Node score="44.7">
										<SimplePredicate field="double(CPU_Freq_MHz)" operator="lessOrEqual" value="3050.0"/>
										<Node score="43.9">
											<SimplePredicate field="double(Achieved_Load_Pct)" operator="lessOrEqual" value="94.9000015258789"/>
											<Node score="42.6">
												<SimplePredicate field="double(RAM_Capacity_GB)" operator="lessOrEqual" value="12.0"/>
											</Node>
											<Node score="44.6">
												<SimplePredicate field="double(CPU_Model)" operator="lessOrEqual" value="27.21668815612793"/>
											</Node>
											<Node score="43.6">
												<SimplePredicate field="double(CPU_Model)" operator="lessOrEqual" value="28.41037082672119"/>
											</Node>
										</Node>
										<Node score="47.7">
											<SimplePredicate field="double(Achieved_Load_Pct)" operator="lessOrEqual" value="100.14999771118164"/>
											<Node score="45.1">
												<SimplePredicate field="double(RAM_Capacity_GB)" operator="lessOrEqual" value="12.0"/>
											</Node>
											<Node score="47.2">
												<SimplePredicate field="double(CPU_Freq_MHz)" operator="lessOrEqual" value="2500.0"/>
											</Node>
											<Node score="47.9">
												<SimplePredicate field="double(CPU_Model)" operator="lessOrEqual" value="27.438413619995117"/>
											</Node>
										</Node>
									</Node>
									<Node score="51.5">
										<SimplePredicate field="double(Achieved_Load_Pct)" operator="lessOrEqual" value="89.64999771118164"/>
									</Node>
									<Node score="50.7">
										<SimplePredicate field="double(CPU_Freq_MHz)" operator="lessOrEqual" value="3350.0"/>
									</Node>
									<Node score="48.1">
										<SimplePredicate field="double(Achieved_Load_Pct)" operator="lessOrEqual" value="89.79999923706055"/>
									</Node>
									<Node score="47.9">
										<SimplePredicate field="double(CPU_Model)" operator="lessOrEqual" value="26.98981475830078"/>
									</Node>
								</Node>
								<Node score="55.5">
									<SimplePredicate field="double(Achieved_Load_Pct)" operator="lessOrEqual" value="99.85000228881836"/>
									<Node score="50.2">
										<SimplePredicate field="double(Achieved_Load_Pct)" operator="lessOrEqual" value="90.25"/>
										<Node score="46.6">
											<SimplePredicate field="double(CPU_Model)" operator="lessOrEqual" value="33.24331855773926"/>
										</Node>
										<Node score="48.7">
											<SimplePredicate field="double(Achieved_Load_Pct)" operator="lessOrEqual" value="89.64999771118164"/>
										</Node>
										<Node score="53.5">
											<SimplePredicate field="double(Achieved_Load_Pct)" operator="lessOrEqual" value="90.0"/>
											<Node score="53.8">
												<SimplePredicate field="double(CPU_Freq_MHz)" operator="lessOrEqual" value="2450.0"/>
												<Node score="54.6">
													<SimplePredicate field="double(CPU_Model)" operator="lessOrEqual" value="36.27645301818848"/>
												</Node>
											</Node>
											<Node score="53.4">
												<SimplePredicate field="double(CPU_Model)" operator="lessOrEqual" value="35.08698081970215"/>
											</Node>
										</Node>
										<Node score="50.7">
											<SimplePredicate field="double(Achieved_Load_Pct)" operator="lessOrEqual" value="90.14999771118164"/>
										</Node>
									</Node>
									<Node score="50.6">
										<SimplePredicate field="double(CPU_Model)" operator="lessOrEqual" value="32.38837242126465"/>
									</Node>
									<Node score="56.9">
										<SimplePredicate field="double(Achieved_Load_Pct)" operator="lessOrEqual" value="91.10000228881836"/>
									</Node>
									<Node score="56.1">
										<SimplePredicate field="double(CPU_Model)" operator="lessOrEqual" value="32.81368637084961"/>
									</Node>
									<Node score="55.3">
										<SimplePredicate field="double(CPU_Model)" operator="lessOrEqual" value="33.90268135070801"/>
									</Node>
									<Node score="56.2">
										<SimplePredicate field="double(CPU_Model)" operator="lessOrEqual" value="35.110727310180664"/>
									</Node>
								</Node>
								<Node score="70.5">
									<SimplePredicate field="double(Achieved_Load_Pct)" operator="lessOrEqual" value="100.14999771118164"/>
									<Node score="59.4">
										<SimplePredicate field="double(CPU_Model)" operator="lessOrEqual" value="35.57466125488281"/>
										<Node score="69.8">
											<SimplePredicate field="double(CPU_Model)" operator="lessOrEqual" value="34.131649017333984"/>
											<Node score="59.5">
												<SimplePredicate field="double(Achieved_Load_Pct)" operator="lessOrEqual" value="100.04999923706055"/>
												<Node score="63.9">
													<SimplePredicate field="double(CPU_Model)" operator="lessOrEqual" value="32.32656478881836"/>
												</Node>
											</Node>
										</Node>
										<Node score="61.9">
											<SimplePredicate field="double(Achieved_Load_Pct)" operator="lessOrEqual" value="99.95000076293945"/>
											<Node score="62.5">
												<SimplePredicate field="double(CPU_Model)" operator="lessOrEqual" value="34.91226005554199"/>
											</Node>
										</Node>
										<Node score="60.0">
											<SimplePredicate field="double(CPU_Freq_MHz)" operator="lessOrEqual" value="2950.0"/>
										</Node>
									</Node>
								</Node>
								<Node score="54.0">
									<SimplePredicate field="double(Achieved_Load_Pct)" operator="lessOrEqual" value="100.25"/>
								</Node>
							</Node>
							<Node score="64.2">
								<SimplePredicate field="double(Achieved_Load_Pct)" operator="lessOrEqual" value="80.55000305175781"/>
								<Node score="55.9">
									<SimplePredicate field="double(CPU_Model)" operator="lessOrEqual" value="46.69309616088867"/>
									<Node score="41.6">
										<SimplePredicate field="double(CPU_Freq_MHz)" operator="lessOrEqual" value="2733.5"/>
										<Node score="47.5">
											<SimplePredicate field="double(CPU_Model)" operator="lessOrEqual" value="37.71676254272461"/>
										</Node>
										<Node score="37.8">
											<SimplePredicate field="double(CPU_Model)" operator="lessOrEqual" value="38.79019546508789"/>
										</Node>
									</Node>
									<Node score="55.9">
										<SimplePredicate field="double(Achieved_Load_Pct)" operator="lessOrEqual" value="80.04999923706055"/>
										<Node score="68.6">
											<SimplePredicate field="double(RAM_Capacity_GB)" operator="lessOrEqual" value="12.0"/>
											<Node score="55.7">
												<SimplePredicate field="double(CPU_Freq_MHz)" operator="lessOrEqual" value="3083.5"/>
												<Node score="51.8">
													<SimplePredicate field="double(Achieved_Load_Pct)" operator="lessOrEqual" value="75.1500015258789"/>
												</Node>
											</Node>
										</Node>
										<Node score="46.3">
											<SimplePredicate field="double(CPU_Model)" operator="lessOrEqual" value="38.55036735534668"/>
											<Node score="50.0">
												<SimplePredicate field="double(CPU_Model)" operator="lessOrEqual" value="37.29177474975586"/>
											</Node>
											<Node score="42.8">
												<SimplePredicate field="double(RAM_Capacity_GB)" operator="lessOrEqual" value="24.0"/>
											</Node>
										</Node>
										<Node score="48.9">
											<SimplePredicate field="double(RAM_Capacity_GB)" operator="lessOrEqual" value="24.0"/>
											<Node score="42.6">
												<SimplePredicate field="double(CPU_Model)" operator="lessOrEqual" value="39.76045036315918"/>
											</Node>
											<Node score="53.0">
												<SimplePredicate field="double(CPU_Model)" operator="lessOrEqual" value="43.53471374511719"/>
												<Node score="49.7">
													<SimplePredicate field="double(Achieved_Load_Pct)" operator="lessOrEqual" value="74.89999771118164"/>
													<Node score="51.1">
														<SimplePredicate field="double(Achieved_Load_Pct)" operator="lessOrEqual" value="70.0"/>
													</Node>
												</Node>
												<Node score="51.6">
													<SimplePredicate field="double(CPU_Model)" operator="lessOrEqual" value="40.73571968078613"/>
												</Node>
											</Node>
											<Node score="47.2">
												<SimplePredicate field="double(Achieved_Load_Pct)" operator="lessOrEqual" value="70.25"/>
											</Node>
										</Node>
									</Node>
									<Node score="67.2">
										<SimplePredicate field="double(CPU_Model)" operator="lessOrEqual" value="37.29177474975586"/>
									</Node>
									<Node score="51.0">
										<SimplePredicate field="double(Num_Cores)" operator="lessOrEqual" value="7.0"/>
										<Node score="54.2">
											<SimplePredicate field="double(Total_Threads)" operator="lessOrEqual" value="8.0"/>
										</Node>
									</Node>
									<Node score="59.8">
										<SimplePredicate field="double(CPU_Model)" operator="lessOrEqual" value="41.616004943847656"/>
									</Node>
									<Node score="56.5">
										<SimplePredicate field="double(CPU_Model)" operator="lessOrEqual" value="43.12809944152832"/>
									</Node>
								</Node>
								<Node score="62.8">
									<SimplePredicate field="double(Achieved_Load_Pct)" operator="lessOrEqual" value="74.89999771118164"/>
									<Node score="58.0">
										<SimplePredicate field="double(CPU_Model)" operator="lessOrEqual" value="53.17228889465332"/>
										<Node score="56.7">
											<SimplePredicate field="double(CPU_Model)" operator="lessOrEqual" value="50.30866241455078"/>
										</Node>
										<Node score="58.8">
											<SimplePredicate field="double(Total_Threads)" operator="lessOrEqual" value="10.0"/>
										</Node>
									</Node>
									<Node score="59.8">
										<SimplePredicate field="double(Achieved_Load_Pct)" operator="lessOrEqual" value="64.89999961853027"/>
									</Node>
									<Node score="62.5">
										<SimplePredicate field="double(Achieved_Load_Pct)" operator="lessOrEqual" value="69.79999923706055"/>
									</Node>
								</Node>
								<Node score="67.4">
									<SimplePredicate field="double(CPU_Model)" operator="lessOrEqual" value="48.51377296447754"/>
								</Node>
								<Node score="62.0">
									<SimplePredicate field="double(CPU_Model)" operator="lessOrEqual" value="49.46036720275879"/>
								</Node>
								<Node score="65.3">
									<SimplePredicate field="double(CPU_Freq_MHz)" operator="lessOrEqual" value="2450.0"/>
								</Node>
								<Node score="63.5">
									<SimplePredicate field="double(CPU_Model)" operator="lessOrEqual" value="50.644601821899414"/>
								</Node>
							</Node>
							<Node score="70.3">
								<SimplePredicate field="double(Achieved_Load_Pct)" operator="lessOrEqual" value="99.54999923706055"/>
								<Node score="68.8">
									<SimplePredicate field="double(CPU_Model)" operator="lessOrEqual" value="43.714420318603516"/>
									<Node score="66.4">
										<SimplePredicate field="double(RAM_Capacity_GB)" operator="lessOrEqual" value="24.0"/>
										<Node score="49.8">
											<SimplePredicate field="double(Achieved_Load_Pct)" operator="lessOrEqual" value="89.64999771118164"/>
										</Node>
										<Node score="58.0">
											<SimplePredicate field="double(CPU_Freq_MHz)" operator="lessOrEqual" value="2733.5"/>
											<Node score="50.2">
												<SimplePredicate field="double(Achieved_Load_Pct)" operator="lessOrEqual" value="94.5"/>
											</Node>
										</Node>
										<Node score="60.9">
											<SimplePredicate field="double(RAM_Capacity_GB)" operator="lessOrEqual" value="6.0"/>
											<Node score="57.4">
												<SimplePredicate field="double(Achieved_Load_Pct)" operator="lessOrEqual" value="94.6500015258789"/>
												<Node score="57.9">
													<SimplePredicate field="double(CPU_Model)" operator="lessOrEqual" value="41.77335739135742"/>
												</Node>
											</Node>
										</Node>
										<Node score="57.4">
											<SimplePredicate field="double(CPU_Model)" operator="lessOrEqual" value="40.721662521362305"/>
											<Node score="60.8">
												<SimplePredicate field="double(Total_Threads)" operator="lessOrEqual" value="14.0"/>
												<Node score="62.1">
													<SimplePredicate field="double(CPU_Model)" operator="lessOrEqual" value="37.29177474975586"/>
												</Node>
												<Node score="60.6">
													<SimplePredicate field="double(CPU_Model)" operator="lessOrEqual" value="38.55036735534668"/>
												</Node>
												<Node score="61.4">
													<SimplePredicate field="double(CPU_Model)" operator="lessOrEqual" value="39.74639320373535"/>
												</Node>
											</Node>
										</Node>
										<Node score="62.3">
											<SimplePredicate field="double(Achieved_Load_Pct)" operator="lessOrEqual" value="89.85000228881836"/>
										</Node>
									</Node>
									<Node score="81.0">
										<SimplePredicate field="double(CPU_Model)" operator="lessOrEqual" value="37.58780097961426"/>
									</Node>
								</Node>
								<Node score="85.6">
									<SimplePredicate field="double(Achieved_Load_Pct)" operator="lessOrEqual" value="89.54999923706055"/>
									<Node score="80.0">
										<SimplePredicate field="double(Achieved_Load_Pct)" operator="lessOrEqual" value="85.1500015258789"/>
									</Node>
								</Node>
								<Node score="67.0">
									<SimplePredicate field="double(Achieved_Load_Pct)" operator="lessOrEqual" value="90.35000228881836"/>
									<Node score="69.3">
										<SimplePredicate field="double(CPU_Model)" operator="lessOrEqual" value="48.51377296447754"/>
										<Node score="66.7">
											<SimplePredicate field="double(CPU_Model)" operator="lessOrEqual" value="44.74227333068848"/>
										</Node>
										<Node score="70.1">
											<SimplePredicate field="double(Achieved_Load_Pct)" operator="lessOrEqual" value="90.05000305175781"/>
										</Node>
									</Node>
									<Node score="67.7">
										<SimplePredicate field="double(CPU_Freq_MHz)" operator="lessOrEqual" value="2450.0"/>
									</Node>
								</Node>
								<Node score="72.7">
									<SimplePredicate field="double(CPU_Model)" operator="lessOrEqual" value="52.185272216796875"/>
									<Node score="73.7">
										<SimplePredicate field="double(Achieved_Load_Pct)" operator="lessOrEqual" value="94.95000076293945"/>
									</Node>
								</Node>
								<Node score="68.1">
									<SimplePredicate field="double(Achieved_Load_Pct)" operator="lessOrEqual" value="94.79999923706055"/>
								</Node>
							</Node>
							<Node score="80.4">
								<SimplePredicate field="double(RAM_Capacity_GB)" operator="lessOrEqual" value="24.0"/>
								<Node score="73.9">
									<SimplePredicate field="double(CPU_Model)" operator="lessOrEqual" value="40.145912170410156"/>
									<Node score="61.8">
										<SimplePredicate field="double(Achieved_Load_Pct)" operator="lessOrEqual" value="100.20000076293945"/>
										<Node score="63.2">
											<SimplePredicate field="double(RAM_Capacity_GB)" operator="lessOrEqual" value="12.0"/>
										</Node>
									</Node>
								</Node>
								<Node score="72.9">
									<SimplePredicate field="double(Total_Threads)" operator="lessOrEqual" value="14.0"/>
								</Node>
								<Node score="75.7">
									<SimplePredicate field="double(Achieved_Load_Pct)" operator="lessOrEqual" value="100.04999923706055"/>
									<Node score="78.0">
										<SimplePredicate field="double(CPU_Model)" operator="lessOrEqual" value="45.355390548706055"/>
										<Node score="77.2">
											<SimplePredicate field="double(CPU_Model)" operator="lessOrEqual" value="41.616004943847656"/>
										</Node>
									</Node>
								</Node>
								<Node score="82.8">
									<SimplePredicate field="double(CPU_Model)" operator="lessOrEqual" value="45.078922271728516"/>
								</Node>
							</Node>
							<Node score="87.2">
								<SimplePredicate field="double(Achieved_Load_Pct)" operator="lessOrEqual" value="99.75"/>
							</Node>
						</Node>
						<Node score="88.94999999999999">
							<SimplePredicate field="double(Achieved_Load_Pct)" operator="lessOrEqual" value="79.95000076293945"/>
							<Node score="77.0">
								<SimplePredicate field="double(Total_Threads)" operator="lessOrEqual" value="7.0"/>
								<Node score="65.2">
									<SimplePredicate field="double(CPU_Freq_MHz)" operator="lessOrEqual" value="2100.0"/>
								</Node>
								<Node score="68.0">
									<SimplePredicate field="double(Achieved_Load_Pct)" operator="lessOrEqual" value="65.35000038146973"/>
								</Node>
							</Node>
							<Node score="65.1">
								<SimplePredicate field="double(Achieved_Load_Pct)" operator="lessOrEqual" value="75.0999984741211"/>
								<Node score="73.8">
									<SimplePredicate field="double(CPU_Freq_MHz)" operator="lessOrEqual" value="3550.0"/>
									<Node score="85.9">
										<SimplePredicate field="double(Achieved_Load_Pct)" operator="lessOrEqual" value="69.79999923706055"/>
										<Node score="76.2">
											<SimplePredicate field="double(Achieved_Load_Pct)" operator="lessOrEqual" value="65.04999923706055"/>
										</Node>
									</Node>
									<Node score="75.6">
										<SimplePredicate field="double(Achieved_Load_Pct)" operator="lessOrEqual" value="70.25"/>
									</Node>
								</Node>
							</Node>
						</Node>
						<Node score="70.2">
							<SimplePredicate field="double(CPU_Freq_MHz)" operator="lessOrEqual" value="2100.0"/>
						</Node>
						<Node score="83.4">
							<SimplePredicate field="double(Achieved_Load_Pct)" operator="lessOrEqual" value="84.75"/>
							<Node score="86.6">
								<SimplePredicate field="double(CPU_Freq_MHz)" operator="lessOrEqual" value="3500.0"/>
								<Node score="86.2">
									<SimplePredicate field="double(CPU_Model)" operator="lessOrEqual" value="65.48481750488281"/>
									<Node score="86.1">
										<SimplePredicate field="double(Total_Threads)" operator="lessOrEqual" value="6.0"/>
									</Node>
								</Node>
							</Node>
						</Node>
						<Node score="102.0">
							<SimplePredicate field="double(CPU_Freq_MHz)" operator="lessOrEqual" value="3550.0"/>
							<Node score="91.4">
								<SimplePredicate field="double(CPU_Model)" operator="lessOrEqual" value="61.94630813598633"/>
								<Node score="106.0">
									<SimplePredicate field="double(Achieved_Load_Pct)" operator="lessOrEqual" value="90.20000076293945"/>
									<Node score="97.0">
										<SimplePredicate field="double(Achieved_Load_Pct)" operator="lessOrEqual" value="90.04999923706055"/>
										<Node score="93.6">
											<SimplePredicate field="double(Total_Threads)" operator="lessOrEqual" value="6.0"/>
										</Node>
									</Node>
								</Node>
								<Node score="96.5">
									<SimplePredicate field="double(CPU_Model)" operator="lessOrEqual" value="56.49009704589844"/>
								</Node>
								<Node score="92.8">
									<SimplePredicate field="double(CPU_Model)" operator="lessOrEqual" value="58.15370559692383"/>
								</Node>
							</Node>
							<Node score="100.0">
								<SimplePredicate field="double(CPU_Model)" operator="lessOrEqual" value="63.103660583496094"/>
							</Node>
						</Node>
						<Node score="85.2">
							<SimplePredicate field="double(Achieved_Load_Pct)" operator="lessOrEqual" value="99.70000076293945"/>
							<Node score="89.5">
								<SimplePredicate field="double(Achieved_Load_Pct)" operator="lessOrEqual" value="89.9000015258789"/>
							</Node>
							<Node score="80.8">
								<SimplePredicate field="double(Achieved_Load_Pct)" operator="lessOrEqual" value="94.9000015258789"/>
							</Node>
						</Node>
					</Node>
					<Node score="112.0">
						<SimplePredicate field="double(Achieved_Load_Pct)" operator="lessOrEqual" value="59.64999961853027"/>
						<Node score="61.9">
							<SimplePredicate field="double(CPU_Model)" operator="lessOrEqual" value="84.70360946655273"/>
							<Node score="58.4">
								<SimplePredicate field="double(Achieved_Load_Pct)" operator="lessOrEqual" value="20.199999809265137"/>
								<Node score="57.2">
									<SimplePredicate field="double(Total_Threads)" operator="lessOrEqual" value="6.0"/>
									<Node score="59.5">
										<SimplePredicate field="double(CPU_Model)" operator="lessOrEqual" value="81.72099685668945"/>
										<Node score="51.8">
											<SimplePredicate field="double(Achieved_Load_Pct)" operator="lessOrEqual" value="4.849999904632568"/>
											<Node score="46.2">
												<SimplePredicate field="double(CPU_Model)" operator="lessOrEqual" value="80.36093139648438"/>
												<Node score="49.6">
													<SimplePredicate field="double(CPU_Model)" operator="lessOrEqual" value="77.62694931030273"/>
													<Node score="47.7">
														<SimplePredicate field="double(CPU_Model)" operator="lessOrEqual" value="74.744140625"/>
													</Node>
												</Node>
											</Node>
										</Node>
										<Node score="58.3">
											<SimplePredicate field="double(Achieved_Load_Pct)" operator="lessOrEqual" value="15.050000190734863"/>
											<Node score="53.5">
												<SimplePredicate field="double(CPU_Model)" operator="lessOrEqual" value="76.81892013549805"/>
												<Node score="53.3">
													<SimplePredicate field="double(CPU_Model)" operator="lessOrEqual" value="72.62300109863281"/>
												</Node>
											</Node>
										</Node>
									</Node>
									<Node score="63.8">
										<SimplePredicate field="double(RAM_Capacity_GB)" operator="lessOrEqual" value="6.0"/>
										<Node score="69.2">
											<SimplePredicate field="double(CPU_Model)" operator="lessOrEqual" value="82.68698501586914"/>
										</Node>
										<Node score="58.3">
											<SimplePredicate field="double(Achieved_Load_Pct)" operator="lessOrEqual" value="15.050000190734863"/>
											<Node score="59.333333333333336">
												<SimplePredicate field="double(Achieved_Load_Pct)" operator="lessOrEqual" value="5.050000190734863"/>
											</Node>
										</Node>
										<Node score="63.7">
											<SimplePredicate field="double(Achieved_Load_Pct)" operator="lessOrEqual" value="20.050000190734863"/>
										</Node>
									</Node>
								</Node>
								<Node score="51.5">
									<SimplePredicate field="double(Achieved_Load_Pct)" operator="lessOrEqual" value="4.900000095367432"/>
									<Node score="29.65">
										<SimplePredicate field="double(RAM_Capacity_GB)" operator="lessOrEqual" value="6.0"/>
										<Node score="29.1">
											<SimplePredicate field="double(CPU_Model)" operator="lessOrEqual" value="78.48511505126953"/>
										</Node>
									</Node>
									<Node score="38.5">
										<SimplePredicate field="double(CPU_Freq_MHz)" operator="lessOrEqual" value="3000.0"/>
										<Node score="45.4">
											<SimplePredicate field="double(CPU_Model)" operator="lessOrEqual" value="76.88191604614258"/>
										</Node>
										<Node score="40.2">
											<SimplePredicate field="double(CPU_Model)" operator="lessOrEqual" value="80.2257080078125"/>
											<Node score="41.3">
												<SimplePredicate field="double(CPU_Model)" operator="lessOrEqual" value="78.51456451416016"/>
											</Node>
											<Node score="39.6">
												<SimplePredicate field="double(CPU_Model)" operator="lessOrEqual" value="79.26123428344727"/>
											</Node>
										</Node>
									</Node>
								</Node>
								<Node score="44.1">
									<SimplePredicate field="double(RAM_Capacity_GB)" operator="lessOrEqual" value="6.0"/>
									<Node score="42.8">
										<SimplePredicate field="double(CPU_Freq_MHz)" operator="lessOrEqual" value="3000.0"/>
										<Node score="36.5">
											<SimplePredicate field="double(CPU_Model)" operator="lessOrEqual" value="79.22652816772461"/>
										</Node>
									</Node>
									<Node score="43.7">
										<SimplePredicate field="double(CPU_Model)" operator="lessOrEqual" value="77.50753402709961"/>
									</Node>
									<Node score="51.4">
										<SimplePredicate field="double(CPU_Model)" operator="lessOrEqual" value="81.40407180786133"/>
									</Node>
								</Node>
								<Node score="46.7">
									<SimplePredicate field="double(Achieved_Load_Pct)" operator="lessOrEqual" value="19.800000190734863"/>
									<Node score="62.0">
										<SimplePredicate field="double(CPU_Model)" operator="lessOrEqual" value="78.53616333007812"/>
										<Node score="52.0">
											<SimplePredicate field="double(CPU_Model)" operator="lessOrEqual" value="77.50753402709961"/>
											<Node score="55.3">
												<SimplePredicate field="double(CPU_Model)" operator="lessOrEqual" value="75.70507431030273"/>
											</Node>
											<Node score="49.7">
												<SimplePredicate field="double(CPU_Model)" operator="lessOrEqual" value="76.3090934753418"/>
												<Node score="48.6">
													<SimplePredicate field="double(Achieved_Load_Pct)" operator="lessOrEqual" value="14.750000476837158"/>
												</Node>
											</Node>
										</Node>
									</Node>
									<Node score="46.8">
										<SimplePredicate field="double(Achieved_Load_Pct)" operator="lessOrEqual" value="10.050000190734863"/>
										<Node score="48.9">
											<SimplePredicate field="double(Achieved_Load_Pct)" operator="lessOrEqual" value="9.949999809265137"/>
											<Node score="46.7">
												<SimplePredicate field="double(Achieved_Load_Pct)" operator="lessOrEqual" value="9.849999904632568"/>
											</Node>
										</Node>
									</Node>
									<Node score="52.4">
										<SimplePredicate field="double(CPU_Model)" operator="lessOrEqual" value="82.38165283203125"/>
										<Node score="48.9">
											<SimplePredicate field="double(CPU_Model)" operator="lessOrEqual" value="79.51374435424805"/>
										</Node>
									</Node>
								</Node>
								<Node score="68.4">
									<SimplePredicate field="double(CPU_Model)" operator="lessOrEqual" value="78.04968643188477"/>
								</Node>
								<Node score="52.8">
									<SimplePredicate field="double(Achieved_Load_Pct)" operator="lessOrEqual" value="20.050000190734863"/>
									<Node score="51.1">
										<SimplePredicate field="double(CPU_Model)" operator="lessOrEqual" value="80.2257080078125"/>
									</Node>
									<Node score="53.1">
										<SimplePredicate field="double(CPU_Model)" operator="lessOrEqual" value="82.38165283203125"/>
									</Node>
								</Node>
							</Node>
							<Node score="62.9">
								<SimplePredicate field="double(Achieved_Load_Pct)" operator="lessOrEqual" value="45.10000038146973"/>
								<Node score="80.5">
									<SimplePredicate field="double(CPU_Freq_MHz)" operator="lessOrEqual" value="2883.0"/>
									<Node score="70.9">
										<SimplePredicate field="double(CPU_Model)" operator="lessOrEqual" value="80.36093139648438"/>
										<Node score="74.5">
											<SimplePredicate field="double(Achieved_Load_Pct)" operator="lessOrEqual" value="29.84999942779541"/>
											<Node score="78.8">
												<SimplePredicate field="double(CPU_Model)" operator="lessOrEqual" value="78.5577507019043"/>
											</Node>
										</Node>
										<Node score="62.0">
											<SimplePredicate field="double(Achieved_Load_Pct)" operator="lessOrEqual" value="30.199999809265137"/>
											<Node score="63.6">
												<SimplePredicate field="double(RAM_Capacity_GB)" operator="lessOrEqual" value="6.0"/>
												<Node score="64.9">
													<SimplePredicate field="double(Achieved_Load_Pct)" operator="lessOrEqual" value="30.0"/>
												</Node>
											</Node>
										</Node>
										<Node score="68.7">
											<SimplePredicate field="double(Achieved_Load_Pct)" operator="lessOrEqual" value="35.0"/>
										</Node>
										<Node score="73.2">
											<SimplePredicate field="double(Achieved_Load_Pct)" operator="lessOrEqual" value="39.85000038146973"/>
										</Node>
										<Node score="68.5">
											<SimplePredicate field="double(Achieved_Load_Pct)" operator="lessOrEqual" value="40.20000076293945"/>
										</Node>
									</Node>
									<Node score="83.9">
										<SimplePredicate field="double(RAM_Capacity_GB)" operator="lessOrEqual" value="6.0"/>
										<Node score="68.7">
											<SimplePredicate field="double(Achieved_Load_Pct)" operator="lessOrEqual" value="30.300000190734863"/>
										</Node>
										<Node score="79.1">
											<SimplePredicate field="double(Achieved_Load_Pct)" operator="lessOrEqual" value="35.09999942779541"/>
										</Node>
										<Node score="83.8">
											<SimplePredicate field="double(Achieved_Load_Pct)" operator="lessOrEqual" value="40.0"/>
										</Node>
									</Node>
									<Node score="66.4">
										<SimplePredicate field="double(CPU_Model)" operator="lessOrEqual" value="82.98051834106445"/>
									</Node>
								</Node>
								<Node score="49.7">
									<SimplePredicate field="double(RAM_Capacity_GB)" operator="lessOrEqual" value="6.0"/>
									<Node score="63.6">
										<SimplePredicate field="double(CPU_Model)" operator="lessOrEqual" value="77.48593521118164"/>
									</Node>
									<Node score="57.4">
										<SimplePredicate field="double(Achieved_Load_Pct)" operator="lessOrEqual" value="29.850000381469727"/>
									</Node>
									<Node score="53.2">
										<SimplePredicate field="double(CPU_Model)" operator="lessOrEqual" value="82.38165283203125"/>
										<Node score="58.1">
											<SimplePredicate field="double(Achieved_Load_Pct)" operator="lessOrEqual" value="35.15000057220459"/>
										</Node>
									</Node>
								</Node>
								<Node score="64.1">
									<SimplePredicate field="double(Achieved_Load_Pct)" operator="lessOrEqual" value="35.250000953674316"/>
									<Node score="71.7">
										<SimplePredicate field="double(Achieved_Load_Pct)" operator="lessOrEqual" value="29.75"/>
									</Node>
									<Node score="60.4">
										<SimplePredicate field="double(CPU_Freq_MHz)" operator="lessOrEqual" value="3000.0"/>
										<Node score="63.4">
											<SimplePredicate field="double(CPU_Model)" operator="lessOrEqual" value="76.88191604614258"/>
										</Node>
										<Node score="60.0">
											<SimplePredicate field="double(Achieved_Load_Pct)" operator="lessOrEqual" value="29.949999809265137"/>
										</Node>
										<Node score="60.6">
											<SimplePredicate field="double(Achieved_Load_Pct)" operator="lessOrEqual" value="30.300000190734863"/>
										</Node>
									</Node>
								</Node>
								<Node score="78.4">
									<SimplePredicate field="double(Achieved_Load_Pct)" operator="lessOrEqual" value="40.25"/>
									<Node score="68.6">
										<SimplePredicate field="double(CPU_Freq_MHz)" operator="lessOrEqual" value="3000.0"/>
										<Node score="65.4">
											<SimplePredicate field="double(Achieved_Load_Pct)" operator="lessOrEqual" value="40.04999923706055"/>
											<Node score="70.3">
												<SimplePredicate field="double(CPU_Model)" operator="lessOrEqual" value="78.51456451416016"/>
												<Node score="66.8">
													<SimplePredicate field="double(Achieved_Load_Pct)" operator="lessOrEqual" value="39.95000076293945"/>
												</Node>
											</Node>
											<Node score="64.6">
												<SimplePredicate field="double(Achieved_Load_Pct)" operator="lessOrEqual" value="39.95000076293945"/>
											</Node>
										</Node>
										<Node score="71.9">
											<SimplePredicate field="double(Achieved_Load_Pct)" operator="lessOrEqual" value="40.14999961853027"/>
										</Node>
									</Node>
								</Node>
								<Node score="67.2">
									<SimplePredicate field="double(CPU_Model)" operator="lessOrEqual" value="81.38247299194336"/>
								</Node>
							</Node>
							<Node score="58.7">
								<SimplePredicate field="double(Achieved_Load_Pct)" operator="lessOrEqual" value="50.25"/>
								<Node score="70.3">
									<SimplePredicate field="double(Achieved_Load_Pct)" operator="lessOrEqual" value="50.14999961853027"/>
									<Node score="80.3">
										<SimplePredicate field="double(Achieved_Load_Pct)" operator="lessOrEqual" value="49.95000076293945"/>
										<Node score="71.6">
											<SimplePredicate field="double(Achieved_Load_Pct)" operator="lessOrEqual" value="49.85000038146973"/>
											<Node score="77.1">
												<SimplePredicate field="double(CPU_Model)" operator="lessOrEqual" value="80.2257080078125"/>
												<Node score="76.5">
													<SimplePredicate field="double(CPU_Model)" operator="lessOrEqual" value="79.26123428344727"/>
													<Node score="73.4">
														<SimplePredicate field="double(CPU_Freq_MHz)" operator="lessOrEqual" value="3000.0"/>
														<Node score="74.5">
															<SimplePredicate field="double(Achieved_Load_Pct)" operator="lessOrEqual" value="49.75"/>
															<Node score="76.5">
																<SimplePredicate field="double(CPU_Model)" operator="lessOrEqual" value="76.91662216186523"/>
															</Node>
														</Node>
													</Node>
												</Node>
											</Node>
										</Node>
									</Node>
									<Node score="70.7">
										<SimplePredicate field="double(CPU_Freq_MHz)" operator="lessOrEqual" value="3000.0"/>
										<Node score="78.0">
											<SimplePredicate field="double(CPU_Model)" operator="lessOrEqual" value="80.4272346496582"/>
											<Node score="74.0">
												<SimplePredicate field="double(RAM_Capacity_GB)" operator="lessOrEqual" value="6.0"/>
												<Node score="75.4">
													<SimplePredicate field="double(CPU_Model)" operator="lessOrEqual" value="74.744140625"/>
												</Node>
											</Node>
										</Node>
									</Node>
									<Node score="69.0">
										<SimplePredicate field="double(CPU_Model)" operator="lessOrEqual" value="77.50753402709961"/>
									</Node>
								</Node>
							</Node>
							<Node score="74.4">
								<SimplePredicate field="double(CPU_Model)" operator="lessOrEqual" value="83.6422233581543"/>
								<Node score="79.3">
									<SimplePredicate field="double(CPU_Model)" operator="lessOrEqual" value="77.00672912597656"/>
									<Node score="76.1">
										<SimplePredicate field="double(Achieved_Load_Pct)" operator="lessOrEqual" value="59.54999923706055"/>
									</Node>
								</Node>
								<Node score="83.7">
									<SimplePredicate field="double(RAM_Capacity_GB)" operator="lessOrEqual" value="6.0"/>
									<Node score="89.7">
										<SimplePredicate field="double(Achieved_Load_Pct)" operator="lessOrEqual" value="54.95000076293945"/>
										<Node score="89.5">
											<SimplePredicate field="double(Achieved_Load_Pct)" operator="lessOrEqual" value="50.39999961853027"/>
										</Node>
									</Node>
								</Node>
								<Node score="85.3">
									<SimplePredicate field="double(CPU_Model)" operator="lessOrEqual" value="79.51374435424805"/>
									<Node score="84.1">
										<SimplePredicate field="double(CPU_Freq_MHz)" operator="lessOrEqual" value="3000.0"/>
									</Node>
								</Node>
							</Node>
						</Node>
						<Node score="105.0">
							<SimplePredicate field="double(Achieved_Load_Pct)" operator="lessOrEqual" value="29.84999942779541"/>
							<Node score="68.7">
								<SimplePredicate field="double(Achieved_Load_Pct)" operator="lessOrEqual" value="4.849999904632568"/>
								<Node score="75.2">
									<SimplePredicate field="double(RAM_Capacity_GB)" operator="lessOrEqual" value="12.0"/>
									<Node score="75.1">
										<SimplePredicate field="double(CPU_Freq_MHz)" operator="lessOrEqual" value="2663.0"/>
										<Node score="93.7">
											<SimplePredicate field="double(CPU_Model)" operator="lessOrEqual" value="121.37117385864258"/>
											<Node score="79.8">
												<SimplePredicate field="double(CPU_Model)" operator="lessOrEqual" value="113.70320892333984"/>
												<Node score="86.0">
													<SimplePredicate field="double(Num_Cores)" operator="lessOrEqual" value="3.0"/>
												</Node>
											</Node>
											<Node score="106.0">
												<SimplePredicate field="double(CPU_Model)" operator="lessOrEqual" value="115.83857345581055"/>
											</Node>
										</Node>
										<Node score="74.6">
											<SimplePredicate field="double(CPU_Freq_MHz)" operator="lessOrEqual" value="2065.0"/>
										</Node>
									</Node>
									<Node score="69.5">
										<SimplePredicate field="double(CPU_Freq_MHz)" operator="lessOrEqual" value="2916.5"/>
										<Node score="66.8">
											<SimplePredicate field="double(CPU_Freq_MHz)" operator="lessOrEqual" value="2831.5"/>
											<Node score="65.9">
												<SimplePredicate field="double(CPU_Model)" operator="lessOrEqual" value="94.8505630493164"/>
											</Node>
											<Node score="70.0">
												<SimplePredicate field="double(CPU_Model)" operator="lessOrEqual" value="98.98614883422852"/>
											</Node>
										</Node>
										<Node score="59.06666666666666">
											<SimplePredicate field="double(RAM_Capacity_GB)" operator="lessOrEqual" value="6.0"/>
											<Node score="53.1">
												<SimplePredicate field="double(CPU_Model)" operator="lessOrEqual" value="95.66458129882812"/>
											</Node>
										</Node>
										<Node score="59.3">
											<SimplePredicate field="double(CPU_Model)" operator="lessOrEqual" value="93.76052856445312"/>
										</Node>
									</Node>
								</Node>
								<Node score="55.3">
									<SimplePredicate field="double(RAM_Capacity_GB)" operator="lessOrEqual" value="40.0"/>
									<Node score="52.9">
										<SimplePredicate field="double(RAM_Capacity_GB)" operator="lessOrEqual" value="28.0"/>
										<Node score="56.6">
											<SimplePredicate field="double(Total_Threads)" operator="lessOrEqual" value="18.0"/>
										</Node>
										<Node score="54.1">
											<SimplePredicate field="double(RAM_Capacity_GB)" operator="lessOrEqual" value="20.0"/>
											<Node score="53.4">
												<SimplePredicate field="double(CPU_Model)" operator="lessOrEqual" value="102.76859664916992"/>
											</Node>
											<Node score="54.0">
												<SimplePredicate field="double(CPU_Model)" operator="lessOrEqual" value="118.7061996459961"/>
											</Node>
										</Node>
									</Node>
									<Node score="57.5">
										<SimplePredicate field="double(CPU_Model)" operator="lessOrEqual" value="110.94953918457031"/>
										<Node score="56.8">
											<SimplePredicate field="double(Num_Cores)" operator="lessOrEqual" value="12.0"/>
										</Node>
									</Node>
								</Node>
							</Node>
							<Node score="65.8">
								<SimplePredicate field="double(CPU_Model)" operator="lessOrEqual" value="97.82192993164062"/>
								<Node score="66.0">
									<SimplePredicate field="double(Achieved_Load_Pct)" operator="lessOrEqual" value="10.299999713897705"/>
									<Node score="77.9">
										<SimplePredicate field="double(CPU_Model)" operator="lessOrEqual" value="94.74853897094727"/>
										<Node score="68.5">
											<SimplePredicate field="double(CPU_Model)" operator="lessOrEqual" value="88.89439392089844"/>
										</Node>
										<Node score="71.7">
											<SimplePredicate field="double(Achieved_Load_Pct)" operator="lessOrEqual" value="10.050000190734863"/>
											<Node score="75.5">
												<SimplePredicate field="double(Achieved_Load_Pct)" operator="lessOrEqual" value="9.849999904632568"/>
											</Node>
										</Node>
										<Node score="75.6">
											<SimplePredicate field="double(CPU_Freq_MHz)" operator="lessOrEqual" value="2316.5"/>
										</Node>
									</Node>
									<Node score="64.0">
										<SimplePredicate field="double(CPU_Model)" operator="lessOrEqual" value="96.5750732421875"/>
										<Node score="62.8">
											<SimplePredicate field="double(CPU_Model)" operator="lessOrEqual" value="95.65903091430664"/>
										</Node>
									</Node>
									<Node score="68.6">
										<SimplePredicate field="double(RAM_Capacity_GB)" operator="lessOrEqual" value="6.0"/>
									</Node>
								</Node>
								<Node score="84.0">
									<SimplePredicate field="double(Achieved_Load_Pct)" operator="lessOrEqual" value="20.300000190734863"/>
									<Node score="81.8">
										<SimplePredicate field="double(Achieved_Load_Pct)" operator="lessOrEqual" value="20.050000190734863"/>
										<Node score="76.8">
											<SimplePredicate field="double(Total_Threads)" operator="lessOrEqual" value="10.0"/>
											<Node score="75.4">
												<SimplePredicate field="double(CPU_Model)" operator="lessOrEqual" value="93.93204116821289"/>
												<Node score="78.2">
													<SimplePredicate field="double(Achieved_Load_Pct)" operator="lessOrEqual" value="15.09999942779541"/>
												</Node>
											</Node>
											<Node score="74.3">
												<SimplePredicate field="double(CPU_Model)" operator="lessOrEqual" value="95.77328872680664"/>
												<Node score="68.2">
													<SimplePredicate field="double(Achieved_Load_Pct)" operator="lessOrEqual" value="19.949999809265137"/>
												</Node>
											</Node>
										</Node>
									</Node>
									<Node score="80.7">
										<SimplePredicate field="double(CPU_Model)" operator="lessOrEqual" value="94.74853897094727"/>
									</Node>
								</Node>
							</Node>
							<Node score="93.4">
								<SimplePredicate field="double(Total_Threads)" operator="lessOrEqual" value="28.0"/>
								<Node score="97.6">
									<SimplePredicate field="double(CPU_Model)" operator="lessOrEqual" value="114.01269912719727"/>
									<Node score="72.2">
										<SimplePredicate field="double(Achieved_Load_Pct)" operator="lessOrEqual" value="19.949999809265137"/>
										<Node score="88.2">
											<SimplePredicate field="double(Achieved_Load_Pct)" operator="lessOrEqual" value="15.149999618530273"/>
											<Node score="94.2">
												<SimplePredicate field="double(Achieved_Load_Pct)" operator="lessOrEqual" value="9.849999904632568"/>
											</Node>
											<Node score="78.3">
												<SimplePredicate field="double(CPU_Model)" operator="lessOrEqual" value="103.90060424804688"/>
												<Node score="69.9">
													<SimplePredicate field="double(RAM_Capacity_GB)" operator="lessOrEqual" value="26.0"/>
												</Node>
											</Node>
											<Node score="81.8">
												<SimplePredicate field="double(Achieved_Load_Pct)" operator="lessOrEqual" value="10.050000190734863"/>
												<Node score="85.2">
													<SimplePredicate field="double(Achieved_Load_Pct)" operator="lessOrEqual" value="9.949999809265137"/>
												</Node>
											</Node>
											<Node score="89.4">
												<SimplePredicate field="double(RAM_Capacity_GB)" operator="lessOrEqual" value="10.0"/>
											</Node>
										</Node>
										<Node score="73.2">
											<SimplePredicate field="double(CPU_Model)" operator="lessOrEqual" value="99.46829605102539"/>
										</Node>
									</Node>
									<Node score="89.6">
										<SimplePredicate field="double(CPU_Model)" operator="lessOrEqual" value="102.95514297485352"/>
										<Node score="84.0">
