<?xml version="1.0" encoding="UTF-8" standalone="yes"?>
<PMML xmlns="http://www.dmg.org/PMML-4_4" xmlns:data="http://jpmml.org/jpmml-model/InlineTable" version="4.4">
	<Header>
		<Application name="SkLearn2PMML package" version="0.116.4"/>
		<Timestamp>2025-05-18T16:50:41Z</Timestamp>
	</Header>
	<MiningBuildTask>
		<Extension name="repr">PMMLPipeline(steps=[('lgbm', LGBMRegressor(random_state=13))])</Extension>
	</MiningBuildTask>
	<DataDictionary>
		<DataField name="y" optype="continuous" dataType="double"/>
		<DataField name="x1" optype="continuous" dataType="double">
			<Value value="NaN" property="missing"/>
		</DataField>
		<DataField name="x2" optype="continuous" dataType="double">
			<Value value="NaN" property="missing"/>
		</DataField>
		<DataField name="x3" optype="continuous" dataType="double">
			<Value value="NaN" property="missing"/>
		</DataField>
		<DataField name="x4" optype="continuous" dataType="double">
			<Value value="NaN" property="missing"/>
		</DataField>
		<DataField name="x5" optype="continuous" dataType="double">
			<Value value="NaN" property="missing"/>
		</DataField>
		<DataField name="x6" optype="continuous" dataType="double">
			<Value value="NaN" property="missing"/>
		</DataField>
	</DataDictionary>
	<MiningModel functionName="regression" algorithmName="LightGBM">
		<MiningSchema>
			<Extension name="X-FeatureImportances">
				<InlineTable>
					<Extension name="numberOfImportances" value="6"/>
					<Extension name="numberOfNonZeroImportances" value="6"/>
					<Extension name="sumOfImportances" value="3000.0"/>
					<Extension name="minImportance" value="204.0"/>
					<Extension name="maxImportance" value="919.0"/>
					<row>
						<data:name>x4</data:name>
						<data:importance>582.0</data:importance>
					</row>
					<row>
						<data:name>x5</data:name>
						<data:importance>204.0</data:importance>
					</row>
					<row>
						<data:name>x6</data:name>
						<data:importance>516.0</data:importance>
					</row>
					<row>
						<data:name>x1</data:name>
						<data:importance>919.0</data:importance>
					</row>
					<row>
						<data:name>x2</data:name>
						<data:importance>412.0</data:importance>
					</row>
					<row>
						<data:name>x3</data:name>
						<data:importance>367.0</data:importance>
					</row>
				</InlineTable>
			</Extension>
			<MiningField name="y" usageType="target"/>
			<MiningField name="x1" importance="919.0"/>
			<MiningField name="x2" importance="412.0"/>
			<MiningField name="x3" importance="367.0"/>
			<MiningField name="x4" importance="582.0"/>
			<MiningField name="x5" importance="204.0"/>
			<MiningField name="x6" importance="516.0"/>
		</MiningSchema>
		<Segmentation multipleModelMethod="sum" missingPredictionTreatment="returnMissing">
			<Segment id="1">
				<True/>
				<TreeModel functionName="regression" noTrueChildStrategy="returnLastPrediction">
					<MiningSchema>
						<MiningField name="x1"/>
						<MiningField name="x3"/>
						<MiningField name="x4"/>
						<MiningField name="x6"/>
					</MiningSchema>
					<Node score="192.35885485217605">
						<True/>
						<Node score="199.80456668546717">
							<SimplePredicate field="x1" operator="greaterThan" value="259.2550483038567"/>
							<Node score="245.32263928717197">
								<SimplePredicate field="x1" operator="greaterThan" value="517.0777004427317"/>
								<Node score="261.9403157080581">
									<SimplePredicate field="x4" operator="greaterThan" value="60.00000000000001"/>
									<Node score="321.52746622449274">
										<SimplePredicate field="x6" operator="greaterThan" value="49.95000000000001"/>
									</Node>
								</Node>
								<Node score="266.0893059538387">
									<SimplePredicate field="x6" operator="greaterThan" value="58.85000000000001"/>
								</Node>
							</Node>
							<Node score="224.27681380750496">
								<SimplePredicate field="x6" operator="greaterThan" value="69.95000000000002"/>
								<Node score="231.91893547397234">
									<SimplePredicate field="x4" operator="greaterThan" value="60.00000000000001"/>
									<Node score="251.7498615093942">
										<SimplePredicate field="x3" operator="greaterThan" value="2475.0000000000005"/>
										<Node score="274.7417365093942">
											<SimplePredicate field="x6" operator="greaterThan" value="89.95000000000002"/>
										</Node>
									</Node>
									<Node score="234.66771865225135">
										<SimplePredicate field="x1" operator="greaterThan" value="301.8515339282607"/>
										<Node score="261.1207231574276">
											<SimplePredicate field="x4" operator="greaterThan" value="100.00000000000001"/>
										</Node>
										<Node score="249.2241718542218">
											<SimplePredicate field="x6" operator="greaterThan" value="89.85000000000001"/>
										</Node>
									</Node>
								</Node>
							</Node>
							<Node score="210.80802664145912">
								<SimplePredicate field="x6" operator="greaterThan" value="20.250000000000004"/>
								<Node score="220.80566100966885">
									<SimplePredicate field="x4" operator="greaterThan" value="60.00000000000001"/>
									<Node score="224.21001266619538">
										<SimplePredicate field="x6" operator="greaterThan" value="49.95000000000001"/>
										<Node score="235.35538775825916">
											<SimplePredicate field="x1" operator="greaterThan" value="321.8769173410554"/>
										</Node>
									</Node>
								</Node>
							</Node>
							<Node score="204.18781531910054">
								<SimplePredicate field="x6" operator="greaterThan" value="9.850000000000003"/>
								<Node score="212.76126707564046">
									<SimplePredicate field="x4" operator="greaterThan" value="60.00000000000001"/>
								</Node>
							</Node>
						</Node>
						<Node score="197.45074812085485">
							<SimplePredicate field="x1" operator="greaterThan" value="128.8157948644707"/>
							<Node score="206.81109930716687">
								<SimplePredicate field="x6" operator="greaterThan" value="50.550000000000004"/>
								<Node score="213.47700365914312">
									<SimplePredicate field="x1" operator="greaterThan" value="185.47067850898375"/>
									<Node score="225.44865860110764">
										<SimplePredicate field="x4" operator="greaterThan" value="100.00000000000001"/>
									</Node>
									<Node score="220.28530220271654">
										<SimplePredicate field="x6" operator="greaterThan" value="89.95000000000002"/>
									</Node>
								</Node>
								<Node score="211.8156941079362">
									<SimplePredicate field="x6" operator="greaterThan" value="89.75000000000001"/>
								</Node>
							</Node>
							<Node score="200.50747141735255">
								<SimplePredicate field="x1" operator="greaterThan" value="176.013842624314"/>
								<Node score="206.45787447329502">
									<SimplePredicate field="x6" operator="greaterThan" value="10.050000000000002"/>
									<Node score="213.18136873372123">
										<SimplePredicate field="x4" operator="greaterThan" value="100.00000000000001"/>
									</Node>
								</Node>
							</Node>
							<Node score="201.75044543265616">
								<SimplePredicate field="x6" operator="greaterThan" value="20.150000000000002"/>
							</Node>
						</Node>
						<Node score="196.08263095993743">
							<SimplePredicate field="x1" operator="greaterThan" value="68.35936296914339"/>
							<Node score="200.56364403041363">
								<SimplePredicate field="x6" operator="greaterThan" value="59.75000000000001"/>
							</Node>
						</Node>
					</Node>
				</TreeModel>
			</Segment>
			<Segment id="2">
				<True/>
				<TreeModel functionName="regression" noTrueChildStrategy="returnLastPrediction">
					<MiningSchema>
						<MiningField name="x1"/>
						<MiningField name="x2"/>
						<MiningField name="x3"/>
						<MiningField name="x4"/>
						<MiningField name="x5"/>
						<MiningField name="x6"/>
					</MiningSchema>
					<Node score="-14.186314409528462">
						<True/>
						<Node score="-8.420750744670045">
							<SimplePredicate field="x1" operator="greaterThan" value="259.2550483038567"/>
							<Node score="28.333451102120534">
								<SimplePredicate field="x1" operator="greaterThan" value="517.0777004427317"/>
								<Node score="47.50142336325212">
									<SimplePredicate field="x4" operator="greaterThan" value="60.00000000000001"/>
									<Node score="101.12986211362093">
										<SimplePredicate field="x6" operator="greaterThan" value="49.95000000000001"/>
									</Node>
								</Node>
								<Node score="43.21440370141006">
									<SimplePredicate field="x6" operator="greaterThan" value="30.150000000000002"/>
									<Node score="56.504114034901505">
										<SimplePredicate field="x6" operator="greaterThan" value="80.05000000000001"/>
									</Node>
								</Node>
							</Node>
							<Node score="7.592508530427539">
								<SimplePredicate field="x6" operator="greaterThan" value="59.85"/>
								<Node score="12.60123633466116">
									<SimplePredicate field="x4" operator="greaterThan" value="60.00000000000001"/>
									<Node score="24.50540362693168">
										<SimplePredicate field="x6" operator="greaterThan" value="89.75000000000001"/>
										<Node score="56.78465341421275">
											<SimplePredicate field="x3" operator="greaterThan" value="2475.0000000000005"/>
										</Node>
										<Node score="42.47037569977516">
											<SimplePredicate field="x1" operator="greaterThan" value="301.8515339282607"/>
										</Node>
									</Node>
									<Node score="33.302840010846246">
										<SimplePredicate field="x2" operator="greaterThan" value="320.00000000000006"/>
									</Node>
									<Node score="19.760894505182904">
										<SimplePredicate field="x1" operator="greaterThan" value="304.98574955389853"/>
										<Node score="31.29934606933594">
											<SimplePredicate field="x3" operator="greaterThan" value="2366.5000000000005"/>
										</Node>
									</Node>
								</Node>
								<Node score="17.036834695775024">
									<SimplePredicate field="x6" operator="greaterThan" value="89.75000000000001"/>
								</Node>
							</Node>
							<Node score="4.229761828422546">
								<SimplePredicate field="x6" operator="greaterThan" value="10.300000000000002"/>
								<Node score="6.846725127461458">
									<SimplePredicate field="x4" operator="greaterThan" value="60.00000000000001"/>
									<Node score="13.65328108610305">
										<SimplePredicate field="x6" operator="greaterThan" value="30.150000000000002"/>
									</Node>
								</Node>
								<Node score="-3.5501420471598126">
									<SimplePredicate field="x5" operator="greaterThan" value="52.00000000000001"/>
								</Node>
							</Node>
							<Node score="-1.4801841859505558">
								<SimplePredicate field="x6" operator="greaterThan" value="9.850000000000003"/>
							</Node>
						</Node>
						<Node score="-9.093739332278929">
							<SimplePredicate field="x1" operator="greaterThan" value="142.35613314503118"/>
							<Node score="0.8790477631056005">
								<SimplePredicate field="x6" operator="greaterThan" value="59.95000000000001"/>
								<Node score="7.2586811325681495">
									<SimplePredicate field="x2" operator="greaterThan" value="160.00000000000003"/>
									<Node score="17.30251631611272">
										<SimplePredicate field="x6" operator="greaterThan" value="89.65000000000002"/>
									</Node>
								</Node>
								<Node score="6.362456197972503">
									<SimplePredicate field="x1" operator="greaterThan" value="208.0717083622519"/>
								</Node>
							</Node>
							<Node score="-5.5537143532696245">
								<SimplePredicate field="x6" operator="greaterThan" value="10.15"/>
								<Node score="-0.8869789819881835">
									<SimplePredicate field="x1" operator="greaterThan" value="189.66314362565222"/>
								</Node>
							</Node>
						</Node>
						<Node score="-9.910164095769163">
							<SimplePredicate field="x1" operator="greaterThan" value="84.51050755150978"/>
							<Node score="-6.092338879267375">
								<SimplePredicate field="x6" operator="greaterThan" value="69.75000000000001"/>
								<Node score="-0.8012178124700274">
									<SimplePredicate field="x4" operator="greaterThan" value="14.000000000000002"/>
								</Node>
							</Node>
						</Node>
					</Node>
				</TreeModel>
			</Segment>
			<Segment id="3">
				<True/>
				<TreeModel functionName="regression" noTrueChildStrategy="returnLastPrediction">
					<MiningSchema>
						<MiningField name="x1"/>
						<MiningField name="x2"/>
						<MiningField name="x3"/>
						<MiningField name="x4"/>
						<MiningField name="x5"/>
						<MiningField name="x6"/>
					</MiningSchema>
					<Node score="-14.082707901371336">
						<True/>
						<Node score="-7.57867590247416">
							<SimplePredicate field="x1" operator="greaterThan" value="259.2550483038567"/>
							<Node score="29.188579022442855">
								<SimplePredicate field="x1" operator="greaterThan" value="517.0777004427317"/>
								<Node score="42.75128177296032">
									<SimplePredicate field="x4" operator="greaterThan" value="60.00000000000001"/>
									<Node score="91.0168745621391">
										<SimplePredicate field="x6" operator="greaterThan" value="49.95000000000001"/>
									</Node>
								</Node>
								<Node score="46.23482123480903">
									<SimplePredicate field="x6" operator="greaterThan" value="58.85000000000001"/>
								</Node>
							</Node>
							<Node score="9.1738754765018">
								<SimplePredicate field="x6" operator="greaterThan" value="69.95000000000002"/>
								<Node score="32.74209264119466">
									<SimplePredicate field="x4" operator="greaterThan" value="60.00000000000001"/>
									<Node score="37.48512340480999">
										<SimplePredicate field="x2" operator="greaterThan" value="320.00000000000006"/>
										<Node score="58.23708885192871">
											<SimplePredicate field="x6" operator="greaterThan" value="99.55000000000001"/>
										</Node>
									</Node>
									<Node score="39.99491591020064">
										<SimplePredicate field="x3" operator="greaterThan" value="2475.0000000000005"/>
									</Node>
									<Node score="17.620184691964763">
										<SimplePredicate field="x5" operator="greaterThan" value="120.00000000000001"/>
										<Node score="31.36393755958194">
											<SimplePredicate field="x6" operator="greaterThan" value="99.65000000000002"/>
										</Node>
									</Node>
								</Node>
								<Node score="16.001968398460974">
									<SimplePredicate field="x6" operator="greaterThan" value="89.95000000000002"/>
								</Node>
							</Node>
							<Node score="2.5688549025835385">
								<SimplePredicate field="x6" operator="greaterThan" value="30.150000000000002"/>
								<Node score="11.32645316745924">
									<SimplePredicate field="x4" operator="greaterThan" value="60.00000000000001"/>
									<Node score="19.2193203328407">
										<SimplePredicate field="x3" operator="greaterThan" value="2366.5000000000005"/>
									</Node>
								</Node>
							</Node>
							<Node score="5.14671140398298">
								<SimplePredicate field="x6" operator="greaterThan" value="9.850000000000003"/>
								<Node score="4.525508475509731">
									<SimplePredicate field="x4" operator="greaterThan" value="60.00000000000001"/>
								</Node>
								<Node score="-5.355954937261084">
									<SimplePredicate field="x4" operator="greaterThan" value="22.000000000000004"/>
								</Node>
							</Node>
						</Node>
						<Node score="-9.086052909510096">
							<SimplePredicate field="x1" operator="greaterThan" value="103.94190584304228"/>
							<Node score="-1.531784577532248">
								<SimplePredicate field="x6" operator="greaterThan" value="69.85000000000001"/>
								<Node score="5.272528780333186">
									<SimplePredicate field="x1" operator="greaterThan" value="181.94728312631767"/>
									<Node score="9.670061358652617">
										<SimplePredicate field="x2" operator="greaterThan" value="160.00000000000003"/>
										<Node score="19.32730535206042">
											<SimplePredicate field="x6" operator="greaterThan" value="91.85000000000001"/>
										</Node>
									</Node>
								</Node>
								<Node score="1.9837152751671567">
									<SimplePredicate field="x6" operator="greaterThan" value="89.75000000000001"/>
								</Node>
							</Node>
							<Node score="-5.780371241607707">
								<SimplePredicate field="x1" operator="greaterThan" value="176.013842624314"/>
								<Node score="-0.7545274810499571">
									<SimplePredicate field="x6" operator="greaterThan" value="20.150000000000002"/>
									<Node score="5.659819632768631">
										<SimplePredicate field="x4" operator="greaterThan" value="100.00000000000001"/>
									</Node>
								</Node>
							</Node>
							<Node score="-4.941424986730864">
								<SimplePredicate field="x6" operator="greaterThan" value="30.350000000000005"/>
							</Node>
						</Node>
						<Node score="-10.17897793267267">
							<SimplePredicate field="x1" operator="greaterThan" value="53.30933967509294"/>
						</Node>
					</Node>
				</TreeModel>
			</Segment>
			<Segment id="4">
				<True/>
				<TreeModel functionName="regression" noTrueChildStrategy="returnLastPrediction">
					<MiningSchema>
						<MiningField name="x1"/>
						<MiningField name="x2"/>
						<MiningField name="x4"/>
						<MiningField name="x5"/>
						<MiningField name="x6"/>
					</MiningSchema>
					<Node score="-11.52002283532279">
						<True/>
						<Node score="-3.9221226620448144">
							<SimplePredicate field="x1" operator="greaterThan" value="259.2550483038567"/>
							<Node score="23.440533375740053">
								<SimplePredicate field="x1" operator="greaterThan" value="550.4693349644247"/>
								<Node score="38.4761534430764">
									<SimplePredicate field="x4" operator="greaterThan" value="60.00000000000001"/>
									<Node score="81.91518906303075">
										<SimplePredicate field="x6" operator="greaterThan" value="49.95000000000001"/>
									</Node>
								</Node>
								<Node score="39.9072599739864">
									<SimplePredicate field="x6" operator="greaterThan" value="30.150000000000002"/>
								</Node>
							</Node>
							<Node score="4.955559363633574">
								<SimplePredicate field="x6" operator="greaterThan" value="59.85"/>
								<Node score="12.8620222984905">
									<SimplePredicate field="x4" operator="greaterThan" value="60.00000000000001"/>
									<Node score="24.614901405970258">
										<SimplePredicate field="x6" operator="greaterThan" value="79.85000000000001"/>
										<Node score="36.8194426001572">
											<SimplePredicate field="x2" operator="greaterThan" value="320.00000000000006"/>
											<Node score="52.41337741851807">
												<SimplePredicate field="x6" operator="greaterThan" value="99.55000000000001"/>
											</Node>
										</Node>
										<Node score="13.94197762229226">
											<SimplePredicate field="x4" operator="greaterThan" value="120.00000000000001"/>
										</Node>
										<Node score="41.67224542526972">
											<SimplePredicate field="x4" operator="greaterThan" value="100.00000000000001"/>
										</Node>
									</Node>
									<Node score="23.18057204424325">
										<SimplePredicate field="x1" operator="greaterThan" value="322.75458213630867"/>
									</Node>
								</Node>
								<Node score="12.782684623173305">
									<SimplePredicate field="x6" operator="greaterThan" value="79.55000000000001"/>
								</Node>
							</Node>
							<Node score="7.558746701478959">
								<SimplePredicate field="x6" operator="greaterThan" value="10.300000000000002"/>
								<Node score="7.092333621264891">
									<SimplePredicate field="x4" operator="greaterThan" value="60.00000000000001"/>
									<Node score="18.588530143824492">
										<SimplePredicate field="x2" operator="greaterThan" value="448.00000000000006"/>
									</Node>
								</Node>
								<Node score="-1.5764199576955855">
									<SimplePredicate field="x4" operator="greaterThan" value="22.000000000000004"/>
								</Node>
							</Node>
						</Node>
						<Node score="-3.4583369700113935">
							<SimplePredicate field="x1" operator="greaterThan" value="142.35613314503118"/>
							<Node score="-1.3104978825661828">
								<SimplePredicate field="x6" operator="greaterThan" value="50.550000000000004"/>
								<Node score="5.677336096718796">
									<SimplePredicate field="x2" operator="greaterThan" value="160.00000000000003"/>
									<Node score="14.17296447377456">
										<SimplePredicate field="x6" operator="greaterThan" value="89.65000000000002"/>
									</Node>
								</Node>
								<Node score="6.624957432268096">
									<SimplePredicate field="x1" operator="greaterThan" value="231.95500870519984"/>
								</Node>
								<Node score="2.335494531629753">
									<SimplePredicate field="x6" operator="greaterThan" value="70.55000000000001"/>
								</Node>
							</Node>
							<Node score="-4.561910845403666">
								<SimplePredicate field="x6" operator="greaterThan" value="1.0000000180025095E-35"/>
								<Node score="1.1322779850607896">
									<SimplePredicate field="x1" operator="greaterThan" value="233.1826121215624"/>
								</Node>
								<Node score="2.4486908185211096">
									<SimplePredicate field="x4" operator="greaterThan" value="100.00000000000001"/>
								</Node>
							</Node>
							<Node score="-10.723707153783977">
								<SimplePredicate field="x5" operator="greaterThan" value="14.000000000000002"/>
							</Node>
						</Node>
						<Node score="-8.605614463319169">
							<SimplePredicate field="x1" operator="greaterThan" value="84.51050755150978"/>
							<Node score="-3.144131823270129">
								<SimplePredicate field="x6" operator="greaterThan" value="59.75000000000001"/>
							</Node>
						</Node>
					</Node>
				</TreeModel>
			</Segment>
			<Segment id="5">
				<True/>
				<TreeModel functionName="regression" noTrueChildStrategy="returnLastPrediction">
					<MiningSchema>
						<MiningField name="x1"/>
						<MiningField name="x2"/>
						<MiningField name="x3"/>
						<MiningField name="x4"/>
						<MiningField name="x5"/>
						<MiningField name="x6"/>
					</MiningSchema>
					<Node score="-10.368020536150253">
						<True/>
						<Node score="-6.583301816516452">
							<SimplePredicate field="x1" operator="greaterThan" value="291.4423981018753"/>
							<Node score="24.7532208442688">
								<SimplePredicate field="x1" operator="greaterThan" value="517.0777004427317"/>
								<Node score="34.62853643243963">
									<SimplePredicate field="x4" operator="greaterThan" value="60.00000000000001"/>
									<Node score="73.72366973213528">
										<SimplePredicate field="x6" operator="greaterThan" value="49.95000000000001"/>
									</Node>
								</Node>
								<Node score="39.91981353759766">
									<SimplePredicate field="x6" operator="greaterThan" value="69.85000000000001"/>
								</Node>
							</Node>
							<Node score="10.221396959573031">
								<SimplePredicate field="x6" operator="greaterThan" value="69.65000000000002"/>
								<Node score="27.69119572846786">
									<SimplePredicate field="x4" operator="greaterThan" value="100.00000000000001"/>
									<Node score="41.81171518499201">
										<SimplePredicate field="x6" operator="greaterThan" value="89.75000000000001"/>
									</Node>
								</Node>
								<Node score="20.990077240402634">
									<SimplePredicate field="x2" operator="greaterThan" value="226.00000000000003"/>
								</Node>
							</Node>
							<Node score="0.8486186751627154">
								<SimplePredicate field="x6" operator="greaterThan" value="29.650000000000002"/>
								<Node score="6.266341256334427">
									<SimplePredicate field="x4" operator="greaterThan" value="60.00000000000001"/>
									<Node score="15.80175763940158">
										<SimplePredicate field="x2" operator="greaterThan" value="320.00000000000006"/>
									</Node>
									<Node score="15.235909266220895">
										<SimplePredicate field="x3" operator="greaterThan" value="2366.5000000000005"/>
									</Node>
								</Node>
							</Node>
							<Node score="-4.477095194139342">
								<SimplePredicate field="x6" operator="greaterThan" value="9.850000000000003"/>
								<Node score="3.1886734626708777">
									<SimplePredicate field="x4" operator="greaterThan" value="60.00000000000001"/>
								</Node>
							</Node>
						</Node>
						<Node score="-1.724189626056215">
							<SimplePredicate field="x1" operator="greaterThan" value="157.4778475461375"/>
							<Node score="1.5809013113152721">
								<SimplePredicate field="x6" operator="greaterThan" value="60.75000000000001"/>
								<Node score="10.26196564016208">
									<SimplePredicate field="x4" operator="greaterThan" value="78.00000000000001"/>
									<Node score="19.95639595820986">
										<SimplePredicate field="x6" operator="greaterThan" value="90.05000000000001"/>
									</Node>
								</Node>
								<Node score="4.179954479336739">
									<SimplePredicate field="x1" operator="greaterThan" value="198.1287840084984"/>
									<Node score="-0.34368421391742987">
										<SimplePredicate field="x5" operator="greaterThan" value="120.00000000000001"/>
									</Node>
									<Node score="10.745727914387038">
										<SimplePredicate field="x4" operator="greaterThan" value="30.000000000000004"/>
									</Node>
								</Node>
							</Node>
							<Node score="-2.4739624696054525">
								<SimplePredicate field="x6" operator="greaterThan" value="20.150000000000002"/>
								<Node score="1.642514928814865">
									<SimplePredicate field="x1" operator="greaterThan" value="220.71407752117696"/>
								</Node>
							</Node>
							<Node score="-9.211358400772179">
								<SimplePredicate field="x5" operator="greaterThan" value="10.000000000000002"/>
								<Node score="-4.883610791683863">
									<SimplePredicate field="x6" operator="greaterThan" value="9.850000000000003"/>
								</Node>
							</Node>
						</Node>
						<Node score="-9.232733654386164">
							<SimplePredicate field="x1" operator="greaterThan" value="84.51050755150978"/>
							<Node score="-4.028335868969238">
								<SimplePredicate field="x6" operator="greaterThan" value="79.15000000000002"/>
								<Node score="0.926786425845354">
									<SimplePredicate field="x4" operator="greaterThan" value="14.000000000000002"/>
								</Node>
							</Node>
							<Node score="-5.743686188844453">
								<SimplePredicate field="x6" operator="greaterThan" value="20.050000000000004"/>
							</Node>
						</Node>
					</Node>
				</TreeModel>
			</Segment>
			<Segment id="6">
				<True/>
				<TreeModel functionName="regression" noTrueChildStrategy="returnLastPrediction">
					<MiningSchema>
						<MiningField name="x1"/>
						<MiningField name="x2"/>
						<MiningField name="x3"/>
						<MiningField name="x4"/>
						<MiningField name="x5"/>
						<MiningField name="x6"/>
					</MiningSchema>
					<Node score="-10.485632735317195">
						<True/>
						<Node score="-5.336409943550826">
							<SimplePredicate field="x1" operator="greaterThan" value="237.95991459049745"/>
							<Node score="60.17780253693865">
								<SimplePredicate field="x4" operator="greaterThan" value="176.00000000000003"/>
							</Node>
							<Node score="6.022346927490318">
								<SimplePredicate field="x6" operator="greaterThan" value="59.95000000000001"/>
								<Node score="48.91157430013021">
									<SimplePredicate field="x1" operator="greaterThan" value="411.52587507020723"/>
									<Node score="19.565700601648402">
										<SimplePredicate field="x3" operator="greaterThan" value="2366.5000000000005"/>
										<Node score="31.821246337890628">
											<SimplePredicate field="x6" operator="greaterThan" value="79.95000000000002"/>
										</Node>
									</Node>
								</Node>
								<Node score="24.769265483987745">
									<SimplePredicate field="x4" operator="greaterThan" value="60.00000000000001"/>
									<Node score="22.72033073611376">
										<SimplePredicate field="x3" operator="greaterThan" value="2475.0000000000005"/>
										<Node score="40.796436157226566">
											<SimplePredicate field="x6" operator="greaterThan" value="89.85000000000001"/>
										</Node>
									</Node>
									<Node score="7.805403802187548">
										<SimplePredicate field="x5" operator="greaterThan" value="120.00000000000001"/>
										<Node score="20.143392095760426">
											<SimplePredicate field="x6" operator="greaterThan" value="80.05000000000001"/>
											<Node score="10.13074015712738">
												<SimplePredicate field="x4" operator="greaterThan" value="120.00000000000001"/>
											</Node>
										</Node>
									</Node>
								</Node>
								<Node score="15.934874386941232">
									<SimplePredicate field="x6" operator="greaterThan" value="99.65000000000002"/>
								</Node>
							</Node>
							<Node score="33.04621714716372">
								<SimplePredicate field="x1" operator="greaterThan" value="517.0777004427317"/>
								<Node score="21.072716338059">
									<SimplePredicate field="x3" operator="greaterThan" value="2283.5000000000005"/>
									<Node score="7.798432193483625">
										<SimplePredicate field="x2" operator="greaterThan" value="62.00000000000001"/>
									</Node>
								</Node>
							</Node>
							<Node score="3.622135428896657">
								<SimplePredicate field="x6" operator="greaterThan" value="20.050000000000004"/>
								<Node score="4.146092405238977">
									<SimplePredicate field="x4" operator="greaterThan" value="60.00000000000001"/>
									<Node score="10.578510464553709">
										<SimplePredicate field="x3" operator="greaterThan" value="2366.5000000000005"/>
									</Node>
								</Node>
								<Node score="-1.7988992743632375">
									<SimplePredicate field="x5" operator="greaterThan" value="52.00000000000001"/>
								</Node>
							</Node>
							<Node score="-0.7703202184008276">
								<SimplePredicate field="x6" operator="greaterThan" value="1.0000000180025095E-35"/>
							</Node>
						</Node>
						<Node score="-8.591007213881522">
							<SimplePredicate field="x1" operator="greaterThan" value="103.94190584304228"/>
							<Node score="-3.530855724232157">
								<SimplePredicate field="x6" operator="greaterThan" value="49.35"/>
								<Node score="2.8720061129180054">
									<SimplePredicate field="x2" operator="greaterThan" value="160.00000000000003"/>
									<Node score="9.755849480378002">
										<SimplePredicate field="x6" operator="greaterThan" value="79.85000000000001"/>
									</Node>
								</Node>
								<Node score="2.018819679658239">
									<SimplePredicate field="x6" operator="greaterThan" value="80.45000000000002"/>
								</Node>
								<Node score="-0.5388594799612746">
									<SimplePredicate field="x1" operator="greaterThan" value="157.4778475461375"/>
								</Node>
							</Node>
							<Node score="-6.437170936001673">
								<SimplePredicate field="x6" operator="greaterThan" value="1.0000000180025095E-35"/>
								<Node score="-3.5620088107425616">
									<SimplePredicate field="x1" operator="greaterThan" value="165.25775668313975"/>
								</Node>
							</Node>
						</Node>
						<Node score="-7.345597647150183">
							<SimplePredicate field="x1" operator="greaterThan" value="53.30933967509294"/>
						</Node>
					</Node>
				</TreeModel>
			</Segment>
			<Segment id="7">
				<True/>
				<TreeModel functionName="regression" noTrueChildStrategy="returnLastPrediction">
					<MiningSchema>
						<MiningField name="x1"/>
						<MiningField name="x2"/>
						<MiningField name="x4"/>
						<MiningField name="x5"/>
						<MiningField name="x6"/>
					</MiningSchema>
					<Node score="-9.174542574554321">
						<True/>
						<Node score="-4.73192255799587">
							<SimplePredicate field="x1" operator="greaterThan" value="237.95991459049745"/>
							<Node score="15.839388497670493">
								<SimplePredicate field="x1" operator="greaterThan" value="517.0777004427317"/>
								<Node score="24.791575549897694">
									<SimplePredicate field="x6" operator="greaterThan" value="29.950000000000003"/>
									<Node score="56.81939776539803">
										<SimplePredicate field="x4" operator="greaterThan" value="60.00000000000001"/>
									</Node>
									<Node score="34.596109008789064">
										<SimplePredicate field="x1" operator="greaterThan" value="661.4045697067103"/>
									</Node>
								</Node>
							</Node>
							<Node score="4.3572943924598295">
								<SimplePredicate field="x6" operator="greaterThan" value="59.85"/>
								<Node score="6.643641886217842">
									<SimplePredicate field="x4" operator="greaterThan" value="60.00000000000001"/>
									<Node score="17.630159698833122">
										<SimplePredicate field="x2" operator="greaterThan" value="320.00000000000006"/>
										<Node score="38.00187919404772">
											<SimplePredicate field="x6" operator="greaterThan" value="90.05000000000001"/>
										</Node>
										<Node score="26.680728424919977">
											<SimplePredicate field="x6" operator="greaterThan" value="79.85000000000001"/>
										</Node>
									</Node>
									<Node score="12.505831212582796">
										<SimplePredicate field="x6" operator="greaterThan" value="89.95000000000002"/>
										<Node score="24.41409489175548">
											<SimplePredicate field="x1" operator="greaterThan" value="298.84438388279017"/>
										</Node>
									</Node>
									<Node score="14.437208761142779">
										<SimplePredicate field="x1" operator="greaterThan" value="304.98574955389853"/>
									</Node>
								</Node>
								<Node score="5.7346504120116535">
									<SimplePredicate field="x6" operator="greaterThan" value="89.95000000000002"/>
									<Node score="13.788682454824448">
										<SimplePredicate field="x5" operator="greaterThan" value="44.00000000000001"/>
									</Node>
								</Node>
							</Node>
							<Node score="1.9092414004462108">
								<SimplePredicate field="x6" operator="greaterThan" value="20.150000000000002"/>
								<Node score="1.9330224637632019">
									<SimplePredicate field="x4" operator="greaterThan" value="60.00000000000001"/>
									<Node score="8.354861968755722">
										<SimplePredicate field="x1" operator="greaterThan" value="304.98574955389853"/>
									</Node>
								</Node>
								<Node score="-1.962415084379529">
									<SimplePredicate field="x5" operator="greaterThan" value="52.00000000000001"/>
								</Node>
								<Node score="10.739283945560457">
									<SimplePredicate field="x5" operator="greaterThan" value="44.00000000000001"/>
								</Node>
							</Node>
							<Node score="-1.4422993898391725">
								<SimplePredicate field="x6" operator="greaterThan" value="1.0000000180025095E-35"/>
								<Node score="4.631187239958315">
									<SimplePredicate field="x2" operator="greaterThan" value="320.00000000000006"/>
								</Node>
							</Node>
						</Node>
						<Node score="-7.731824421791281">
							<SimplePredicate field="x1" operator="greaterThan" value="114.01270111265477"/>
							<Node score="-1.8747144985211621">
								<SimplePredicate field="x6" operator="greaterThan" value="40.25000000000001"/>
								<Node score="2.2930197907266794">
									<SimplePredicate field="x2" operator="greaterThan" value="160.00000000000003"/>
									<Node score="8.490343421413785">
										<SimplePredicate field="x6" operator="greaterThan" value="79.55000000000001"/>
									</Node>
								</Node>
								<Node score="1.3477906300923537">
									<SimplePredicate field="x6" operator="greaterThan" value="79.55000000000001"/>
								</Node>
							</Node>
							<Node score="-4.5515816987625195">
								<SimplePredicate field="x6" operator="greaterThan" value="1.0000000180025095E-35"/>
								<Node score="1.892004037168291">
									<SimplePredicate field="x4" operator="greaterThan" value="100.00000000000001"/>
								</Node>
							</Node>
						</Node>
						<Node score="-6.156857819204793">
							<SimplePredicate field="x1" operator="greaterThan" value="68.35936296914339"/>
						</Node>
					</Node>
				</TreeModel>
			</Segment>
			<Segment id="8">
				<True/>
				<TreeModel functionName="regression" noTrueChildStrategy="returnLastPrediction">
					<MiningSchema>
						<MiningField name="x1"/>
						<MiningField name="x2"/>
						<MiningField name="x3"/>
						<MiningField name="x4"/>
						<MiningField name="x5"/>
						<MiningField name="x6"/>
					</MiningSchema>
					<Node score="-8.78205921961406">
						<True/>
						<Node score="7.147359009583791">
							<SimplePredicate field="x1" operator="greaterThan" value="288.47240385233005"/>
							<Node score="51.24269442590508">
								<SimplePredicate field="x4" operator="greaterThan" value="176.00000000000003"/>
							</Node>
							<Node score="7.975960449016455">
								<SimplePredicate field="x6" operator="greaterThan" value="79.95000000000002"/>
								<Node score="25.906600856781008">
									<SimplePredicate field="x1" operator="greaterThan" value="411.52587507020723"/>
									<Node score="40.78932525634766">
										<SimplePredicate field="x1" operator="greaterThan" value="624.2535891999386"/>
									</Node>
								</Node>
								<Node score="17.046556223993715">
									<SimplePredicate field="x4" operator="greaterThan" value="60.00000000000001"/>
									<Node score="31.80147296802418">
										<SimplePredicate field="x3" operator="greaterThan" value="2475.0000000000005"/>
									</Node>
								</Node>
							</Node>
							<Node score="30.933806583799164">
								<SimplePredicate field="x1" operator="greaterThan" value="517.0777004427317"/>
								<Node score="18.08116524036114">
									<SimplePredicate field="x3" operator="greaterThan" value="2283.5000000000005"/>
									<Node score="5.708976109822592">
										<SimplePredicate field="x2" operator="greaterThan" value="62.00000000000001"/>
									</Node>
								</Node>
							</Node>
							<Node score="3.0314937241488336">
								<SimplePredicate field="x6" operator="greaterThan" value="40.050000000000004"/>
								<Node score="6.8365778768185494">
									<SimplePredicate field="x4" operator="greaterThan" value="60.00000000000001"/>
									<Node score="15.238973402641191">
										<SimplePredicate field="x3" operator="greaterThan" value="2366.5000000000005"/>
									</Node>
								</Node>
							</Node>
							<Node score="-3.6504598004477367">
								<SimplePredicate field="x4" operator="greaterThan" value="60.00000000000001"/>
								<Node score="3.064923906762793">
									<SimplePredicate field="x6" operator="greaterThan" value="9.850000000000003"/>
								</Node>
							</Node>
							<Node score="-4.7979301062769855">
								<SimplePredicate field="x5" operator="greaterThan" value="20.000000000000004"/>
							</Node>
						</Node>
						<Node score="-0.6520957476736324">
							<SimplePredicate field="x1" operator="greaterThan" value="157.4778475461375"/>
							<Node score="1.3113313729663127">
								<SimplePredicate field="x6" operator="greaterThan" value="69.85000000000001"/>
								<Node score="9.84206898638606">
									<SimplePredicate field="x4" operator="greaterThan" value="78.00000000000001"/>
								</Node>
								<Node score="3.175546391707071">
									<SimplePredicate field="x1" operator="greaterThan" value="198.1287840084984"/>
									<Node score="-0.8932554037143023">
										<SimplePredicate field="x5" operator="greaterThan" value="120.00000000000001"/>
									</Node>
									<Node score="13.792566530297442">
										<SimplePredicate field="x4" operator="greaterThan" value="30.000000000000004"/>
										<Node score="5.578059257148446">
											<SimplePredicate field="x2" operator="greaterThan" value="112.00000000000001"/>
										</Node>
									</Node>
								</Node>
							</Node>
							<Node score="-0.7391085213038888">
								<SimplePredicate field="x6" operator="greaterThan" value="30.150000000000002"/>
								<Node score="4.662632947181588">
									<SimplePredicate field="x4" operator="greaterThan" value="78.00000000000001"/>
								</Node>
							</Node>
							<Node score="-6.75919086659541">
								<SimplePredicate field="x5" operator="greaterThan" value="10.000000000000002"/>
								<Node score="-3.422272198736223">
									<SimplePredicate field="x6" operator="greaterThan" value="9.850000000000003"/>
								</Node>
							</Node>
						</Node>
						<Node score="-4.708690758125024">
							<SimplePredicate field="x6" operator="greaterThan" value="69.65000000000002"/>
							<Node score="-0.01886043075682982">
								<SimplePredicate field="x4" operator="greaterThan" value="14.000000000000002"/>
							</Node>
						</Node>
						<Node score="-5.532568520943684">
							<SimplePredicate field="x1" operator="greaterThan" value="81.72099449684355"/>
						</Node>
					</Node>
				</TreeModel>
			</Segment>
			<Segment id="9">
				<True/>
				<TreeModel functionName="regression" noTrueChildStrategy="returnLastPrediction">
					<MiningSchema>
						<MiningField name="x1"/>
						<MiningField name="x2"/>
						<MiningField name="x3"/>
						<MiningField name="x4"/>
						<MiningField name="x5"/>
						<MiningField name="x6"/>
					</MiningSchema>
					<Node score="-7.783779514646068">
						<True/>
						<Node score="-3.925479267630726">
							<SimplePredicate field="x1" operator="greaterThan" value="237.95991459049745"/>
							<Node score="46.11842481993341">
								<SimplePredicate field="x4" operator="greaterThan" value="176.00000000000003"/>
							</Node>
							<Node score="4.989575444929528">
								<SimplePredicate field="x6" operator="greaterThan" value="69.85000000000001"/>
								<Node score="38.12348075534987">
									<SimplePredicate field="x1" operator="greaterThan" value="411.52587507020723"/>
									<Node score="20.613807698090874">
										<SimplePredicate field="x3" operator="greaterThan" value="2366.5000000000005"/>
									</Node>
								</Node>
								<Node score="20.035480468750002">
									<SimplePredicate field="x4" operator="greaterThan" value="60.00000000000001"/>
									<Node score="20.439959568447538">
										<SimplePredicate field="x3" operator="greaterThan" value="2475.0000000000005"/>
										<Node score="33.248462257385256">
											<SimplePredicate field="x6" operator="greaterThan" value="90.05000000000001"/>
										</Node>
									</Node>
									<Node score="7.543973759258235">
										<SimplePredicate field="x5" operator="greaterThan" value="120.00000000000001"/>
										<Node score="16.357103395462037">
											<SimplePredicate field="x6" operator="greaterThan" value="99.65000000000002"/>
										</Node>
									</Node>
								</Node>
								<Node score="5.782807200700045">
									<SimplePredicate field="x4" operator="greaterThan" value="30.000000000000004"/>
									<Node score="5.210118126102014">
										<SimplePredicate field="x4" operator="greaterThan" value="52.00000000000001"/>
									</Node>
									<Node score="20.38977236938477">
										<SimplePredicate field="x4" operator="greaterThan" value="46.00000000000001"/>
									</Node>
								</Node>
								<Node score="-3.748809334521111">
									<SimplePredicate field="x4" operator="greaterThan" value="22.000000000000004"/>
								</Node>
							</Node>
							<Node score="14.34633170167605">
								<SimplePredicate field="x1" operator="greaterThan" value="486.9762607164249"/>
								<Node score="2.6595542306249795">
									<SimplePredicate field="x2" operator="greaterThan" value="226.00000000000003"/>
								</Node>
								<Node score="29.34600575764974">
									<SimplePredicate field="x1" operator="greaterThan" value="789.9970704643172"/>
								</Node>
							</Node>
							<Node score="1.7790546150616955">
								<SimplePredicate field="x6" operator="greaterThan" value="30.150000000000002"/>
								<Node score="4.525687713322265">
									<SimplePredicate field="x4" operator="greaterThan" value="60.00000000000001"/>
									<Node score="11.09795167576183">
										<SimplePredicate field="x3" operator="greaterThan" value="2475.0000000000005"/>
									</Node>
								</Node>
							</Node>
							<Node score="-0.19715736829664007">
								<SimplePredicate field="x6" operator="greaterThan" value="1.0000000180025095E-35"/>
							</Node>
						</Node>
						<Node score="-6.376469352028587">
							<SimplePredicate field="x1" operator="greaterThan" value="128.8157948644707"/>
							<Node score="-0.9324456909350541">
								<SimplePredicate field="x6" operator="greaterThan" value="40.25000000000001"/>
								<Node score="1.952585828589561">
									<SimplePredicate field="x6" operator="greaterThan" value="80.45000000000002"/>
									<Node score="8.33888374637155">
										<SimplePredicate field="x2" operator="greaterThan" value="160.00000000000003"/>
									</Node>
								</Node>
								<Node score="6.1772606959709755">
									<SimplePredicate field="x4" operator="greaterThan" value="100.00000000000001"/>
								</Node>
							</Node>
							<Node score="-3.6943446170496026">
								<SimplePredicate field="x6" operator="greaterThan" value="1.0000000180025095E-35"/>
								<Node score="1.8294333850012887">
									<SimplePredicate field="x4" operator="greaterThan" value="100.00000000000001"/>
								</Node>
							</Node>
						</Node>
						<Node score="-6.818036575678966">
							<SimplePredicate field="x1" operator="greaterThan" value="53.30933967509294"/>
							<Node score="-3.9889095934510514">
								<SimplePredicate field="x6" operator="greaterThan" value="30.350000000000005"/>
							</Node>
						</Node>
					</Node>
				</TreeModel>
			</Segment>
			<Segment id="10">
				<True/>
				<TreeModel functionName="regression" noTrueChildStrategy="returnLastPrediction">
					<MiningSchema>
						<MiningField name="x1"/>
						<MiningField name="x2"/>
						<MiningField name="x3"/>
						<MiningField name="x4"/>
						<MiningField name="x5"/>
						<MiningField name="x6"/>
					</MiningSchema>
					<Node score="-7.795986359411007">
						<True/>
						<Node score="3.4126442120786304">
							<SimplePredicate field="x1" operator="greaterThan" value="246.37665094415615"/>
							<Node score="41.50658287873139">
								<SimplePredicate field="x4" operator="greaterThan" value="176.00000000000003"/>
							</Node>
							<Node score="2.9036476605970947">
								<SimplePredicate field="x6" operator="greaterThan" value="79.95000000000002"/>
								<Node score="20.81681834459305">
									<SimplePredicate field="x1" operator="greaterThan" value="411.52587507020723"/>
									<Node score="33.77352769851685">
										<SimplePredicate field="x1" operator="greaterThan" value="624.2535891999386"/>
									</Node>
								</Node>
								<Node score="14.511434568299189">
									<SimplePredicate field="x4" operator="greaterThan" value="60.00000000000001"/>
									<Node score="25.414847695200066">
										<SimplePredicate field="x3" operator="greaterThan" value="2475.0000000000005"/>
									</Node>
									<Node score="5.008886100505961">
										<SimplePredicate field="x4" operator="greaterThan" value="120.00000000000001"/>
									</Node>
								</Node>
								<Node score="9.114600268432072">
									<SimplePredicate field="x5" operator="greaterThan" value="44.00000000000001"/>
								</Node>
							</Node>
							<Node score="7.222235018014908">
								<SimplePredicate field="x1" operator="greaterThan" value="486.9762607164249"/>
								<Node score="2.3601802000999452">
									<SimplePredicate field="x2" operator="greaterThan" value="226.00000000000003"/>
								</Node>
								<Node score="28.38930244445801">
									<SimplePredicate field="x1" operator="greaterThan" value="789.9970704643172"/>
								</Node>
								<Node score="17.235852464948383">
									<SimplePredicate field="x6" operator="greaterThan" value="29.850000000000005"/>
								</Node>
							</Node>
							<Node score="2.020787643652354">
								<SimplePredicate field="x6" operator="greaterThan" value="30.150000000000002"/>
								<Node score="14.635618690208155">
									<SimplePredicate field="x4" operator="greaterThan" value="60.00000000000001"/>
									<Node score="11.078148611494013">
										<SimplePredicate field="x3" operator="greaterThan" value="2475.0000000000005"/>
									</Node>
									<Node score="3.2854987318483775">
										<SimplePredicate field="x5" operator="greaterThan" value="120.00000000000001"/>
									</Node>
								</Node>
								<Node score="-0.546180157555212">
									<SimplePredicate field="x4" operator="greaterThan" value="52.00000000000001"/>
								</Node>
								<Node score="11.924198948253284">
									<SimplePredicate field="x4" operator="greaterThan" value="46.00000000000001"/>
								</Node>
							</Node>
							<Node score="-3.9493092628124637">
								<SimplePredicate field="x5" operator="greaterThan" value="20.000000000000004"/>
								<Node score="0.4024009708687663">
									<SimplePredicate field="x4" operator="greaterThan" value="60.00000000000001"/>
								</Node>
							</Node>
						</Node>
						<Node score="-3.415324869710073">
							<SimplePredicate field="x1" operator="greaterThan" value="149.72126029819597"/>
							<Node score="-0.7670032947091712">
								<SimplePredicate field="x6" operator="greaterThan" value="30.250000000000004"/>
								<Node score="6.9606279754638685">
									<SimplePredicate field="x4" operator="greaterThan" value="100.00000000000001"/>
								</Node>
								<Node score="0.5349303188986495">
									<SimplePredicate field="x6" operator="greaterThan" value="70.25000000000001"/>
									<Node score="3.759240578316873">
										<SimplePredicate field="x2" operator="greaterThan" value="17.000000000000004"/>
									</Node>
								</Node>
							</Node>
						</Node>
						<Node score="-4.241840009108063">
							<SimplePredicate field="x6" operator="greaterThan" value="59.75000000000001"/>
							<Node score="-2.2886264100282765">
								<SimplePredicate field="x4" operator="greaterThan" value="10.000000000000002"/>
								<Node score="1.2543515972688164">
									<SimplePredicate field="x6" operator="greaterThan" value="88.85000000000001"/>
								</Node>
							</Node>
						</Node>
						<Node score="-5.090352822736253">
							<SimplePredicate field="x1" operator="greaterThan" value="68.35936296914339"/>
						</Node>
					</Node>
				</TreeModel>
			</Segment>
			<Segment id="11">
				<True/>
				<TreeModel functionName="regression" noTrueChildStrategy="returnLastPrediction">
					<MiningSchema>
						<MiningField name="x1"/>
						<MiningField name="x2"/>
						<MiningField name="x3"/>
						<MiningField name="x4"/>
						<MiningField name="x5"/>
						<MiningField name="x6"/>
					</MiningSchema>
					<Node score="-6.7612993960910375">
						<True/>
						<Node score="-3.427727895387216">
							<SimplePredicate field="x1" operator="greaterThan" value="237.95991459049745"/>
							<Node score="37.35592377636884">
								<SimplePredicate field="x4" operator="greaterThan" value="176.00000000000003"/>
							</Node>
							<Node score="2.050916070892261">
								<SimplePredicate field="x6" operator="greaterThan" value="79.95000000000002"/>
								<Node score="18.73513653278351">
									<SimplePredicate field="x1" operator="greaterThan" value="411.52587507020723"/>
									<Node score="30.396175251007083">
										<SimplePredicate field="x1" operator="greaterThan" value="624.2535891999386"/>
									</Node>
								</Node>
								<Node score="14.007964002567789">
									<SimplePredicate field="x4" operator="greaterThan" value="68.00000000000001"/>
									<Node score="23.841672202868338">
										<SimplePredicate field="x3" operator="greaterThan" value="2475.0000000000005"/>
									</Node>
									<Node score="4.864567058317124">
										<SimplePredicate field="x4" operator="greaterThan" value="120.00000000000001"/>
									</Node>
								</Node>
								<Node score="5.932622488560501">
									<SimplePredicate field="x4" operator="greaterThan" value="30.000000000000004"/>
									<Node score="4.813899323493242">
										<SimplePredicate field="x5" operator="greaterThan" value="104.00000000000001"/>
									</Node>
									<Node score="17.972191505432132">
										<SimplePredicate field="x4" operator="greaterThan" value="46.00000000000001"/>
									</Node>
								</Node>
							</Node>
							<Node score="6.500011531412603">
								<SimplePredicate field="x1" operator="greaterThan" value="486.9762607164249"/>
								<Node score="2.124162126541138">
									<SimplePredicate field="x2" operator="greaterThan" value="226.00000000000003"/>
								</Node>
								<Node score="25.55037261644999">
									<SimplePredicate field="x1" operator="greaterThan" value="789.9970704643172"/>
								</Node>
								<Node score="15.512267259870256">
									<SimplePredicate field="x6" operator="greaterThan" value="29.850000000000005"/>
								</Node>
							</Node>
							<Node score="3.8582847514387333">
								<SimplePredicate field="x6" operator="greaterThan" value="30.150000000000002"/>
								<Node score="13.172056862160012">
									<SimplePredicate field="x4" operator="greaterThan" value="60.00000000000001"/>
									<Node score="10.033324323829852">
										<SimplePredicate field="x3" operator="greaterThan" value="2475.0000000000005"/>
									</Node>
									<Node score="2.789512312338219">
										<SimplePredicate field="x5" operator="greaterThan" value="120.00000000000001"/>
									</Node>
								</Node>
								<Node score="0.048491876140052896">
									<SimplePredicate field="x2" operator="greaterThan" value="40.00000000000001"/>
								</Node>
							</Node>
							<Node score="-0.06392626826198636">
								<SimplePredicate field="x6" operator="greaterThan" value="1.0000000180025095E-35"/>
							</Node>
						</Node>
						<Node score="-3.5571023881916077">
							<SimplePredicate field="x1" operator="greaterThan" value="149.72126029819597"/>
							<Node score="1.0956951934922494">
								<SimplePredicate field="x6" operator="greaterThan" value="60.25000000000001"/>
								<Node score="3.6160924503436456">
									<SimplePredicate field="x2" operator="greaterThan" value="160.00000000000003"/>
									<Node score="10.03945453311458">
										<SimplePredicate field="x6" operator="greaterThan" value="97.80000000000001"/>
									</Node>
								</Node>
							</Node>
							<Node score="-1.0628325129692753">
								<SimplePredicate field="x6" operator="greaterThan" value="20.150000000000002"/>
							</Node>
						</Node>
						<Node score="-3.275226819061613">
							<SimplePredicate field="x6" operator="greaterThan" value="79.15000000000002"/>
							<Node score="0.5492134480267832">
								<SimplePredicate field="x4" operator="greaterThan" value="14.000000000000002"/>
							</Node>
						</Node>
						<Node score="-5.573983821696025">
							<SimplePredicate field="x1" operator="greaterThan" value="68.35936296914339"/>
							<Node score="-3.3726714024482636">
								<SimplePredicate field="x6" operator="greaterThan" value="20.150000000000002"/>
							</Node>
						</Node>
					</Node>
				</TreeModel>
			</Segment>
			<Segment id="12">
				<True/>
				<TreeModel functionName="regression" noTrueChildStrategy="returnLastPrediction">
					<MiningSchema>
						<MiningField name="x1"/>
						<MiningField name="x2"/>
						<MiningField name="x3"/>
						<MiningField name="x4"/>
						<MiningField name="x5"/>
						<MiningField name="x6"/>
					</MiningSchema>
					<Node score="-6.032958598781277">
						<True/>
						<Node score="1.5830252025344156">
							<SimplePredicate field="x1" operator="greaterThan" value="237.95991459049745"/>
							<Node score="33.62033197042105">
								<SimplePredicate field="x4" operator="greaterThan" value="176.00000000000003"/>
							</Node>
							<Node score="2.8969120331656706">
								<SimplePredicate field="x6" operator="greaterThan" value="40.65000000000001"/>
								<Node score="33.912590165571736">
									<SimplePredicate field="x1" operator="greaterThan" value="438.84537522510055"/>
									<Node score="15.954611754998929">
										<SimplePredicate field="x3" operator="greaterThan" value="2283.5000000000005"/>
										<Node score="8.122105018645525">
											<SimplePredicate field="x4" operator="greaterThan" value="74.00000000000001"/>
										</Node>
									</Node>
								</Node>
								<Node score="10.3392756828895">
									<SimplePredicate field="x6" operator="greaterThan" value="99.65000000000002"/>
									<Node score="23.23965368270874">
										<SimplePredicate field="x4" operator="greaterThan" value="100.00000000000001"/>
									</Node>
								</Node>
								<Node score="14.037482302116628">
									<SimplePredicate field="x4" operator="greaterThan" value="60.00000000000001"/>
									<Node score="10.069802615327657">
										<SimplePredicate field="x3" operator="greaterThan" value="2475.0000000000005"/>
										<Node score="18.02037242542614">
											<SimplePredicate field="x6" operator="greaterThan" value="79.75000000000001"/>
										</Node>
									</Node>
									<Node score="-2.082163059711456">
										<SimplePredicate field="x5" operator="greaterThan" value="120.00000000000001"/>
										<Node score="5.035766893730444">
											<SimplePredicate field="x4" operator="greaterThan" value="68.00000000000001"/>
										</Node>
									</Node>
								</Node>
							</Node>
							<Node score="11.13552310988307">
								<SimplePredicate field="x1" operator="greaterThan" value="422.33294732351425"/>
								<Node score="-0.10385476218329535">
									<SimplePredicate field="x4" operator="greaterThan" value="100.00000000000001"/>
								</Node>
							</Node>
							<Node score="1.5664247056340228">
								<SimplePredicate field="x6" operator="greaterThan" value="19.300000000000004"/>
								<Node score="8.69362192551295">
									<SimplePredicate field="x4" operator="greaterThan" value="60.00000000000001"/>
									<Node score="-2.288321442074246">
										<SimplePredicate field="x5" operator="greaterThan" value="120.00000000000001"/>
										<Node score="2.9248995270764477">
											<SimplePredicate field="x4" operator="greaterThan" value="84.00000000000001"/>
										</Node>
									</Node>
								</Node>
								<Node score="-2.8114867064875106">
									<SimplePredicate field="x2" operator="greaterThan" value="40.00000000000001"/>
								</Node>
							</Node>
							<Node score="-6.465528380622466">
								<SimplePredicate field="x2" operator="greaterThan" value="40.00000000000001"/>
								<Node score="-1.7052772889011785">
									<SimplePredicate field="x4" operator="greaterThan" value="60.00000000000001"/>
								</Node>
							</Node>
						</Node>
						<Node score="-4.950048651297887">
							<SimplePredicate field="x1" operator="greaterThan" value="103.94190584304228"/>
							<Node score="-1.1069716430105507">
								<SimplePredicate field="x6" operator="greaterThan" value="40.25000000000001"/>
								<Node score="1.6190785416754558">
									<SimplePredicate field="x1" operator="greaterThan" value="181.94728312631767"/>
									<Node score="6.759584343270081">
										<SimplePredicate field="x6" operator="greaterThan" value="97.80000000000001"/>
									</Node>
								</Node>
								<Node score="1.9600266213036333">
									<SimplePredicate field="x6" operator="greaterThan" value="98.25000000000001"/>
								</Node>
							</Node>
							<Node score="-3.194552270358517">
								<SimplePredicate field="x6" operator="greaterThan" value="1.0000000180025095E-35"/>
								<Node score="-1.1847345688070736">
									<SimplePredicate field="x1" operator="greaterThan" value="176.013842624314"/>
								</Node>
							</Node>
						</Node>
						<Node score="-3.9131181339583088">
							<SimplePredicate field="x6" operator="greaterThan" value="40.35"/>
						</Node>
					</Node>
				</TreeModel>
			</Segment>
			<Segment id="13">
				<True/>
				<TreeModel functionName="regression" noTrueChildStrategy="returnLastPrediction">
					<MiningSchema>
						<MiningField name="x1"/>
						<MiningField name="x3"/>
						<MiningField name="x4"/>
						<MiningField name="x5"/>
						<MiningField name="x6"/>
					</MiningSchema>
					<Node score="-4.417813472851589">
						<True/>
						<Node score="3.5411501694698724">
							<SimplePredicate field="x1" operator="greaterThan" value="411.52587507020723"/>
							<Node score="24.258628154936293">
								<SimplePredicate field="x1" operator="greaterThan" value="722.6375726692332"/>
								<Node score="40.66645563063415">
									<SimplePredicate field="x6" operator="greaterThan" value="69.95000000000002"/>
								</Node>
								<Node score="7.090961955143856">
									<SimplePredicate field="x1" operator="greaterThan" value="819.5467908610559"/>
								</Node>
							</Node>
							<Node score="11.745065565683225">
								<SimplePredicate field="x6" operator="greaterThan" value="29.750000000000004"/>
							</Node>
						</Node>
						<Node score="2.3017939840044295">
							<SimplePredicate field="x1" operator="greaterThan" value="197.45693624202616"/>
							<Node score="3.432260119707688">
								<SimplePredicate field="x6" operator="greaterThan" value="79.55000000000001"/>
								<Node score="7.497324212185749">
									<SimplePredicate field="x4" operator="greaterThan" value="68.00000000000001"/>
									<Node score="8.640660267609816">
										<SimplePredicate field="x1" operator="greaterThan" value="298.84438388279017"/>
										<Node score="15.51963608439376">
											<SimplePredicate field="x4" operator="greaterThan" value="100.00000000000001"/>
											<Node score="24.28560065428416">
												<SimplePredicate field="x6" operator="greaterThan" value="99.45000000000002"/>
											</Node>
										</Node>
									</Node>
								</Node>
								<Node score="5.4411972102365995">
									<SimplePredicate field="x4" operator="greaterThan" value="30.000000000000004"/>
									<Node score="0.4475262512537566">
										<SimplePredicate field="x5" operator="greaterThan" value="104.00000000000001"/>
										<Node score="5.822498481935925">
											<SimplePredicate field="x3" operator="greaterThan" value="2475.0000000000005"/>
										</Node>
									</Node>
									<Node score="15.336481990569679">
										<SimplePredicate field="x4" operator="greaterThan" value="46.00000000000001"/>
									</Node>
								</Node>
								<Node score="-3.4950284481048586">
									<SimplePredicate field="x4" operator="greaterThan" value="18.000000000000004"/>
								</Node>
							</Node>
							<Node score="1.2106505041994364">
								<SimplePredicate field="x6" operator="greaterThan" value="30.150000000000002"/>
								<Node score="2.488447859848655">
									<SimplePredicate field="x4" operator="greaterThan" value="100.00000000000001"/>
									<Node score="8.516425591300836">
										<SimplePredicate field="x1" operator="greaterThan" value="298.84438388279017"/>
									</Node>
								</Node>
								<Node score="-0.42016691965260633">
									<SimplePredicate field="x5" operator="greaterThan" value="104.00000000000001"/>
								</Node>
								<Node score="9.677034182018705">
									<SimplePredicate field="x4" operator="greaterThan" value="46.00000000000001"/>
								</Node>
							</Node>
							<Node score="0.8948693890905096">
								<SimplePredicate field="x6" operator="greaterThan" value="1.0000000180025095E-35"/>
								<Node score="1.701474030998372">
									<SimplePredicate field="x4" operator="greaterThan" value="100.00000000000001"/>
								</Node>
								<Node score="-3.212831672262307">
									<SimplePredicate field="x5" operator="greaterThan" value="104.00000000000001"/>
								</Node>
								<Node score="6.5891233898521895">
									<SimplePredicate field="x4" operator="greaterThan" value="46.00000000000001"/>
								</Node>
								<Node score="-3.624032318430978">
									<SimplePredicate field="x4" operator="greaterThan" value="22.000000000000004"/>
								</Node>
							</Node>
							<Node score="-4.628797706732383">
								<SimplePredicate field="x4" operator="greaterThan" value="14.000000000000002"/>
							</Node>
						</Node>
						<Node score="-4.057504776343878">
							<SimplePredicate field="x1" operator="greaterThan" value="100.33951439930703"/>
							<Node score="0.5851943621817588">
								<SimplePredicate field="x6" operator="greaterThan" value="79.15000000000002"/>
							</Node>
							<Node score="-1.8956017390253295">
								<SimplePredicate field="x6" operator="greaterThan" value="19.300000000000004"/>
							</Node>
						</Node>
					</Node>
				</TreeModel>
			</Segment>
			<Segment id="14">
				<True/>
				<TreeModel functionName="regression" noTrueChildStrategy="returnLastPrediction">
					<MiningSchema>
						<MiningField name="x1"/>
						<MiningField name="x2"/>
						<MiningField name="x4"/>
						<MiningField name="x5"/>
						<MiningField name="x6"/>
					</MiningSchema>
					<Node score="-4.875965822219849">
						<True/>
						<Node score="4.655527065416178">
							<SimplePredicate field="x1" operator="greaterThan" value="411.52587507020723"/>
							<Node score="5.448475532304673">
								<SimplePredicate field="x1" operator="greaterThan" value="722.6375726692332"/>
								<Node score="34.02725761676657">
									<SimplePredicate field="x6" operator="greaterThan" value="59.95000000000001"/>
								</Node>
								<Node score="18.25018724679947">
									<SimplePredicate field="x6" operator="greaterThan" value="29.950000000000003"/>
								</Node>
							</Node>
							<Node score="11.568543508576184">
								<SimplePredicate field="x6" operator="greaterThan" value="40.25000000000001"/>
							</Node>
						</Node>
						<Node score="1.4944266610516188">
							<SimplePredicate field="x1" operator="greaterThan" value="187.41286699890478"/>
							<Node score="2.711667371479021">
								<SimplePredicate field="x6" operator="greaterThan" value="60.35"/>
								<Node score="7.7576437135960195">
									<SimplePredicate field="x4" operator="greaterThan" value="68.00000000000001"/>
									<Node score="11.555057022306656">
										<SimplePredicate field="x2" operator="greaterThan" value="320.00000000000006"/>
										<Node score="20.633645809173586">
											<SimplePredicate field="x6" operator="greaterThan" value="90.05000000000001"/>
										</Node>
									</Node>
									<Node score="4.043850725363283">
										<SimplePredicate field="x4" operator="greaterThan" value="120.00000000000001"/>
									</Node>
									<Node score="15.553837803431922">
										<SimplePredicate field="x4" operator="greaterThan" value="100.00000000000001"/>
									</Node>
								</Node>
								<Node score="-1.1791651824942313">
									<SimplePredicate field="x5" operator="greaterThan" value="120.00000000000001"/>
								</Node>
								<Node score="11.782246554514458">
									<SimplePredicate field="x2" operator="greaterThan" value="194.00000000000003"/>
								</Node>
								<Node score="7.8758497837517005">
									<SimplePredicate field="x6" operator="greaterThan" value="99.65000000000002"/>
								</Node>
							</Node>
							<Node score="1.7120044037535953">
								<SimplePredicate field="x6" operator="greaterThan" value="20.050000000000004"/>
								<Node score="2.2334305880922023">
									<SimplePredicate field="x4" operator="greaterThan" value="84.00000000000001"/>
									<Node score="6.264745537936688">
										<SimplePredicate field="x1" operator="greaterThan" value="308.2919307618351"/>
									</Node>
								</Node>
								<Node score="-1.1027309935786747">
									<SimplePredicate field="x5" operator="greaterThan" value="68.00000000000001"/>
								</Node>
								<Node score="8.522775207825427">
									<SimplePredicate field="x4" operator="greaterThan" value="46.00000000000001"/>
								</Node>
								<Node score="-3.843231915045476">
									<SimplePredicate field="x4" operator="greaterThan" value="22.000000000000004"/>
									<Node score="2.187250593394944">
										<SimplePredicate field="x5" operator="greaterThan" value="60.00000000000001"/>
									</Node>
								</Node>
							</Node>
							<Node score="-3.335832691900801">
								<SimplePredicate field="x4" operator="greaterThan" value="10.000000000000002"/>
								<Node score="-0.48012429226460407">
									<SimplePredicate field="x2" operator="greaterThan" value="194.00000000000003"/>
								</Node>
							</Node>
						</Node>
						<Node score="-4.156304581697323">
							<SimplePredicate field="x6" operator="greaterThan" value="69.65000000000002"/>
							<Node score="-0.08325792156987721">
								<SimplePredicate field="x4" operator="greaterThan" value="10.000000000000002"/>
								<Node score="2.584429935856085">
									<SimplePredicate field="x6" operator="greaterThan" value="98.25000000000001"/>
								</Node>
							</Node>
							<Node score="-1.674053648680924">
								<SimplePredicate field="x1" operator="greaterThan" value="43.85218511157564"/>
							</Node>
						</Node>
						<Node score="-3.922896162207062">
							<SimplePredicate field="x1" operator="greaterThan" value="84.51050755150978"/>
							<Node score="-2.0510838623995817">
								<SimplePredicate field="x6" operator="greaterThan" value="10.050000000000002"/>
							</Node>
						</Node>
					</Node>
				</TreeModel>
			</Segment>
			<Segment id="15">
				<True/>
				<TreeModel functionName="regression" noTrueChildStrategy="returnLastPrediction">
					<MiningSchema>
						<MiningField name="x1"/>
						<MiningField name="x2"/>
						<MiningField name="x3"/>
						<MiningField name="x4"/>
						<MiningField name="x5"/>
						<MiningField name="x6"/>
					</MiningSchema>
					<Node score="-3.9967812783197987">
						<True/>
						<Node score="4.297884720847721">
							<SimplePredicate field="x1" operator="greaterThan" value="288.47240385233005"/>
							<Node score="27.263352528456096">
								<SimplePredicate field="x4" operator="greaterThan" value="176.00000000000003"/>
							</Node>
							<Node score="4.6448499751311765">
								<SimplePredicate field="x6" operator="greaterThan" value="80.25000000000001"/>
								<Node score="8.971366262435913">
									<SimplePredicate field="x4" operator="greaterThan" value="60.00000000000001"/>
									<Node score="22.88620529085398">
										<SimplePredicate field="x1" operator="greaterThan" value="389.1808259923658"/>
									</Node>
									<Node score="16.66484660735497">
										<SimplePredicate field="x3" operator="greaterThan" value="2475.0000000000005"/>
									</Node>
								</Node>
								<Node score="13.890772524746982">
									<SimplePredicate field="x1" operator="greaterThan" value="447.78050408950725"/>
								</Node>
							</Node>
							<Node score="8.048469826232555">
								<SimplePredicate field="x1" operator="greaterThan" value="422.33294732351425"/>
								<Node score="-1.1831673295759575">
									<SimplePredicate field="x4" operator="greaterThan" value="100.00000000000001"/>
								</Node>
								<Node score="17.472334698988842">
									<SimplePredicate field="x1" operator="greaterThan" value="789.9970704643172"/>
								</Node>
							</Node>
							<Node score="6.403327007293702">
								<SimplePredicate field="x6" operator="greaterThan" value="40.050000000000004"/>
								<Node score="6.612816963053269">
									<SimplePredicate field="x4" operator="greaterThan" value="100.00000000000001"/>
								</Node>
								<Node score="0.6587573937219109">
									<SimplePredicate field="x5" operator="greaterThan" value="104.00000000000001"/>
								</Node>
								<Node score="9.571622654566399">
									<SimplePredicate field="x4" operator="greaterThan" value="46.00000000000001"/>
								</Node>
								<Node score="-0.8539124597821918">
									<SimplePredicate field="x4" operator="greaterThan" value="22.000000000000004"/>
								</Node>
							</Node>
							<Node score="4.705276765653066">
								<SimplePredicate field="x4" operator="greaterThan" value="60.00000000000001"/>
								<Node score="-0.07345462123917036">
									<SimplePredicate field="x5" operator="greaterThan" value="120.00000000000001"/>
								</Node>
							</Node>
							<Node score="-3.150810026503959">
								<SimplePredicate field="x5" operator="greaterThan" value="20.000000000000004"/>
							</Node>
						</Node>
						<Node score="0.37916379261312755">
							<SimplePredicate field="x1" operator="greaterThan" value="159.33891138914342"/>
							<Node score="0.3531405623171398">
								<SimplePredicate field="x6" operator="greaterThan" value="70.25000000000001"/>
								<Node score="2.454188958995848">
									<SimplePredicate field="x2" operator="greaterThan" value="17.000000000000004"/>
									<Node score="5.9301299769108695">
										<SimplePredicate field="x6" operator="greaterThan" value="91.85000000000001"/>
									</Node>
								</Node>
							</Node>
							<Node score="-0.25621666625414447">
								<SimplePredicate field="x6" operator="greaterThan" value="30.150000000000002"/>
								<Node score="2.406777859641158">
									<SimplePredicate field="x4" operator="greaterThan" value="78.00000000000001"/>
								</Node>
							</Node>
							<Node score="-2.517284456981864">
								<SimplePredicate field="x5" operator="greaterThan" value="10.000000000000002"/>
								<Node score="-0.10077950160857818">
									<SimplePredicate field="x2" operator="greaterThan" value="226.00000000000003"/>
								</Node>
							</Node>
						</Node>
						<Node score="-3.85429269746213">
							<SimplePredicate field="x6" operator="greaterThan" value="30.250000000000004"/>
							<Node score="-1.9338032730574692">
								<SimplePredicate field="x1" operator="greaterThan" value="56.595671477928"/>
								<Node score="-1.2720077549417814">
									<SimplePredicate field="x6" operator="greaterThan" value="88.85000000000001"/>
									<Node score="1.4340373071917782">
										<SimplePredicate field="x2" operator="greaterThan" value="21.000000000000004"/>
									</Node>
								</Node>
							</Node>
						</Node>
					</Node>
				</TreeModel>
			</Segment>
			<Segment id="16">
				<True/>
				<TreeModel functionName="regression" noTrueChildStrategy="returnLastPrediction">
					<MiningSchema>
						<MiningField name="x1"/>
						<MiningField name="x2"/>
						<MiningField name="x4"/>
						<MiningField name="x5"/>
						<MiningField name="x6"/>
					</MiningSchema>
					<Node score="-4.000345832224322">
						<True/>
						<Node score="0.06290541927019755">
							<SimplePredicate field="x1" operator="greaterThan" value="411.52587507020723"/>
							<Node score="10.856152078840468">
								<SimplePredicate field="x6" operator="greaterThan" value="79.95000000000002"/>
								<Node score="32.71653303146362">
									<SimplePredicate field="x1" operator="greaterThan" value="661.4045697067103"/>
								</Node>
							</Node>
							<Node score="6.174336753040553">
								<SimplePredicate field="x6" operator="greaterThan" value="19.300000000000004"/>
								<Node score="19.948574201877303">
									<SimplePredicate field="x1" operator="greaterThan" value="636.677771876382"/>
									<Node score="9.287560435881216">
										<SimplePredicate field="x1" operator="greaterThan" value="819.5467908610559"/>
									</Node>
								</Node>
							</Node>
						</Node>
						<Node score="-0.42084002271294596">
							<SimplePredicate field="x1" operator="greaterThan" value="187.41286699890478"/>
							<Node score="1.1611944582532434">
								<SimplePredicate field="x6" operator="greaterThan" value="79.55000000000001"/>
								<Node score="10.648870392565458">
									<SimplePredicate field="x4" operator="greaterThan" value="68.00000000000001"/>
									<Node score="13.532077251098777">
										<SimplePredicate field="x2" operator="greaterThan" value="320.00000000000006"/>
									</Node>
									<Node score="3.73417434788176">
										<SimplePredicate field="x4" operator="greaterThan" value="120.00000000000001"/>
									</Node>
								</Node>
								<Node score="-1.0768597706881438">
									<SimplePredicate field="x5" operator="greaterThan" value="120.00000000000001"/>
								</Node>
								<Node score="3.96926319145021">
									<SimplePredicate field="x4" operator="greaterThan" value="30.000000000000004"/>
									<Node score="3.9309047135439785">
										<SimplePredicate field="x5" operator="greaterThan" value="104.00000000000001"/>
									</Node>
									<Node score="12.50917529081687">
										<SimplePredicate field="x4" operator="greaterThan" value="46.00000000000001"/>
									</Node>
								</Node>
								<Node score="-2.4184648904310806">
									<SimplePredicate field="x4" operator="greaterThan" value="18.000000000000004"/>
								</Node>
								<Node score="7.7790465997613">
									<SimplePredicate field="x4" operator="greaterThan" value="14.000000000000002"/>
								</Node>
							</Node>
							<Node score="1.0170255517751416">
								<SimplePredicate field="x6" operator="greaterThan" value="30.150000000000002"/>
								<Node score="1.8802414935568106">
									<SimplePredicate field="x4" operator="greaterThan" value="100.00000000000001"/>
									<Node score="6.254823535951701">
										<SimplePredicate field="x1" operator="greaterThan" value="298.84438388279017"/>
									</Node>
								</Node>
								<Node score="-0.4357577077332576">
									<SimplePredicate field="x5" operator="greaterThan" value="68.00000000000001"/>
								</Node>
								<Node score="7.926601479491409">
									<SimplePredicate field="x4" operator="greaterThan" value="46.00000000000001"/>
								</Node>
							</Node>
							<Node score="0.29698982675786784">
								<SimplePredicate field="x6" operator="greaterThan" value="1.0000000180025095E-35"/>
								<Node score="1.4122430615623793">
									<SimplePredicate field="x4" operator="greaterThan" value="100.00000000000001"/>
								</Node>
								<Node score="-2.4165956982806938">
									<SimplePredicate field="x5" operator="greaterThan" value="104.00000000000001"/>
								</Node>
							</Node>
							<Node score="-4.654032457826519">
								<SimplePredicate field="x5" operator="greaterThan" value="68.00000000000001"/>
							</Node>
						</Node>
						<Node score="-1.8003930081254227">
							<SimplePredicate field="x6" operator="greaterThan" value="69.95000000000002"/>
							<Node score="0.5766230510896165">
								<SimplePredicate field="x4" operator="greaterThan" value="10.000000000000002"/>
							</Node>
						</Node>
						<Node score="-3.220649449559483">
							<SimplePredicate field="x1" operator="greaterThan" value="84.51050755150978"/>
							<Node score="-1.620002665222048">
								<SimplePredicate field="x6" operator="greaterThan" value="10.050000000000002"/>
							</Node>
						</Node>
					</Node>
				</TreeModel>
			</Segment>
			<Segment id="17">
				<True/>
				<TreeModel functionName="regression" noTrueChildStrategy="returnLastPrediction">
					<MiningSchema>
						<MiningField name="x1"/>
						<MiningField name="x2"/>
						<MiningField name="x3"/>
						<MiningField name="x4"/>
						<MiningField name="x5"/>
						<MiningField name="x6"/>
					</MiningSchema>
					<Node score="-3.276451768665728">
						<True/>
						<Node score="23.348601606085495">
							<SimplePredicate field="x4" operator="greaterThan" value="176.00000000000003"/>
						</Node>
						<Node score="1.6568167425216513">
							<SimplePredicate field="x1" operator="greaterThan" value="202.4077509098814"/>
							<Node score="1.7000440668028134">
								<SimplePredicate field="x6" operator="greaterThan" value="80.25000000000001"/>
								<Node score="15.07449104309082">
									<SimplePredicate field="x1" operator="greaterThan" value="447.78050408950725"/>
								</Node>
								<Node score="8.051961890510892">
									<SimplePredicate field="x4" operator="greaterThan" value="78.00000000000001"/>
									<Node score="3.0417420119401957">
										<SimplePredicate field="x4" operator="greaterThan" value="120.00000000000001"/>
									</Node>
									<Node score="14.087642616033555">
										<SimplePredicate field="x4" operator="greaterThan" value="100.00000000000001"/>
									</Node>
								</Node>
								<Node score="4.213068265181322">
									<SimplePredicate field="x4" operator="greaterThan" value="30.000000000000004"/>
									<Node score="0.4482272318431309">
										<SimplePredicate field="x5" operator="greaterThan" value="104.00000000000001"/>
										<Node score="5.03122977506919">
											<SimplePredicate field="x3" operator="greaterThan" value="2475.0000000000005"/>
										</Node>
									</Node>
									<Node score="11.7015133327908">
										<SimplePredicate field="x4" operator="greaterThan" value="46.00000000000001"/>
									</Node>
								</Node>
							</Node>
							<Node score="6.417071664333344">
								<SimplePredicate field="x1" operator="greaterThan" value="422.33294732351425"/>
								<Node score="-1.7303026402868877">
									<SimplePredicate field="x4" operator="greaterThan" value="100.00000000000001"/>
								</Node>
								<Node score="14.534976754869735">
									<SimplePredicate field="x4" operator="greaterThan" value="60.00000000000001"/>
								</Node>
							</Node>
							<Node score="2.272195952588862">
								<SimplePredicate field="x6" operator="greaterThan" value="49.550000000000004"/>
								<Node score="6.589004951505101">
									<SimplePredicate field="x4" operator="greaterThan" value="84.00000000000001"/>
									<Node score="1.1151319648260656">
										<SimplePredicate field="x4" operator="greaterThan" value="120.00000000000001"/>
									</Node>
								</Node>
								<Node score="0.06335605599250146">
									<SimplePredicate field="x5" operator="greaterThan" value="104.00000000000001"/>
								</Node>
								<Node score="8.270228387355806">
									<SimplePredicate field="x4" operator="greaterThan" value="46.00000000000001"/>
								</Node>
								<Node score="-0.9405390629451722">
									<SimplePredicate field="x4" operator="greaterThan" value="22.000000000000004"/>
								</Node>
							</Node>
							<Node score="-4.16951618002307">
								<SimplePredicate field="x5" operator="greaterThan" value="20.000000000000004"/>
								<Node score="0.17984526482495397">
									<SimplePredicate field="x2" operator="greaterThan" value="194.00000000000003"/>
									<Node score="-0.15668134487305696">
										<SimplePredicate field="x5" operator="greaterThan" value="104.00000000000001"/>
									</Node>
									<Node score="8.182789611816407">
										<SimplePredicate field="x4" operator="greaterThan" value="46.00000000000001"/>
									</Node>
								</Node>
								<Node score="-1.7483715536903188">
									<SimplePredicate field="x6" operator="greaterThan" value="9.850000000000003"/>
									<Node score="2.6229186758399012">
										<SimplePredicate field="x4" operator="greaterThan" value="100.00000000000001"/>
									</Node>
								</Node>
							</Node>
						</Node>
						<Node score="-2.259968791618726">
							<SimplePredicate field="x6" operator="greaterThan" value="30.250000000000004"/>
							<Node score="-0.4918319914256186">
								<SimplePredicate field="x1" operator="greaterThan" value="128.8157948644707"/>
								<Node score="1.7599529945044496">
									<SimplePredicate field="x6" operator="greaterThan" value="98.25000000000001"/>
								</Node>
							</Node>
						</Node>
						<Node score="-1.684006874366579">
							<SimplePredicate field="x1" operator="greaterThan" value="163.9124311549037"/>
						</Node>
					</Node>
				</TreeModel>
			</Segment>
			<Segment id="18">
				<True/>
				<TreeModel functionName="regression" noTrueChildStrategy="returnLastPrediction">
					<MiningSchema>
						<MiningField name="x1"/>
						<MiningField name="x2"/>
						<MiningField name="x4"/>
						<MiningField name="x5"/>
						<MiningField name="x6"/>
					</MiningSchema>
					<Node score="-3.2512552481672543">
						<True/>
						<Node score="21.013741861807333">
							<SimplePredicate field="x4" operator="greaterThan" value="176.00000000000003"/>
						</Node>
						<Node score="0.8420979130561606">
							<SimplePredicate field="x1" operator="greaterThan" value="198.1287840084984"/>
							<Node score="1.4893834455808004">
								<SimplePredicate field="x6" operator="greaterThan" value="80.25000000000001"/>
								<Node score="12.471026199291915">
									<SimplePredicate field="x1" operator="greaterThan" value="411.52587507020723"/>
								</Node>
								<Node score="10.473348447550897">
									<SimplePredicate field="x4" operator="greaterThan" value="68.00000000000001"/>
									<Node score="2.7375678079468866">
										<SimplePredicate field="x4" operator="greaterThan" value="120.00000000000001"/>
									</Node>
								</Node>
								<Node score="-1.2372056961059572">
									<SimplePredicate field="x5" operator="greaterThan" value="120.00000000000001"/>
								</Node>
								<Node score="5.2419244265034255">
									<SimplePredicate field="x4" operator="greaterThan" value="30.000000000000004"/>
								</Node>
							</Node>
							<Node score="5.729577816918839">
								<SimplePredicate field="x1" operator="greaterThan" value="422.33294732351425"/>
								<Node score="-1.5572724167893572">
									<SimplePredicate field="x4" operator="greaterThan" value="100.00000000000001"/>
								</Node>
								<Node score="13.794935967372016">
									<SimplePredicate field="x1" operator="greaterThan" value="789.9970704643172"/>
								</Node>
							</Node>
							<Node score="1.381628626243896">
								<SimplePredicate field="x6" operator="greaterThan" value="30.150000000000002"/>
								<Node score="5.302413741339033">
									<SimplePredicate field="x4" operator="greaterThan" value="84.00000000000001"/>
									<Node score="0.8072970818233701">
										<SimplePredicate field="x4" operator="greaterThan" value="120.00000000000001"/>
									</Node>
								</Node>
								<Node score="-0.15769307604261412">
									<SimplePredicate field="x5" operator="greaterThan" value="104.00000000000001"/>
								</Node>
								<Node score="8.28424026489258">
									<SimplePredicate field="x4" operator="greaterThan" value="46.00000000000001"/>
									<Node score="10.772867088317872">
										<SimplePredicate field="x2" operator="greaterThan" value="80.00000000000001"/>
									</Node>
									<Node score="0.933435545152142">
										<SimplePredicate field="x4" operator="greaterThan" value="60.00000000000001"/>
									</Node>
								</Node>
								<Node score="-3.716377523128803">
									<SimplePredicate field="x4" operator="greaterThan" value="22.000000000000004"/>
									<Node score="2.772958489684832">
										<SimplePredicate field="x5" operator="greaterThan" value="60.00000000000001"/>
									</Node>
								</Node>
								<Node score="6.571219582557679">
									<SimplePredicate field="x1" operator="greaterThan" value="291.4423981018753"/>
								</Node>
							</Node>
							<Node score="-2.7463081596248475">
								<SimplePredicate field="x5" operator="greaterThan" value="104.00000000000001"/>
								<Node score="0.456427021989865">
									<SimplePredicate field="x4" operator="greaterThan" value="100.00000000000001"/>
								</Node>
							</Node>
							<Node score="4.321841402781212">
								<SimplePredicate field="x4" operator="greaterThan" value="46.00000000000001"/>
							</Node>
							<Node score="-2.867849523827587">
								<SimplePredicate field="x4" operator="greaterThan" value="22.000000000000004"/>
							</Node>
						</Node>
						<Node score="-2.5521379182794175">
							<SimplePredicate field="x1" operator="greaterThan" value="68.35936296914339"/>
							<Node score="-0.5313539451016396">
								<SimplePredicate field="x6" operator="greaterThan" value="79.15000000000002"/>
								<Node score="1.1569870414537406">
									<SimplePredicate field="x2" operator="greaterThan" value="21.000000000000004"/>
								</Node>
							</Node>
							<Node score="-1.789686695710045">
								<SimplePredicate field="x6" operator="greaterThan" value="19.850000000000005"/>
								<Node score="-0.6764874210411853">
									<SimplePredicate field="x1" operator="greaterThan" value="149.72126029819597"/>
								</Node>
							</Node>
						</Node>
					</Node>
				</TreeModel>
			</Segment>
			<Segment id="19">
				<True/>
				<TreeModel functionName="regression" noTrueChildStrategy="returnLastPrediction">
					<MiningSchema>
						<MiningField name="x1"/>
						<MiningField name="x2"/>
						<MiningField name="x3"/>
						<MiningField name="x4"/>
						<MiningField name="x5"/>
						<MiningField name="x6"/>
					</MiningSchema>
					<Node score="-3.433785610704036">
						<True/>
						<Node score="1.3066083610057833">
							<SimplePredicate field="x1" operator="greaterThan" value="517.0777004427317"/>
							<Node score="8.196975942091509">
								<SimplePredicate field="x4" operator="greaterThan" value="60.00000000000001"/>
								<Node score="28.61116926773735">
									<SimplePredicate field="x6" operator="greaterThan" value="49.95000000000001"/>
								</Node>
							</Node>
							<Node score="6.874584681126807">
								<SimplePredicate field="x6" operator="greaterThan" value="29.850000000000005"/>
							</Node>
						</Node>
						<Node score="0.21866187227842138">
							<SimplePredicate field="x1" operator="greaterThan" value="176.013842624314"/>
							<Node score="1.2935571822035508">
								<SimplePredicate field="x6" operator="greaterThan" value="50.15000000000001"/>
								<Node score="3.3447851385825724">
									<SimplePredicate field="x4" operator="greaterThan" value="68.00000000000001"/>
									<Node score="6.821731877938295">
										<SimplePredicate field="x2" operator="greaterThan" value="320.00000000000006"/>
										<Node score="13.630073097773963">
											<SimplePredicate field="x6" operator="greaterThan" value="90.05000000000001"/>
										</Node>
									</Node>
									<Node score="9.773944000575854">
										<SimplePredicate field="x6" operator="greaterThan" value="99.65000000000002"/>
									</Node>
								</Node>
								<Node score="0.8390096214082506">
									<SimplePredicate field="x5" operator="greaterThan" value="120.00000000000001"/>
									<Node score="-2.719449938757945">
										<SimplePredicate field="x3" operator="greaterThan" value="2225.0000000000005"/>
									</Node>
								</Node>
								<Node score="3.1497925448417665">
									<SimplePredicate field="x2" operator="greaterThan" value="194.00000000000003"/>
									<Node score="10.132928201285276">
										<SimplePredicate field="x1" operator="greaterThan" value="308.2919307618351"/>
									</Node>
								</Node>
								<Node score="5.162774033922898">
									<SimplePredicate field="x6" operator="greaterThan" value="99.65000000000002"/>
								</Node>
							</Node>
							<Node score="0.35337911287105706">
								<SimplePredicate field="x6" operator="greaterThan" value="1.0000000180025095E-35"/>
								<Node score="3.0411883176955503">
									<SimplePredicate field="x4" operator="greaterThan" value="100.00000000000001"/>
									<Node score="0.026871512175509427">
										<SimplePredicate field="x4" operator="greaterThan" value="120.00000000000001"/>
									</Node>
								</Node>
								<Node score="-1.2941549983719742">
									<SimplePredicate field="x5" operator="greaterThan" value="68.00000000000001"/>
								</Node>
								<Node score="5.211724922986645">
									<SimplePredicate field="x4" operator="greaterThan" value="46.00000000000001"/>
								</Node>
								<Node score="-1.9617203708617919">
									<SimplePredicate field="x4" operator="greaterThan" value="22.000000000000004"/>
									<Node score="1.1608472085580595">
										<SimplePredicate field="x5" operator="greaterThan" value="60.00000000000001"/>
									</Node>
									<Node score="-7.029580459594726">
										<SimplePredicate field="x5" operator="greaterThan" value="52.00000000000001"/>
									</Node>
								</Node>
								<Node score="5.1297762372277">
									<SimplePredicate field="x1" operator="greaterThan" value="291.4423981018753"/>
								</Node>
							</Node>
							<Node score="-3.476903036098607">
								<SimplePredicate field="x5" operator="greaterThan" value="52.00000000000001"/>
							</Node>
						</Node>
						<Node score="-1.0694542741324722">
							<SimplePredicate field="x6" operator="greaterThan" value="88.85000000000001"/>
							<Node score="1.151034633969752">
								<SimplePredicate field="x5" operator="greaterThan" value="20.000000000000004"/>
							</Node>
						</Node>
						<Node score="-3.1891179470089375">
							<SimplePredicate field="x1" operator="greaterThan" value="49.28762193222928"/>
							<Node score="-1.6838124999839434">
								<SimplePredicate field="x6" operator="greaterThan" value="1.0000000180025095E-35"/>
								<Node score="-0.8200592398913799">
									<SimplePredicate field="x1" operator="greaterThan" value="149.72126029819597"/>
								</Node>
							</Node>
						</Node>
					</Node>
				</TreeModel>
			</Segment>
			<Segment id="20">
				<True/>
				<TreeModel functionName="regression" noTrueChildStrategy="returnLastPrediction">
					<MiningSchema>
						<MiningField name="x1"/>
						<MiningField name="x2"/>
						<MiningField name="x3"/>
						<MiningField name="x4"/>
						<MiningField name="x5"/>
						<MiningField name="x6"/>
					</MiningSchema>
					<Node score="-3.032149083515596">
						<True/>
						<Node score="17.854592532080574">
							<SimplePredicate field="x4" operator="greaterThan" value="176.00000000000003"/>
						</Node>
						<Node score="1.532824913809697">
							<SimplePredicate field="x1" operator="greaterThan" value="187.41286699890478"/>
							<Node score="1.0506797786850435">
								<SimplePredicate field="x6" operator="greaterThan" value="89.95000000000002"/>
								<Node score="10.545543415922868">
									<SimplePredicate field="x1" operator="greaterThan" value="389.1808259923658"/>
								</Node>
								<Node score="3.7053208958534967">
									<SimplePredicate field="x5" operator="greaterThan" value="44.00000000000001"/>
									<Node score="5.047879989366089">
										<SimplePredicate field="x3" operator="greaterThan" value="2283.5000000000005"/>
										<Node score="9.354486971431308">
											<SimplePredicate field="x4" operator="greaterThan" value="100.00000000000001"/>
										</Node>
									</Node>
									<Node score="-1.2290205467831006">
										<SimplePredicate field="x3" operator="greaterThan" value="2225.0000000000005"/>
									</Node>
								</Node>
							</Node>
							<Node score="-1.8465342730283738">
								<SimplePredicate field="x1" operator="greaterThan" value="374.24716268271976"/>
								<Node score="-3.015463425562932">
									<SimplePredicate field="x2" operator="greaterThan" value="160.00000000000003"/>
									<Node score="-3.1724669308373423">
										<SimplePredicate field="x1" operator="greaterThan" value="465.2623333124364"/>
									</Node>
									<Node score="4.157546073786523">
										<SimplePredicate field="x4" operator="greaterThan" value="60.00000000000001"/>
									</Node>
								</Node>
								<Node score="12.98363882833057">
									<SimplePredicate field="x1" operator="greaterThan" value="789.9970704643172"/>
								</Node>
								<Node score="8.112477529459985">
									<SimplePredicate field="x3" operator="greaterThan" value="2566.5000000000005"/>
								</Node>
								<Node score="0.19871751427650453">
									<SimplePredicate field="x6" operator="greaterThan" value="19.850000000000005"/>
									<Node score="5.475588770610531">
										<SimplePredicate field="x1" operator="greaterThan" value="447.78050408950725"/>
									</Node>
								</Node>
							</Node>
							<Node score="1.0531539389919602">
								<SimplePredicate field="x6" operator="greaterThan" value="49.35"/>
								<Node score="1.917265818670795">
									<SimplePredicate field="x4" operator="greaterThan" value="68.00000000000001"/>
									<Node score="5.43594858716516">
										<SimplePredicate field="x3" operator="greaterThan" value="2475.0000000000005"/>
									</Node>
								</Node>
								<Node score="-1.7435206725545553">
									<SimplePredicate field="x5" operator="greaterThan" value="120.00000000000001"/>
								</Node>
							</Node>
							<Node score="0.5049798184660024">
								<SimplePredicate field="x6" operator="greaterThan" value="1.0000000180025095E-35"/>
								<Node score="1.1573289785758558">
									<SimplePredicate field="x4" operator="greaterThan" value="100.00000000000001"/>
								</Node>
								<Node score="-1.4258633911712773">
									<SimplePredicate field="x5" operator="greaterThan" value="84.00000000000001"/>
								</Node>
								<Node score="5.067859392166138">
									<SimplePredicate field="x4" operator="greaterThan" value="46.00000000000001"/>
								</Node>
								<Node score="-2.224816809998204">
									<SimplePredicate field="x4" operator="greaterThan" value="22.000000000000004"/>
								</Node>
							</Node>
							<Node score="-2.7113065464961297">
								<SimplePredicate field="x4" operator="greaterThan" value="10.000000000000002"/>
							</Node>
						</Node>
						<Node score="-1.4952268551940322">
							<SimplePredicate field="x6" operator="greaterThan" value="50.15000000000001"/>
							<Node score="0.07245095263186545">
								<SimplePredicate field="x1" operator="greaterThan" value="126.24413056196609"/>
							</Node>
						</Node>
						<Node score="-1.0092766313999892">
							<SimplePredicate field="x1" operator="greaterThan" value="81.72099449684355"/>
							<Node score="-2.1314732074711453">
								<SimplePredicate field="x4" operator="greaterThan" value="14.000000000000002"/>
							</Node>
						</Node>
					</Node>
				</TreeModel>
			</Segment>
			<Segment id="21">
				<True/>
				<TreeModel functionName="regression" noTrueChildStrategy="returnLastPrediction">
					<MiningSchema>
						<MiningField name="x1"/>
						<MiningField name="x2"/>
						<MiningField name="x4"/>
						<MiningField name="x5"/>
						<MiningField name="x6"/>
					</MiningSchema>
					<Node score="-2.9194500946018795">
						<True/>
						<Node score="16.06913313350162">
							<SimplePredicate field="x4" operator="greaterThan" value="176.00000000000003"/>
						</Node>
						<Node score="0.18663155774683715">
							<SimplePredicate field="x1" operator="greaterThan" value="177.97914752306048"/>
							<Node score="0.1393973577626144">
								<SimplePredicate field="x6" operator="greaterThan" value="89.75000000000001"/>
								<Node score="3.82894122174808">
									<SimplePredicate field="x1" operator="greaterThan" value="301.8515339282607"/>
									<Node score="11.613718686659228">
										<SimplePredicate field="x4" operator="greaterThan" value="60.00000000000001"/>
										<Node score="6.591374364921025">
											<SimplePredicate field="x2" operator="greaterThan" value="226.00000000000003"/>
										</Node>
									</Node>
